{"learner":{"attributes":{"best_iteration":"300","best_score":"0.1513406993689162"},"feature_names":["period_days","duration_hours","depth_ppm","planet_radius_re","stellar_teff_k","stellar_logg_cgs","stellar_radius_rsun","mag_kepler","mag_tess","insolation_earth","eqt_k","snr_like","period_errw","duration_errw","depth_errw","prad_errw","teff_errw","logg_errw","srad_errw","insol_errw","eqt_errw","period_days__missing","duration_hours__missing","depth_ppm__missing","planet_radius_re__missing","stellar_teff_k__missing","stellar_logg_cgs__missing","stellar_radius_rsun__missing","mag_kepler__missing","mag_tess__missing","insolation_earth__missing","eqt_k__missing","snr_like__missing","period_errw__missing","duration_errw__missing","depth_errw__missing","prad_errw__missing","teff_errw__missing","logg_errw__missing","srad_errw__missing","insol_errw__missing","eqt_errw__missing","log_period","log_duration_h","log_depth_ppm","duty_cycle","depth_per_hour","star_multiplicity","depth_ppm__rank_in_star","snr_like__rank_in_star","period_days__rank_in_star","star_depth_mean","star_depth_std","star_depth_cv","depth_over_radii_model","snr_proxy","eqt_over_teff","log_depth_over_radii_model","log_snr_proxy"],"feature_types":["float","float","float","float","float","float","float","float","float","float","float","float","float","float","float","float","float","float","float","float","float","int","int","int","int","int","int","int","int","int","int","int","int","int","int","int","int","int","int","int","int","int","float","float","float","float","float","int","float","float","float","float","float","float","float","float","float","float","float"],"gradient_booster":{"model":{"gbtree_model_param":{"num_parallel_tree":"1","num_trees":"501"},"iteration_indptr":[0,1,2,3,4,5,6,7,8,9,10,11,12,13,14,15,16,17,18,19,20,21,22,23,24,25,26,27,28,29,30,31,32,33,34,35,36,37,38,39,40,41,42,43,44,45,46,47,48,49,50,51,52,53,54,55,56,57,58,59,60,61,62,63,64,65,66,67,68,69,70,71,72,73,74,75,76,77,78,79,80,81,82,83,84,85,86,87,88,89,90,91,92,93,94,95,96,97,98,99,100,101,102,103,104,105,106,107,108,109,110,111,112,113,114,115,116,117,118,119,120,121,122,123,124,125,126,127,128,129,130,131,132,133,134,135,136,137,138,139,140,141,142,143,144,145,146,147,148,149,150,151,152,153,154,155,156,157,158,159,160,161,162,163,164,165,166,167,168,169,170,171,172,173,174,175,176,177,178,179,180,181,182,183,184,185,186,187,188,189,190,191,192,193,194,195,196,197,198,199,200,201,202,203,204,205,206,207,208,209,210,211,212,213,214,215,216,217,218,219,220,221,222,223,224,225,226,227,228,229,230,231,232,233,234,235,236,237,238,239,240,241,242,243,244,245,246,247,248,249,250,251,252,253,254,255,256,257,258,259,260,261,262,263,264,265,266,267,268,269,270,271,272,273,274,275,276,277,278,279,280,281,282,283,284,285,286,287,288,289,290,291,292,293,294,295,296,297,298,299,300,301,302,303,304,305,306,307,308,309,310,311,312,313,314,315,316,317,318,319,320,321,322,323,324,325,326,327,328,329,330,331,332,333,334,335,336,337,338,339,340,341,342,343,344,345,346,347,348,349,350,351,352,353,354,355,356,357,358,359,360,361,362,363,364,365,366,367,368,369,370,371,372,373,374,375,376,377,378,379,380,381,382,383,384,385,386,387,388,389,390,391,392,393,394,395,396,397,398,399,400,401,402,403,404,405,406,407,408,409,410,411,412,413,414,415,416,417,418,419,420,421,422,423,424,425,426,427,428,429,430,431,432,433,434,435,436,437,438,439,440,441,442,443,444,445,446,447,448,449,450,451,452,453,454,455,456,457,458,459,460,461,462,463,464,465,466,467,468,469,470,471,472,473,474,475,476,477,478,479,480,481,482,483,484,485,486,487,488,489,490,491,492,493,494,495,496,497,498,499,500,501],"tree_info":[0,0,0,0,0,0,0,0,0,0,0,0,0,0,0,0,0,0,0,0,0,0,0,0,0,0,0,0,0,0,0,0,0,0,0,0,0,0,0,0,0,0,0,0,0,0,0,0,0,0,0,0,0,0,0,0,0,0,0,0,0,0,0,0,0,0,0,0,0,0,0,0,0,0,0,0,0,0,0,0,0,0,0,0,0,0,0,0,0,0,0,0,0,0,0,0,0,0,0,0,0,0,0,0,0,0,0,0,0,0,0,0,0,0,0,0,0,0,0,0,0,0,0,0,0,0,0,0,0,0,0,0,0,0,0,0,0,0,0,0,0,0,0,0,0,0,0,0,0,0,0,0,0,0,0,0,0,0,0,0,0,0,0,0,0,0,0,0,0,0,0,0,0,0,0,0,0,0,0,0,0,0,0,0,0,0,0,0,0,0,0,0,0,0,0,0,0,0,0,0,0,0,0,0,0,0,0,0,0,0,0,0,0,0,0,0,0,0,0,0,0,0,0,0,0,0,0,0,0,0,0,0,0,0,0,0,0,0,0,0,0,0,0,0,0,0,0,0,0,0,0,0,0,0,0,0,0,0,0,0,0,0,0,0,0,0,0,0,0,0,0,0,0,0,0,0,0,0,0,0,0,0,0,0,0,0,0,0,0,0,0,0,0,0,0,0,0,0,0,0,0,0,0,0,0,0,0,0,0,0,0,0,0,0,0,0,0,0,0,0,0,0,0,0,0,0,0,0,0,0,0,0,0,0,0,0,0,0,0,0,0,0,0,0,0,0,0,0,0,0,0,0,0,0,0,0,0,0,0,0,0,0,0,0,0,0,0,0,0,0,0,0,0,0,0,0,0,0,0,0,0,0,0,0,0,0,0,0,0,0,0,0,0,0,0,0,0,0,0,0,0,0,0,0,0,0,0,0,0,0,0,0,0,0,0,0,0,0,0,0,0,0,0,0,0,0,0,0,0,0,0,0,0,0,0,0,0,0,0,0,0,0,0,0,0,0,0,0,0,0,0,0,0,0,0,0,0,0,0,0,0,0,0,0,0,0,0,0,0,0,0,0,0,0,0,0,0,0,0,0,0,0,0,0,0,0,0,0,0,0,0,0,0,0,0,0,0,0,0,0,0],"trees":[{"base_weights":[-2.5194155E-2,-6.787068E-1,2.521863E0,-7.531984E-2,7.333046E-2,-7.472216E-2,2.8022E0,-1.1891838E0,3.795231E-1,2.8248808E0,4.0041837E-1,-1.3909621E0,1.793539E-1,9.4923747E-1,-1.3936816E-1,2.5049028E0,1.4574967E-1,-5.9147347E-2,1.2914573E-1,-1.4116637E0,4.7098234E-2,-1.2582844E0,8.193371E-1,1.3642745E0,-9.067835E-1,8.320935E-1,-4.8680562E-1,2.5494165E0,-6.0902476E-2,-1.4326396E0,-9.898502E-1,-7.195917E-2,-3.2371864E-2,1.1565375E0,-6.739148E-2,1.4983587E0,1.7808433E-1,-4.1617298E-1,-1.4629112E0,1.0020491E0,-5.46049E-1,-6.2399006E-1,1.1912034E0,1.9102042E0,2.6637318E0,-1.266902E0,-1.471183E0,2.6388694E-2,-1.24955E0,1.330141E0,-4.2317994E-2,2.1171646E0,1.1111094E0,-8.310317E-1,1.779312E0,-9.397399E-1,2.3525856E-1,-7.4707665E-2,-3.3477005E-2,2.87316E-1,1.2311275E0,2.79464E-1,-1.2871698E0,-7.328456E-1,1.0966133E0,2.970518E-1,1.6768464E0,1.2635808E0,2.3963013E0,2.6931002E0,1.570663E0,-7.195879E-2,1.613994E-2,-7.413618E-2,-4.9556438E-2,-2.6367104E-2,-6.818361E-2,3.0475317E-2,9.0431795E-2,1.1356874E-1,5.7675507E-2,4.5492567E-2,1.04539655E-1,-7.35463E-2,-1.3344142E-3,1.01005115E-1,4.272717E-2,-6.1361533E-2,3.9694714E-3,5.594448E-2,-1.2733872E-2,4.9765132E-2,-1.760087E-2,6.800582E-2,8.3104876E-4,9.4690315E-2,-1.181817E-2,-2.474131E-2,-7.166053E-2,-7.412517E-4,-4.587212E-2,8.7754115E-2,-5.850915E-3,4.652566E-2,-5.0743517E-2,4.5070406E-2,1.048064E-1,3.9398313E-2,1.18409455E-1,1.3184018E-1,3.115875E-2,1.355341E-1,6.799604E-2,1.20662026E-1,1.2948598E-2],"categories":[],"categories_nodes":[],"categories_segments":[],"categories_sizes":[],"default_left":[0,0,0,0,0,0,0,0,0,0,0,0,0,0,0,0,0,0,0,0,0,0,0,0,0,0,0,0,0,0,0,0,0,0,0,0,0,0,0,0,0,0,0,0,0,0,0,0,0,0,0,0,0,0,0,0,0,0,0,0,0,0,0,0,0,0,0,0,0,0,0,0,0,0,0,0,0,0,0,0,0,0,0,0,0,0,0,0,0,0,0,0,0,0,0,0,0,0,0,0,0,0,0,0,0,0,0,0,0,0,0,0,0,0,0],"id":0,"left_children":[1,3,5,-1,7,-1,9,11,13,15,17,19,21,23,25,27,-1,-1,-1,29,-1,31,33,35,37,39,41,43,-1,45,47,-1,-1,49,-1,51,53,55,57,59,61,63,65,67,69,71,73,-1,75,77,-1,79,81,83,85,87,89,-1,-1,91,93,95,97,99,101,103,105,107,109,111,113,-1,-1,-1,-1,-1,-1,-1,-1,-1,-1,-1,-1,-1,-1,-1,-1,-1,-1,-1,-1,-1,-1,-1,-1,-1,-1,-1,-1,-1,-1,-1,-1,-1,-1,-1,-1,-1,-1,-1,-1,-1,-1,-1,-1],"loss_changes":[1.5111658E4,4.497246E3,2.091338E3,0E0,1.4641609E3,0E0,9.32793E1,2.0439978E2,9.012052E2,4.2198242E1,6.310982E1,3.2451904E1,8.924859E1,1.1205206E3,5.391121E2,6.680005E1,0E0,0E0,0E0,4.2370605E0,0E0,2.3754768E0,5.048565E1,1.8866382E2,7.200542E1,9.9112976E1,2.7151074E2,2.2687988E1,0E0,2.0113525E0,1.3868019E1,0E0,0E0,2.1458412E1,0E0,2.533601E2,1.9824248E2,4.8924507E1,2.081665E0,6.104071E1,2.9020569E1,2.0458395E2,3.8252968E1,1.6209457E1,6.040283E0,3.3782852E1,1.2227783E0,0E0,1.6639175E0,1.7587059E1,0E0,5.8255005E1,1.2792572E2,3.8758026E1,8.827164E0,2.3351555E1,2.8177517E1,0E0,0E0,4.213651E1,4.441452E1,1.9586105E1,2.1678543E0,1.3569397E2,5.2260094E1,2.8057077E1,1.684259E1,1.3043987E1,1.2780167E1,3.583496E0,1.1278194E1,0E0,0E0,0E0,0E0,0E0,0E0,0E0,0E0,0E0,0E0,0E0,0E0,0E0,0E0,0E0,0E0,0E0,0E0,0E0,0E0,0E0,0E0,0E0,0E0,0E0,0E0,0E0,0E0,0E0,0E0,0E0,0E0,0E0,0E0,0E0,0E0,0E0,0E0,0E0,0E0,0E0,0E0,0E0,0E0],"parents":[2147483647,0,0,1,1,2,2,4,4,6,6,7,7,8,8,9,9,10,10,11,11,12,12,13,13,14,14,15,15,19,19,21,21,22,22,23,23,24,24,25,25,26,26,27,27,29,29,30,30,33,33,35,35,36,36,37,37,38,38,39,39,40,40,41,41,42,42,43,43,44,44,45,45,46,46,48,48,49,49,51,51,52,52,53,53,54,54,55,55,56,56,59,59,60,60,61,61,62,62,63,63,64,64,65,65,66,66,67,67,68,68,69,69,70,70],"right_children":[2,4,6,-1,8,-1,10,12,14,16,18,20,22,24,26,28,-1,-1,-1,30,-1,32,34,36,38,40,42,44,-1,46,48,-1,-1,50,-1,52,54,56,58,60,62,64,66,68,70,72,74,-1,76,78,-1,80,82,84,86,88,90,-1,-1,92,94,96,98,100,102,104,106,108,110,112,114,-1,-1,-1,-1,-1,-1,-1,-1,-1,-1,-1,-1,-1,-1,-1,-1,-1,-1,-1,-1,-1,-1,-1,-1,-1,-1,-1,-1,-1,-1,-1,-1,-1,-1,-1,-1,-1,-1,-1,-1,-1,-1,-1,-1],"split_conditions":[2.5E0,1E0,1E0,-7.531984E-2,5.68E-2,-7.472216E-2,9.37988E0,1.5E0,3.22E-1,3.5E0,3.5E0,2.4981459E4,1.2956117E0,2.2343524E0,1E-1,3.5498207E0,1.4574967E-1,-5.9147347E-2,1.2914573E-1,1.4719484E3,4.7098234E-2,1.105905E0,3.41E0,1E0,7.8E0,2.4454546E1,2.2644138E-2,1.5263835E0,-6.0902476E-2,6.5E1,1.1495589E0,-7.195917E-2,-3.2371864E-2,1.594E0,-6.739148E-2,2.41E2,2E0,6.77E3,2.84E-1,6.941279E-1,6.55508E1,1.3595752E3,1.07E-1,3E0,1.106E3,1.8379545E-1,5.456208E0,2.6388694E-2,1.6050554E3,2E0,-4.2317994E-2,2.01431E-1,1.5E0,1.5E0,2.6294777E0,1.742E-3,2.41E2,-7.4707665E-2,-3.3477005E-2,3.41E0,5.959E3,1.275642E0,3.9E-1,3.1914387E0,1.37292E0,2.558E2,1.3886462E-1,3.66E2,1.1871779E0,2.89E0,7.98E-1,-7.195879E-2,1.613994E-2,-7.413618E-2,-4.9556438E-2,-2.6367104E-2,-6.818361E-2,3.0475317E-2,9.0431795E-2,1.1356874E-1,5.7675507E-2,4.5492567E-2,1.04539655E-1,-7.35463E-2,-1.3344142E-3,1.01005115E-1,4.272717E-2,-6.1361533E-2,3.9694714E-3,5.594448E-2,-1.2733872E-2,4.9765132E-2,-1.760087E-2,6.800582E-2,8.3104876E-4,9.4690315E-2,-1.181817E-2,-2.474131E-2,-7.166053E-2,-7.412517E-4,-4.587212E-2,8.7754115E-2,-5.850915E-3,4.652566E-2,-5.0743517E-2,4.5070406E-2,1.048064E-1,3.9398313E-2,1.18409455E-1,1.3184018E-1,3.115875E-2,1.355341E-1,6.799604E-2,1.20662026E-1,1.2948598E-2],"split_indices":[49,28,28,0,15,0,15,48,13,49,48,46,42,15,18,57,0,0,0,55,0,42,3,25,15,55,53,42,0,16,43,0,0,6,0,16,48,51,13,57,9,55,18,49,51,56,57,0,55,49,0,13,49,48,42,12,16,0,0,3,4,42,15,3,15,16,56,16,42,15,13,0,0,0,0,0,0,0,0,0,0,0,0,0,0,0,0,0,0,0,0,0,0,0,0,0,0,0,0,0,0,0,0,0,0,0,0,0,0,0,0,0,0,0,0],"split_type":[0,0,0,0,0,0,0,0,0,0,0,0,0,0,0,0,0,0,0,0,0,0,0,0,0,0,0,0,0,0,0,0,0,0,0,0,0,0,0,0,0,0,0,0,0,0,0,0,0,0,0,0,0,0,0,0,0,0,0,0,0,0,0,0,0,0,0,0,0,0,0,0,0,0,0,0,0,0,0,0,0,0,0,0,0,0,0,0,0,0,0,0,0,0,0,0,0,0,0,0,0,0,0,0,0,0,0,0,0,0,0,0,0,0,0],"sum_hessian":[9.076582E3,7.2238516E3,1.8527303E3,3.4384744E3,3.7853772E3,1.2059995E2,1.7321305E3,7.38297E2,3.0470803E3,1.7157521E3,1.6378408E1,6.43415E2,9.488201E1,1.4520161E3,1.5950641E3,3.8334497E2,1.3324071E3,9.757492E0,6.6209164E0,6.381472E2,5.2677827E0,2.892952E1,6.595249E1,1.186876E3,2.651402E2,4.1982013E2,1.175244E3,3.7912714E2,4.2178373E0,6.056338E2,3.251343E1,2.1273462E1,7.6560583E0,5.747587E1,8.4766245E0,1.066103E3,1.2077301E2,1.4179678E2,1.233434E2,3.7397372E2,4.5846386E1,1.0870049E3,8.823916E1,6.0202827E1,3.1892432E2,1.2066003E2,4.8497375E2,4.5999804E0,2.791345E1,5.3200542E1,4.2753267E0,4.0864328E2,6.574597E2,7.43792E1,4.6393806E1,7.836826E1,6.342852E1,1.1782048E2,5.522922E0,9.131662E1,2.826571E2,2.1983036E1,2.3863348E1,1.02286633E3,6.4138504E1,3.1624584E1,5.661457E1,2.738019E1,3.282264E1,3.0915417E2,9.770122E0,1.0894814E2,1.1711884E1,4.715489E2,1.3424872E1,4.575956E0,2.3337496E1,2.2136213E1,3.1064327E1,3.5110086E2,5.754241E1,5.4701434E2,1.1044537E2,4.0962673E1,3.3416527E1,3.5869663E1,1.0524144E1,6.096592E1,1.7402348E1,2.2166348E1,4.1262173E1,4.306757E1,4.8249054E1,2.5541083E2,2.7246279E1,4.676376E0,1.7306662E1,4.3968E0,1.9466549E1,2.0941011E2,8.1345624E2,4.1290016E1,2.2848488E1,2.1522955E1,1.010163E1,2.0974068E1,3.5640503E1,2.0336977E1,7.043212E0,2.8473476E1,4.3491626E0,3.0411044E2,5.043741E0,5.437498E0,4.332623E0],"tree_param":{"num_deleted":"0","num_feature":"59","num_nodes":"115","size_leaf_vector":"1"}},{"base_weights":[-2.8087739E-2,-6.6492647E-1,2.2926903E0,-7.3481396E-2,5.6758877E-2,-7.291239E-2,2.5419412E0,-1.1551077E0,3.478394E-1,2.5634904E0,3.4054965E-1,-1.3456073E0,1.22621514E-1,9.30742E-1,-1.1249059E-1,2.2493167E0,1.3256226E-1,-5.8943767E-2,1.2030756E-1,-1.3722367E0,5.1126808E-2,7.2522587E-1,-1.2279707E0,1.2898893E0,-9.7299933E-1,8.256198E-1,-4.5988402E-1,2.2851148E0,-1.7227773E-2,-1.4058565E0,-7.690986E-1,1.0471967E0,-6.59239E-2,-7.0913315E-2,-6.2593888E-3,5.0953563E-2,1.4716091E0,-1.1107101E0,1.431069E0,1.5611143E0,5.772354E-1,-1.4140467E-1,-1.1544925E0,2.3360891E0,1.1110357E0,-1.414578E0,-9.6122587E-1,-7.0400506E-2,1.4045739E-1,1.5109503E0,3.0337036E-1,-7.1303046E-1,1.5920498E0,2.0420055E0,1.087706E0,-6.270356E-1,-7.210841E-2,1.1844684E-1,-6.3448846E-3,3.6539793E-1,1.855062E0,1.0611721E0,-2.8411946E-1,1.297545E-1,-8.9548296E-1,6.797444E-2,-1.1862129E0,2.3590147E0,1.2396091E-2,2.0408666E0,-1.7707096E-2,-7.172329E-2,-6.116406E-2,-6.649851E-2,-3.384559E-4,3.8616788E-2,-6.0300436E-2,-4.417672E-3,8.6222395E-2,-4.690041E-2,5.2794635E-2,2.380745E-4,-5.373736E-2,8.7815516E-2,-5.1685898E-3,1.0965567E-2,1.0495347E-1,6.90336E-2,2.6099188E-2,-5.7523847E-2,-4.1830615E-4,7.183744E-2,-4.343063E-2,1.1336499E-1,5.491993E-2,5.812179E-2,-2.256491E-2,-4.010239E-2,3.616024E-2,4.8196476E-2,-6.0542915E-3,-5.7857048E-2,1.10925725E-2,-2.6960447E-2,-6.674152E-2,1.23161495E-1,9.8124385E-2,1.1999561E-1,5.5552807E-2],"categories":[],"categories_nodes":[],"categories_segments":[],"categories_sizes":[],"default_left":[0,0,0,0,0,0,0,0,0,0,0,0,0,0,0,0,0,0,0,0,0,0,0,0,0,0,0,0,0,0,0,0,0,0,0,0,0,0,0,0,0,0,0,0,0,0,0,0,0,0,0,0,0,0,0,0,0,0,0,0,0,0,0,0,0,0,0,0,0,0,0,0,0,0,0,0,0,0,0,0,0,0,0,0,0,0,0,0,0,0,0,0,0,0,0,0,0,0,0,0,0,0,0,0,0,0,0,0,0],"id":1,"left_children":[1,3,5,-1,7,-1,9,11,13,15,17,19,21,23,25,27,-1,-1,-1,29,-1,31,33,35,37,39,41,43,-1,45,47,49,-1,-1,-1,51,53,55,57,59,61,63,65,67,69,71,73,-1,75,77,79,81,83,85,87,89,-1,-1,-1,91,93,95,97,99,101,-1,103,105,-1,107,-1,-1,-1,-1,-1,-1,-1,-1,-1,-1,-1,-1,-1,-1,-1,-1,-1,-1,-1,-1,-1,-1,-1,-1,-1,-1,-1,-1,-1,-1,-1,-1,-1,-1,-1,-1,-1,-1,-1],"loss_changes":[1.3398683E4,4.131237E3,1.828709E3,0E0,1.3236406E3,0E0,8.597656E1,1.7705798E2,8.1191956E2,4.401758E1,6.215719E1,4.1291992E1,7.837873E1,9.1409705E2,5.5158234E2,3.81532E1,0E0,0E0,0E0,1.161084E1,0E0,4.5114742E1,6.0646667E0,2.5289929E2,7.193005E1,8.266449E1,2.73026E2,2.1167969E1,0E0,9.346924E-1,2.068568E1,1.9540333E1,0E0,0E0,0E0,1.715754E2,2.1234863E2,3.1402725E1,1.7758928E1,3.970459E1,1.4350142E2,1.7348065E2,3.2559814E1,1.7588867E1,2.5829296E1,4.449463E-1,5.0951977E0,0E0,1.4081495E1,1.2259918E1,2.2958073E1,2.5313076E1,1.3629555E1,4.04209E1,9.670343E1,2.7099728E1,0E0,0E0,0E0,3.286708E1,2.6199402E1,3.4245193E1,6.546536E1,1.3078606E2,6.585332E1,0E0,3.61828E1,1.0678711E1,0E0,1.1466637E0,0E0,0E0,0E0,0E0,0E0,0E0,0E0,0E0,0E0,0E0,0E0,0E0,0E0,0E0,0E0,0E0,0E0,0E0,0E0,0E0,0E0,0E0,0E0,0E0,0E0,0E0,0E0,0E0,0E0,0E0,0E0,0E0,0E0,0E0,0E0,0E0,0E0,0E0,0E0],"parents":[2147483647,0,0,1,1,2,2,4,4,6,6,7,7,8,8,9,9,10,10,11,11,12,12,13,13,14,14,15,15,19,19,21,21,22,22,23,23,24,24,25,25,26,26,27,27,29,29,30,30,31,31,35,35,36,36,37,37,38,38,39,39,40,40,41,41,42,42,43,43,44,44,45,45,46,46,48,48,49,49,50,50,51,51,52,52,53,53,54,54,55,55,59,59,60,60,61,61,62,62,63,63,64,64,66,66,67,67,69,69],"right_children":[2,4,6,-1,8,-1,10,12,14,16,18,20,22,24,26,28,-1,-1,-1,30,-1,32,34,36,38,40,42,44,-1,46,48,50,-1,-1,-1,52,54,56,58,60,62,64,66,68,70,72,74,-1,76,78,80,82,84,86,88,90,-1,-1,-1,92,94,96,98,100,102,-1,104,106,-1,108,-1,-1,-1,-1,-1,-1,-1,-1,-1,-1,-1,-1,-1,-1,-1,-1,-1,-1,-1,-1,-1,-1,-1,-1,-1,-1,-1,-1,-1,-1,-1,-1,-1,-1,-1,-1,-1,-1,-1],"split_conditions":[2.5E0,1E0,1E0,-7.3481396E-2,5.68E-2,-7.291239E-2,9.37988E0,1.5E0,2.76E-1,6E0,6E0,1.39766E1,1.5441936E-8,2.6346755E0,1E-1,2.701854E1,1.3256226E-1,-5.8943767E-2,1.2030756E-1,1.4719484E3,5.1126808E-2,3.41E0,4.5785866E0,3.0312543E0,7.660642E-1,1.02761E1,1.1926E1,8.26E-1,-1.7227773E-2,1.1544E3,4.344349E0,1.7800418E0,-6.59239E-2,-7.0913315E-2,-6.2593888E-3,3E0,2.41E2,7.09E0,2.87E2,6.941279E-1,3.626E-2,6.407E3,7.7228735E2,1.5743379E1,2.787E1,1.6786618E0,4.6243677E0,-7.0400506E-2,4.497E0,3.3557277E0,5.2718E-2,6.3E-2,1.27E0,4.83427E-13,1.19055E1,4.3011E0,-7.210841E-2,1.1844684E-1,-6.3448846E-3,5.3E-1,8.26E-1,6.18E3,8.1E-2,9.44275E0,4.7230723E3,6.797444E-2,3.86E-1,1.1421524E-8,1.2396091E-2,6.3286E-1,-1.7707096E-2,-7.172329E-2,-6.116406E-2,-6.649851E-2,-3.384559E-4,3.8616788E-2,-6.0300436E-2,-4.417672E-3,8.6222395E-2,-4.690041E-2,5.2794635E-2,2.380745E-4,-5.373736E-2,8.7815516E-2,-5.1685898E-3,1.0965567E-2,1.0495347E-1,6.90336E-2,2.6099188E-2,-5.7523847E-2,-4.1830615E-4,7.183744E-2,-4.343063E-2,1.1336499E-1,5.491993E-2,5.812179E-2,-2.256491E-2,-4.010239E-2,3.616024E-2,4.8196476E-2,-6.0542915E-3,-5.7857048E-2,1.10925725E-2,-2.6960447E-2,-6.674152E-2,1.23161495E-1,9.8124385E-2,1.1999561E-1,5.5552807E-2],"split_indices":[48,28,28,0,15,0,15,48,13,47,47,8,45,15,18,54,0,0,0,55,0,3,5,5,57,8,8,13,0,16,5,57,0,0,0,47,16,15,16,57,18,4,2,3,9,43,57,0,5,0,18,18,15,54,8,5,0,0,0,15,13,4,18,8,51,0,13,45,0,15,0,0,0,0,0,0,0,0,0,0,0,0,0,0,0,0,0,0,0,0,0,0,0,0,0,0,0,0,0,0,0,0,0,0,0,0,0,0,0],"split_type":[0,0,0,0,0,0,0,0,0,0,0,0,0,0,0,0,0,0,0,0,0,0,0,0,0,0,0,0,0,0,0,0,0,0,0,0,0,0,0,0,0,0,0,0,0,0,0,0,0,0,0,0,0,0,0,0,0,0,0,0,0,0,0,0,0,0,0,0,0,0,0,0,0,0,0,0,0,0,0,0,0,0,0,0,0,0,0,0,0,0,0,0,0,0,0,0,0,0,0,0,0,0,0,0,0,0,0,0,0],"sum_hessian":[9.063619E3,7.1125864E3,1.9510331E3,3.362386E3,3.7502004E3,1.2126616E2,1.829767E3,7.257383E2,3.0244622E3,1.8118661E3,1.7900791E1,6.3152905E2,9.4209206E1,1.3341034E3,1.6903588E3,4.0140778E2,1.4104584E3,1.0561324E1,7.3394666E0,6.249224E2,6.6066203E0,6.546376E1,2.8745447E1,1.1226366E3,2.1146681E2,4.5642908E2,1.2339297E3,3.9606076E2,5.347009E0,5.906669E2,3.4255558E1,5.6975307E1,8.488454E0,2.4271154E1,4.4742937E0,1.4376315E2,9.788735E2,2.0051862E2,1.0948202E1,1.1389321E2,3.4253586E2,8.468506E2,3.8707907E2,3.7863214E2,1.742861E1,5.7716425E2,1.3502608E1,1.9799507E1,1.4456053E1,3.445951E1,2.2515797E1,9.6474266E1,4.728889E1,3.9205136E2,5.868221E2,8.2712906E1,1.178057E2,6.509231E0,4.4389706E0,2.2916574E1,9.097664E1,2.1916818E2,1.2336768E2,6.234809E2,2.2336969E2,4.301582E0,3.827775E2,3.743921E2,4.2400527E0,1.0421808E1,7.0068007E0,5.169248E2,6.0239437E1,9.455964E0,4.046644E0,1.0129032E1,4.32702E0,4.1274047E0,3.0332106E1,8.404708E0,1.411109E1,3.2656815E1,6.3817455E1,4.3079254E1,4.2096357E0,1.2048522E1,3.8000284E2,3.8566196E2,2.0116016E2,4.433908E1,3.8373825E1,1.2178809E1,1.0737765E1,5.759946E1,3.337718E1,2.0563203E2,1.35361395E1,8.161044E1,4.1757236E1,1.4348282E2,4.7999805E2,1.8095737E2,4.2412327E1,7.23651E1,3.104124E2,2.9234576E2,8.204633E1,6.377907E0,4.043902E0],"tree_param":{"num_deleted":"0","num_feature":"59","num_nodes":"109","size_leaf_vector":"1"}},{"base_weights":[-2.5973305E-2,-6.3950634E-1,2.1233578E0,-7.181598E-2,4.8790477E-2,-7.124742E-2,2.3433862E0,-1.1319597E0,3.2778254E-1,2.3632462E0,3.9666337E-1,-1.3225577E0,8.0067106E-2,8.296542E-1,-1.4560401E-1,2.151889E0,1.22999065E-1,-5.7878543E-2,1.1351559E-1,-1.351881E0,3.9741654E-2,-6.6400506E-2,6.383016E-1,1.1831496E0,-8.42881E-1,-3.33222E-1,1.2319049E0,2.1724982E0,-3.397131E-3,-1.3761411E0,-8.956774E-1,-6.312157E-2,8.583328E-1,1.322468E0,1.3940497E-1,-3.3360642E-1,-1.3679385E0,7.940833E-2,-7.360429E-1,1.4814883E0,1.0691617E-2,1.7970008E0,2.2522595E0,-1.2134243E0,-7.0731E-2,-6.879247E-2,-2.3165898E-1,1.4889643E0,1.7312387E-1,1.9241191E0,9.96951E-1,-1.2145946E0,1.0402735E0,-9.635615E-1,1.4243673E-1,-7.054464E-2,-2.3628954E-2,1.1905506E0,-1.1708544E-1,-8.744174E-1,1.1994327E0,1.8503332E-1,1.6151334E0,1.0615864E0,-5.051513E-1,8.5974413E-1,1.9469241E0,1.9893112E0,2.3477225E0,-6.848952E-2,7.4768225E-3,5.03047E-2,-4.0331822E-2,8.572712E-2,1.3061367E-2,-3.1926446E-2,4.1942216E-2,1.20263636E-1,8.591074E-2,6.467901E-2,1.47798555E-2,-7.178094E-2,-8.815587E-3,1.1883341E-2,7.8886285E-2,-6.452825E-2,-2.0964916E-3,2.3207966E-2,-4.7680683E-2,7.184241E-2,-5.9134334E-2,3.5986073E-2,-1.351239E-2,-4.7055144E-2,1.1079498E-1,7.343888E-2,-6.0379583E-2,-3.4484535E-2,9.06393E-2,1.00188546E-1,6.067669E-2,7.4063516E-3,8.355612E-2,-6.50449E-2,5.686456E-2,8.1582785E-2,-2.4758145E-2,4.0324062E-2,1.0096403E-1,2.5098449E-2,1.0237002E-1,1.1941945E-1,5.836415E-2],"categories":[],"categories_nodes":[],"categories_segments":[],"categories_sizes":[],"default_left":[0,0,0,0,0,0,0,0,0,0,0,0,0,0,0,0,0,0,0,0,0,0,0,0,0,0,0,0,0,0,0,0,0,0,0,0,0,0,0,0,0,0,0,0,0,0,0,0,0,0,0,0,0,0,0,0,0,0,0,0,0,0,0,0,0,0,0,0,0,0,0,0,0,0,0,0,0,0,0,0,0,0,0,0,0,0,0,0,0,0,0,0,0,0,0,0,0,0,0,0,0,0,0,0,0,0,0,0,0,0,0,0,0],"id":2,"left_children":[1,3,5,-1,7,-1,9,11,13,15,17,19,21,23,25,27,-1,-1,-1,29,-1,-1,31,33,35,37,39,41,-1,43,45,-1,47,49,51,53,55,57,59,61,63,65,67,69,-1,-1,71,73,75,77,79,81,83,85,87,-1,-1,89,91,93,95,97,99,101,103,105,107,109,111,-1,-1,-1,-1,-1,-1,-1,-1,-1,-1,-1,-1,-1,-1,-1,-1,-1,-1,-1,-1,-1,-1,-1,-1,-1,-1,-1,-1,-1,-1,-1,-1,-1,-1,-1,-1,-1,-1,-1,-1,-1,-1,-1,-1],"loss_changes":[1.1865237E4,3.8389912E3,1.5633027E3,0E0,1.2378463E3,0E0,7.181641E1,1.6601453E2,7.2220514E2,3.2788086E1,6.146829E1,3.9609985E1,7.8299934E1,8.733229E2,4.048536E2,2.7267822E1,0E0,0E0,0E0,5.546753E0,0E0,0E0,3.087612E1,1.7698938E2,6.853587E1,2.2912128E2,5.7225983E1,1.3544678E1,0E0,1.9134521E0,1.045607E1,0E0,2.7588047E1,2.0858301E2,1.7764304E2,3.9811382E1,4.20665E0,1.4896904E2,1.8783691E2,2.6718018E1,1.8358408E1,1.348172E1,7.3916016E0,2.533377E1,0E0,0E0,1.1760214E1,8.8092575E0,1.783473E1,3.314612E1,1.4515137E2,1.3110321E1,3.731224E1,1.714611E1,2.7321508E1,0E0,0E0,6.1625122E1,7.4549995E1,1.3634201E2,3.2216904E1,2.3606049E1,1.9610596E1,5.958869E0,3.118622E1,1.8236568E1,5.9790344E0,1.0596069E1,1.3868774E1,0E0,0E0,0E0,0E0,0E0,0E0,0E0,0E0,0E0,0E0,0E0,0E0,0E0,0E0,0E0,0E0,0E0,0E0,0E0,0E0,0E0,0E0,0E0,0E0,0E0,0E0,0E0,0E0,0E0,0E0,0E0,0E0,0E0,0E0,0E0,0E0,0E0,0E0,0E0,0E0,0E0,0E0,0E0,0E0],"parents":[2147483647,0,0,1,1,2,2,4,4,6,6,7,7,8,8,9,9,10,10,11,11,12,12,13,13,14,14,15,15,19,19,22,22,23,23,24,24,25,25,26,26,27,27,29,29,30,30,32,32,33,33,34,34,35,35,36,36,37,37,38,38,39,39,40,40,41,41,42,42,43,43,46,46,47,47,48,48,49,49,50,50,51,51,52,52,53,53,54,54,57,57,58,58,59,59,60,60,61,61,62,62,63,63,64,64,65,65,66,66,67,67,68,68],"right_children":[2,4,6,-1,8,-1,10,12,14,16,18,20,22,24,26,28,-1,-1,-1,30,-1,-1,32,34,36,38,40,42,-1,44,46,-1,48,50,52,54,56,58,60,62,64,66,68,70,-1,-1,72,74,76,78,80,82,84,86,88,-1,-1,90,92,94,96,98,100,102,104,106,108,110,112,-1,-1,-1,-1,-1,-1,-1,-1,-1,-1,-1,-1,-1,-1,-1,-1,-1,-1,-1,-1,-1,-1,-1,-1,-1,-1,-1,-1,-1,-1,-1,-1,-1,-1,-1,-1,-1,-1,-1,-1,-1,-1,-1,-1],"split_conditions":[2.5E0,1E0,1E0,-7.181598E-2,5.68E-2,-7.124742E-2,9.37988E0,2E0,3.22E-1,7E0,6E0,1.39766E1,2.6532707E0,2.2343524E0,8.485281E0,3.58117E1,1.22999065E-1,-5.7878543E-2,1.1351559E-1,7.2950215E0,3.9741654E-2,-6.6400506E-2,3.497211E-13,1E0,7.09E0,1.2259051E0,1.12E0,1.248E-6,-3.397131E-3,6.5E1,1.31263E1,-6.312157E-2,4.812E3,2.26E2,2E0,2.0234907E0,2.84E-1,9.44275E0,7.215663E0,1.6597992E0,2.296E2,2.5370662E0,3.6E1,1.8379545E-1,-7.0731E-2,-6.879247E-2,1.31823E1,1.7800418E0,5.537E3,6.858E-6,1.20797E1,1.84E2,3E0,1.742E-3,1.688E3,-7.054464E-2,-2.3628954E-2,1.599E3,5.076737E-1,1.35868E1,1.21651E1,9.8102185E2,1.03579E1,2.16E0,1.17E0,7.363132E-1,3.497211E-13,1.1170254E0,9.91924E0,-6.848952E-2,7.4768225E-3,5.03047E-2,-4.0331822E-2,8.572712E-2,1.3061367E-2,-3.1926446E-2,4.1942216E-2,1.20263636E-1,8.591074E-2,6.467901E-2,1.47798555E-2,-7.178094E-2,-8.815587E-3,1.1883341E-2,7.8886285E-2,-6.452825E-2,-2.0964916E-3,2.3207966E-2,-4.7680683E-2,7.184241E-2,-5.9134334E-2,3.5986073E-2,-1.351239E-2,-4.7055144E-2,1.1079498E-1,7.343888E-2,-6.0379583E-2,-3.4484535E-2,9.06393E-2,1.00188546E-1,6.067669E-2,7.4063516E-3,8.355612E-2,-6.50449E-2,5.686456E-2,8.1582785E-2,-2.4758145E-2,4.0324062E-2,1.0096403E-1,2.5098449E-2,1.0237002E-1,1.1941945E-1,5.836415E-2],"split_indices":[49,28,28,0,15,0,15,47,13,47,47,8,0,15,52,54,0,0,0,58,0,0,54,26,15,6,13,12,0,16,8,0,4,16,47,58,13,8,58,58,16,0,16,56,0,0,8,57,4,12,8,16,47,12,10,0,0,10,6,8,8,14,8,15,6,0,54,0,8,0,0,0,0,0,0,0,0,0,0,0,0,0,0,0,0,0,0,0,0,0,0,0,0,0,0,0,0,0,0,0,0,0,0,0,0,0,0,0,0,0,0,0,0],"split_type":[0,0,0,0,0,0,0,0,0,0,0,0,0,0,0,0,0,0,0,0,0,0,0,0,0,0,0,0,0,0,0,0,0,0,0,0,0,0,0,0,0,0,0,0,0,0,0,0,0,0,0,0,0,0,0,0,0,0,0,0,0,0,0,0,0,0,0,0,0,0,0,0,0,0,0,0,0,0,0,0,0,0,0,0,0,0,0,0,0,0,0,0,0,0,0,0,0,0,0,0,0,0,0,0,0,0,0,0,0,0,0,0,0],"sum_hessian":[8.995746E3,6.99866E3,1.9970862E3,3.2431318E3,3.7555283E3,1.16287674E2,1.8807985E3,7.17188E2,3.0383403E3,1.861593E3,1.9205511E1,6.196529E2,9.7535095E1,1.4744332E3,1.563907E3,5.918025E2,1.2697905E3,1.070645E1,8.499062E0,6.115453E2,8.107617E0,2.7298664E1,7.0236435E1,1.2174203E3,2.5701288E2,1.3771025E3,1.8680453E2,5.8637976E2,5.4226985E0,5.787519E2,3.2793427E1,6.7955713E0,6.344086E1,1.0738204E3,1.4359998E2,1.3129749E2,1.2571539E2,6.80665E2,6.9643756E2,1.549282E2,3.1876328E1,1.0685603E2,4.7952374E2,1.1690927E2,4.618426E2,1.840918E1,1.4384247E1,3.2425274E1,3.1015587E1,3.7528067E2,6.9853973E2,5.723216E1,8.636781E1,5.6072197E1,7.522529E1,1.1941096E2,6.304437E0,1.0152089E2,5.7914404E2,6.5048047E2,4.5957104E1,1.4701114E1,1.402271E2,1.0146838E1,2.172949E1,1.566427E1,9.119176E1,1.3353806E2,3.459857E2,1.048727E2,1.2036565E1,4.3246922E0,1.0059554E1,2.7057384E1,5.3678904E0,1.3994367E1,1.7021221E1,1.0926674E2,2.6601392E2,4.9032025E2,2.0821945E2,4.687168E1,1.0360477E1,3.521762E1,5.1150192E1,4.1092056E1,1.4980144E1,5.8600777E1,1.6624512E1,9.2333015E1,9.187877E0,8.902953E1,4.9011453E2,6.374211E2,1.305934E1,4.1682632E1,4.2744727E0,9.937291E0,4.763823E0,6.923617E1,7.099093E1,4.5584683E0,5.58837E0,1.4777762E1,6.9517274E0,9.8489275E0,5.815343E0,6.1652083E0,8.502655E1,5.381768E0,1.281563E2,3.3347415E2,1.251154E1],"tree_param":{"num_deleted":"0","num_feature":"59","num_nodes":"113","size_leaf_vector":"1"}},{"base_weights":[-2.9280476E-2,-6.1042154E-1,1.9783351E0,-7.0302665E-2,5.7117674E-2,-6.9737926E-2,2.1805727E0,-1.1191154E0,3.248092E-1,2.1914446E0,-2.8547913E-1,-1.3116552E0,1.6745993E-1,7.9571724E-1,-1.2505692E-1,1.9194608E0,2.2681944E0,3.257598E-2,-5.7421755E-2,-1.3321776E0,3.8069304E-2,7.7231866E-1,-1.1690093E0,1.1107593E0,-7.9518753E-1,-3.1631318E-1,1.2237185E0,1.9553369E0,-9.82188E-4,1.1352941E-1,6.759658E-2,-1.3568149E0,-8.753184E-1,1.0661577E0,-6.273699E-2,-6.8023525E-2,-3.4022287E-3,1.6624643E-1,1.2491295E0,-1.2273337E0,-1.722846E-1,9.210371E-1,-4.9984556E-1,5.747328E-1,1.5284759E0,1.9819212E0,-2.4415355E-2,-1.230712E0,-6.924363E-2,-6.717868E-2,-2.4681851E-1,1.3668423E0,2.4247675E-1,-5.1578385E-1,1.4734482E0,1.7633226E0,9.1868764E-1,-8.984147E-1,-6.980365E-2,-3.269905E-1,9.307172E-2,1.3610599E0,3.180813E-1,1.7790274E-1,-7.496708E-1,2.111659E-1,9.7642034E-2,1.7826253E0,5.751482E-1,2.0378146E0,9.7285396E-1,-6.788922E-2,-3.933459E-3,-4.617107E-2,4.058715E-2,5.3443205E-2,1.00244395E-1,-6.2284082E-2,5.0748296E-2,-4.1370478E-2,1.404596E-2,1.8037975E-2,7.966968E-2,1.093725E-1,7.756086E-2,5.9227075E-2,1.706175E-2,-5.517021E-2,1.3105216E-2,6.470253E-2,-2.7954508E-2,7.7525504E-2,-1.7112901E-2,3.31354E-2,-5.857681E-2,2.9903973E-2,-4.193875E-2,-4.2189326E-2,3.341649E-2,-5.7716914E-2,3.4413774E-2,1.0976583E-1,6.8497814E-2,9.679612E-2,-8.715763E-3,8.8730864E-2,1.0761917E-1,-2.788961E-2,7.803456E-2],"categories":[],"categories_nodes":[],"categories_segments":[],"categories_sizes":[],"default_left":[0,0,0,0,0,0,0,0,0,0,0,0,0,0,0,0,0,0,0,0,0,0,0,0,0,0,0,0,0,0,0,0,0,0,0,0,0,0,0,0,0,0,0,0,0,0,0,0,0,0,0,0,0,0,0,0,0,0,0,0,0,0,0,0,0,0,0,0,0,0,0,0,0,0,0,0,0,0,0,0,0,0,0,0,0,0,0,0,0,0,0,0,0,0,0,0,0,0,0,0,0,0,0,0,0,0,0,0,0],"id":3,"left_children":[1,3,5,-1,7,-1,9,11,13,15,17,19,21,23,25,27,29,-1,-1,31,-1,33,35,37,39,41,43,45,-1,-1,-1,47,49,51,-1,-1,-1,53,55,57,59,61,63,65,67,69,-1,71,-1,-1,73,75,77,79,81,83,85,87,-1,89,-1,91,93,95,97,99,-1,101,103,105,107,-1,-1,-1,-1,-1,-1,-1,-1,-1,-1,-1,-1,-1,-1,-1,-1,-1,-1,-1,-1,-1,-1,-1,-1,-1,-1,-1,-1,-1,-1,-1,-1,-1,-1,-1,-1,-1,-1],"loss_changes":[1.0435199E4,3.6840356E3,1.3727246E3,0E0,1.188267E3,0E0,5.1421875E1,1.7353564E2,6.513243E2,3.5026367E1,8.188022E0,2.6910522E1,7.5242874E1,7.537077E2,4.0616507E2,2.9373413E1,1.4453125E-1,0E0,0E0,5.600464E0,0E0,3.940548E1,6.0310364E0,1.6370386E2,6.6778244E1,3.1349973E2,3.779962E1,2.7864014E1,0E0,0E0,0E0,3.1384277E-1,9.579372E0,1.36273575E1,0E0,0E0,0E0,1.4466673E2,1.8422266E2,6.8914185E0,3.3045692E1,4.6900284E1,2.0349417E2,3.1699339E1,3.1069916E1,2.1128662E1,0E0,1.6406342E1,0E0,0E0,1.1924972E1,5.665962E0,1.9988796E1,2.6750637E1,6.845787E0,3.500354E1,1.0213733E2,1.2794903E1,0E0,3.7090668E1,0E0,3.371402E1,4.0085564E1,1.3903343E2,1.1770685E2,3.456372E1,0E0,1.4722809E1,3.0278194E1,7.860718E0,2.1943035E1,0E0,0E0,0E0,0E0,0E0,0E0,0E0,0E0,0E0,0E0,0E0,0E0,0E0,0E0,0E0,0E0,0E0,0E0,0E0,0E0,0E0,0E0,0E0,0E0,0E0,0E0,0E0,0E0,0E0,0E0,0E0,0E0,0E0,0E0,0E0,0E0,0E0,0E0],"parents":[2147483647,0,0,1,1,2,2,4,4,6,6,7,7,8,8,9,9,10,10,11,11,12,12,13,13,14,14,15,15,16,16,19,19,21,21,22,22,23,23,24,24,25,25,26,26,27,27,31,31,32,32,33,33,37,37,38,38,39,39,40,40,41,41,42,42,43,43,44,44,45,45,47,47,50,50,51,51,52,52,53,53,54,54,55,55,56,56,57,57,59,59,61,61,62,62,63,63,64,64,65,65,67,67,68,68,69,69,70,70],"right_children":[2,4,6,-1,8,-1,10,12,14,16,18,20,22,24,26,28,30,-1,-1,32,-1,34,36,38,40,42,44,46,-1,-1,-1,48,50,52,-1,-1,-1,54,56,58,60,62,64,66,68,70,-1,72,-1,-1,74,76,78,80,82,84,86,88,-1,90,-1,92,94,96,98,100,-1,102,104,106,108,-1,-1,-1,-1,-1,-1,-1,-1,-1,-1,-1,-1,-1,-1,-1,-1,-1,-1,-1,-1,-1,-1,-1,-1,-1,-1,-1,-1,-1,-1,-1,-1,-1,-1,-1,-1,-1,-1],"split_conditions":[2.5E0,1E0,1E0,-7.0302665E-2,5.68E-2,-6.9737926E-2,2.1828865E1,1.5E0,3.22E-1,6E0,9.272E-5,2.4981459E4,1.5441936E-8,2.296655E0,8.485281E0,3.1116936E0,9.6E-1,3.257598E-2,-5.7421755E-2,1.4719484E3,3.8069304E-2,3.41E0,4.589E0,3.670872E0,4.1696984E-1,3.626E-2,5.7991347E0,1.5743379E1,-9.82188E-4,1.1352941E-1,6.759658E-2,6.5E1,4.344349E0,2.1925528E0,-6.273699E-2,-6.8023525E-2,-3.4022287E-3,3E0,2.41E2,7.09E0,2E0,1.2812E-4,1.00059E1,1.532582E3,9.4E-1,9.91924E0,-2.4415355E-2,1.8379545E-1,-6.924363E-2,-6.717868E-2,1.004E0,2E-2,5.2718E-2,1E2,1.24E-4,8.6E-6,1.20797E1,3.248E-3,-6.980365E-2,8.446E1,9.307172E-2,8.607238E-2,1.9E-2,6.331E3,1.3595752E3,8.9672E-1,9.7642034E-2,1.00556E1,3.1E-5,3.6E1,1.04106E1,-6.788922E-2,-3.933459E-3,-4.617107E-2,4.058715E-2,5.3443205E-2,1.00244395E-1,-6.2284082E-2,5.0748296E-2,-4.1370478E-2,1.404596E-2,1.8037975E-2,7.966968E-2,1.093725E-1,7.756086E-2,5.9227075E-2,1.706175E-2,-5.517021E-2,1.3105216E-2,6.470253E-2,-2.7954508E-2,7.7525504E-2,-1.7112901E-2,3.31354E-2,-5.857681E-2,2.9903973E-2,-4.193875E-2,-4.2189326E-2,3.341649E-2,-5.7716914E-2,3.4413774E-2,1.0976583E-1,6.8497814E-2,9.679612E-2,-8.715763E-3,8.8730864E-2,1.0761917E-1,-2.788961E-2,7.803456E-2],"split_indices":[48,28,28,0,15,0,3,48,13,47,12,46,45,15,52,57,18,0,0,55,0,3,5,5,57,18,55,3,0,0,0,16,5,57,0,0,0,47,16,15,47,12,8,52,13,8,0,56,0,0,6,17,18,16,12,12,8,12,0,16,0,45,17,4,55,15,0,8,12,16,8,0,0,0,0,0,0,0,0,0,0,0,0,0,0,0,0,0,0,0,0,0,0,0,0,0,0,0,0,0,0,0,0,0,0,0,0,0,0],"split_type":[0,0,0,0,0,0,0,0,0,0,0,0,0,0,0,0,0,0,0,0,0,0,0,0,0,0,0,0,0,0,0,0,0,0,0,0,0,0,0,0,0,0,0,0,0,0,0,0,0,0,0,0,0,0,0,0,0,0,0,0,0,0,0,0,0,0,0,0,0,0,0,0,0,0,0,0,0,0,0,0,0,0,0,0,0,0,0,0,0,0,0,0,0,0,0,0,0,0,0,0,0,0,0,0,0,0,0,0,0],"sum_hessian":[8.942105E3,6.935262E3,2.0068427E3,3.1635547E3,3.7717078E3,1.1318295E2,1.8936597E3,6.986534E2,3.0730544E3,1.8854587E3,8.200961E0,6.076911E2,9.0962296E1,1.5010382E3,1.5720162E3,4.206778E2,1.4647809E3,4.049271E0,4.1516895E0,6.0208795E2,5.6031165E0,6.291181E1,2.805048E1,1.2531771E3,2.4786108E2,1.3774583E3,1.9455798E2,4.1302783E2,7.649967E0,1.45949E3,5.29097E0,5.694113E2,3.267668E1,5.5360832E1,7.550979E0,2.3694267E1,4.356214E0,1.6041167E2,1.0927655E3,1.4576476E2,1.0209632E2,1.7740428E2,1.200054E3,6.309085E1,1.3146713E2,4.087698E2,4.258038E0,1.1180031E2,4.57611E2,1.8073513E1,1.46031685E1,4.0072823E1,1.528801E1,1.0581059E2,5.4601067E1,4.2582028E2,6.669452E2,5.1568306E1,9.419646E1,9.565874E1,6.437586E0,1.0183223E2,7.557205E1,3.2329047E2,8.767634E2,5.0833416E1,1.2257438E1,1.0310917E2,2.8357965E1,3.8634995E2,2.2419853E1,1.0053278E2,1.1267528E1,8.9867525E0,5.6164165E0,2.913943E1,1.0933395E1,5.014771E0,1.0273238E1,7.603242E1,2.9778177E1,5.70311E0,4.8897957E1,1.3885394E2,2.869663E2,4.559697E2,2.1097552E2,4.386872E1,7.699585E0,1.1407879E1,8.4250854E1,9.172041E1,1.0111821E1,6.1824028E1,1.3748026E1,2.2904256E2,9.424792E1,8.225725E2,5.4190918E1,1.2794803E1,3.8038612E1,4.9393364E1,5.37158E1,9.509261E0,1.8848705E1,1.22173004E2,2.6417694E2,6.235248E0,1.6184607E1],"tree_param":{"num_deleted":"0","num_feature":"59","num_nodes":"109","size_leaf_vector":"1"}},{"base_weights":[-3.0492615E-2,-5.9808457E-1,1.8700122E0,-6.892264E-2,4.71122E-2,-6.836396E-2,2.0572028E0,-1.0821191E0,2.9264948E-1,2.0674014E0,-2.1512691E-2,-1.2562497E0,5.662518E-2,5.988133E-1,-2.8724498E-1,1.8547821E0,2.1275215E0,-1.2736073E0,1.3311977E-2,-1.069149E0,6.630339E-1,3.8624626E-1,1.2257185E0,3.148498E-1,-7.177719E-1,1.8852384E0,-1.9901035E-2,1.0648816E-1,5.989806E-2,-1.304467E0,-7.213965E-1,-1.2146729E0,-1.1827496E-2,9.576587E-1,-6.1702657E-2,-5.528951E-1,5.492323E-1,1.3163503E0,-1.1352253E0,8.811578E-1,-9.310578E-1,-8.5360193E-1,8.423763E-1,1.9081519E0,-1.9083535E-2,-1.3226703E0,-9.673105E-1,-6.5843165E-2,4.6933632E-2,-2.9154683E-2,-6.633471E-2,1.4610294E0,2.2037531E-1,-8.8395077E-1,1.6303668E0,1.3393942E0,1.8996973E-1,6.7544085E-1,1.5274247E0,-6.583794E-2,-1.845625E-2,3.3495376E-1,1.3512121E0,-1.2646886E0,2.1838067E-2,-9.275957E-1,1.1973656E0,1.2658557E0,-6.933051E-1,1.4443066E0,1.9928513E0,-6.7474335E-2,-5.5968065E-2,-6.6694856E-2,3.903182E-2,3.1086376E-2,-5.7433236E-2,4.9482603E-2,1.0170245E-1,-2.3905305E-2,6.986641E-2,-5.0126422E-2,7.697845E-4,1.0033659E-1,-1.5086007E-2,8.156421E-2,3.684997E-2,4.7023818E-2,-2.2372347E-3,-7.328684E-2,4.2339884E-2,8.526813E-2,3.137979E-2,-3.7793E-3,5.6456853E-2,7.137292E-2,-3.737699E-2,-6.640806E-2,-3.433696E-2,2.7953748E-2,-6.7507826E-2,-5.8226436E-2,-2.5202552E-2,8.489537E-2,-1.6133906E-2,7.5565085E-2,-2.8030088E-2,-6.467813E-2,1.5130027E-2,7.994869E-2,2.025058E-2,1.0035729E-1,5.0412007E-2],"categories":[],"categories_nodes":[],"categories_segments":[],"categories_sizes":[],"default_left":[0,0,0,0,0,0,0,0,0,0,0,0,0,0,0,0,0,0,0,0,0,0,0,0,0,0,0,0,0,0,0,0,0,0,0,0,0,0,0,0,0,0,0,0,0,0,0,0,0,0,0,0,0,0,0,0,0,0,0,0,0,0,0,0,0,0,0,0,0,0,0,0,0,0,0,0,0,0,0,0,0,0,0,0,0,0,0,0,0,0,0,0,0,0,0,0,0,0,0,0,0,0,0,0,0,0,0,0,0,0,0,0,0],"id":4,"left_children":[1,3,5,-1,7,-1,9,11,13,15,-1,17,19,21,23,25,27,29,-1,31,33,35,37,39,41,43,-1,-1,-1,45,47,49,-1,51,-1,53,55,57,59,61,63,65,67,69,-1,71,73,-1,75,-1,-1,77,79,81,83,85,87,89,91,-1,-1,93,95,97,99,101,103,105,107,109,111,-1,-1,-1,-1,-1,-1,-1,-1,-1,-1,-1,-1,-1,-1,-1,-1,-1,-1,-1,-1,-1,-1,-1,-1,-1,-1,-1,-1,-1,-1,-1,-1,-1,-1,-1,-1,-1,-1,-1,-1,-1,-1],"loss_changes":[9.510332E3,3.4181775E3,1.2314722E3,0E0,1.0309886E3,0E0,4.952295E1,1.3175983E2,5.4240784E2,2.0461426E1,0E0,1.556311E1,6.149551E1,2.659303E2,2.7395462E2,3.0164429E1,5.361328E-1,8.768188E0,0E0,3.5359268E0,3.387166E1,2.2904468E2,1.0971338E2,3.119475E2,1.3126257E2,2.2708252E1,0E0,0E0,0E0,2.0247803E0,1.48818245E1,1.1096573E0,0E0,1.8675076E1,0E0,1.6153195E2,3.6137256E2,6.4919495E1,2.188877E0,7.751491E1,4.3990242E1,8.718497E1,3.328997E1,1.3586426E1,0E0,1.2593384E0,2.1097515E1,0E0,1.1097338E1,0E0,0E0,6.1554947E0,1.8709377E1,2.0595016E1,2.206797E1,6.877942E1,1.5451071E2,4.621373E1,5.7522522E1,0E0,0E0,4.6315163E1,2.7132416E1,2.84581E0,2.7911861E1,5.4405E1,1.5906586E1,1.851942E1,7.217822E0,1.0338226E1,2.927002E0,0E0,0E0,0E0,0E0,0E0,0E0,0E0,0E0,0E0,0E0,0E0,0E0,0E0,0E0,0E0,0E0,0E0,0E0,0E0,0E0,0E0,0E0,0E0,0E0,0E0,0E0,0E0,0E0,0E0,0E0,0E0,0E0,0E0,0E0,0E0,0E0,0E0,0E0,0E0,0E0,0E0,0E0],"parents":[2147483647,0,0,1,1,2,2,4,4,6,6,7,7,8,8,9,9,11,11,12,12,13,13,14,14,15,15,16,16,17,17,19,19,20,20,21,21,22,22,23,23,24,24,25,25,29,29,30,30,31,31,33,33,35,35,36,36,37,37,38,38,39,39,40,40,41,41,42,42,43,43,45,45,46,46,48,48,51,51,52,52,53,53,54,54,55,55,56,56,57,57,58,58,61,61,62,62,63,63,64,64,65,65,66,66,67,67,68,68,69,69,70,70],"right_children":[2,4,6,-1,8,-1,10,12,14,16,-1,18,20,22,24,26,28,30,-1,32,34,36,38,40,42,44,-1,-1,-1,46,48,50,-1,52,-1,54,56,58,60,62,64,66,68,70,-1,72,74,-1,76,-1,-1,78,80,82,84,86,88,90,92,-1,-1,94,96,98,100,102,104,106,108,110,112,-1,-1,-1,-1,-1,-1,-1,-1,-1,-1,-1,-1,-1,-1,-1,-1,-1,-1,-1,-1,-1,-1,-1,-1,-1,-1,-1,-1,-1,-1,-1,-1,-1,-1,-1,-1,-1,-1,-1,-1,-1,-1],"split_conditions":[2.5E0,1E0,1E0,-6.892264E-2,5.68E-2,-6.836396E-2,2.1828865E1,1.5E0,1.4E-1,6E0,-2.1512691E-2,1.39766E1,3.3557277E0,2E0,3.003328E-1,3.3189468E0,9.2E-1,1.4719484E3,1.3311977E-2,4.595E0,3.3474214E0,5.2921736E-1,7.09E0,2.2E0,1.3595752E3,9.37988E0,-1.9901035E-2,1.0648816E-1,5.989806E-2,1.7852383E0,4.344349E0,1.5441936E-8,-1.1827496E-2,1.7800418E0,-6.1702657E-2,3.4E0,2.04E-1,1.9E-2,1.4623974E1,1.3787661E0,2.150926E1,1.6375406E-1,9.016422E0,3.6069455E0,-1.9083535E-2,1.59746E1,2.485E0,-6.5843165E-2,4.497E0,-2.9154683E-2,-6.633471E-2,1.694E0,1.136684E-1,9.02E-1,2.03508E2,1.23353E1,3.626E-2,9.7430307E-1,7.8E-1,-6.583794E-2,-1.845625E-2,2E0,5.35E2,1.249909E1,1.23155E1,1.5196204E0,2.0233208E-1,1.9768549E0,1.5817E0,2.883162E0,1.3528347E1,-6.7474335E-2,-5.5968065E-2,-6.6694856E-2,3.903182E-2,3.1086376E-2,-5.7433236E-2,4.9482603E-2,1.0170245E-1,-2.3905305E-2,6.986641E-2,-5.0126422E-2,7.697845E-4,1.0033659E-1,-1.5086007E-2,8.156421E-2,3.684997E-2,4.7023818E-2,-2.2372347E-3,-7.328684E-2,4.2339884E-2,8.526813E-2,3.137979E-2,-3.7793E-3,5.6456853E-2,7.137292E-2,-3.737699E-2,-6.640806E-2,-3.433696E-2,2.7953748E-2,-6.7507826E-2,-5.8226436E-2,-2.5202552E-2,8.489537E-2,-1.6133906E-2,7.5565085E-2,-2.8030088E-2,-6.467813E-2,1.5130027E-2,7.994869E-2,2.025058E-2,1.0035729E-1,5.0412007E-2],"split_indices":[49,28,28,0,15,0,3,48,18,47,0,8,0,47,13,57,18,55,0,5,3,57,15,15,55,15,0,0,0,43,5,45,0,57,0,20,13,17,0,43,55,53,44,0,0,3,6,0,5,0,0,5,18,13,16,8,18,0,13,0,0,47,16,55,8,43,56,43,6,0,3,0,0,0,0,0,0,0,0,0,0,0,0,0,0,0,0,0,0,0,0,0,0,0,0,0,0,0,0,0,0,0,0,0,0,0,0,0,0,0,0,0,0],"split_type":[0,0,0,0,0,0,0,0,0,0,0,0,0,0,0,0,0,0,0,0,0,0,0,0,0,0,0,0,0,0,0,0,0,0,0,0,0,0,0,0,0,0,0,0,0,0,0,0,0,0,0,0,0,0,0,0,0,0,0,0,0,0,0,0,0,0,0,0,0,0,0,0,0,0,0,0,0,0,0,0,0,0,0,0,0,0,0,0,0,0,0,0,0,0,0,0,0,0,0,0,0,0,0,0,0,0,0,0,0,0,0,0,0],"sum_hessian":[8.814347E3,6.7878257E3,2.0265211E3,3.0715894E3,3.7162363E3,1.1043011E2,1.916091E3,6.6312103E2,3.0531152E3,1.9084354E3,7.655601E0,5.750798E2,8.804126E1,1.9981368E3,1.0549784E3,4.276993E2,1.4807361E3,5.687589E2,6.320845E0,3.0554653E1,5.7486607E1,1.4933854E3,5.0475153E2,4.3996005E2,6.150184E2,4.221552E2,5.5440946E0,1.4758859E3,4.8501863E0,5.373665E2,3.1392426E1,2.561815E1,4.9365034E0,5.0187492E1,7.2991123E0,2.204927E2,1.2728926E3,4.8651755E2,1.8233976E1,3.026761E2,1.3728398E2,5.6617847E2,4.88399E1,4.1808752E2,4.067686E0,5.070665E2,3.03E1,1.7283524E1,1.4108903E1,4.794093E0,2.0824057E1,2.924156E1,2.0945932E1,1.919776E2,2.8515114E1,3.970009E2,8.758917E2,1.2157262E2,3.6494492E2,1.4159896E1,4.074081E0,1.4079019E2,1.618859E2,1.01440216E2,3.5843765E1,5.469921E2,1.9186373E1,3.8420715E1,1.0419188E1,6.734325E1,3.507443E2,4.4299774E2,6.406876E1,2.5242844E1,5.0571566E0,9.852309E0,4.2565937E0,1.753994E1,1.1701621E1,1.3517522E1,7.4284115E0,1.6951283E2,2.2464767E1,2.3833738E1,4.681376E0,2.662713E2,1.307296E2,2.0795198E2,6.6793976E2,8.448702E0,1.1312392E2,3.039456E2,6.099934E1,9.340886E1,4.7381325E1,1.565195E2,5.3663955E0,9.023248E1,1.12077265E1,2.6183506E1,9.66026E0,3.4964783E2,1.9734427E2,1.4345476E1,4.840896E0,3.402135E1,4.3993616E0,6.314436E0,4.1047516E0,5.8150764E1,9.192485E0,3.4470145E2,6.0428414E0],"tree_param":{"num_deleted":"0","num_feature":"59","num_nodes":"113","size_leaf_vector":"1"}},{"base_weights":[-2.6465598E-2,-5.722518E-1,1.7532781E0,4.893543E-2,-6.766104E-2,1.933021E0,-6.711307E-2,-1.0498859E0,2.832818E-1,1.655747E0,1.0069051E-1,-1.2405579E0,9.109329E-2,7.3274744E-1,-8.792963E-2,1.7205261E0,-7.384191E-1,-1.2591906E0,5.1475555E-2,6.118942E-1,-1.1238868E0,1.022322E0,-7.753722E-1,5.438699E-1,-4.1659516E-1,1.7466682E0,-1.6905505E-2,-6.4492665E-2,6.2803687E-3,-1.2871373E0,-7.6521665E-1,8.564753E-1,-6.0429145E-2,-6.562133E-2,4.0197937E-4,1.1648202E-1,1.156201E0,-2.739801E-1,-6.7547336E-2,7.4441546E-1,-6.9431424E-1,4.352711E-2,-6.420181E-1,1.8859748E0,1.3167057E0,-1.1168588E0,-1.3267428E0,-6.4612895E-2,-4.3445166E-2,1.1624225E0,-1.3405128E-1,-8.882376E-1,8.3675754E-1,1.6304206E0,8.7769616E-1,-9.555703E-1,2.664435E-1,1.3990088E0,3.9939606E-1,5.45691E-1,-9.37453E-1,6.9400406E-1,-3.717653E-1,-7.203355E-1,1.2806492E0,1.896819E0,4.385906E-2,1.09716505E-1,1.4689691E0,-6.720561E-2,1.9333676E-2,-6.676802E-2,-4.5149114E-2,2.6700208E-2,-5.8144577E-2,2.9642409E-2,7.584476E-2,6.888547E-2,-4.265608E-2,-6.890255E-2,1.0205003E-2,-4.2028166E-2,4.889278E-2,1.0031938E-1,7.124022E-2,3.6392916E-2,7.600517E-2,-6.0654234E-2,-1.227653E-2,2.6381684E-2,-6.501674E-2,3.926301E-2,1.0222038E-1,2.9024733E-2,-3.8763385E-2,6.965407E-2,-2.3461673E-2,-2.4555817E-2,-6.828691E-2,-5.7061534E-2,5.1517736E-2,-5.331647E-2,-1.8630326E-3,-4.174033E-2,2.5621507E-2,9.327441E-2,-3.372195E-3,8.5049324E-2,9.892026E-2,4.3223955E-2,-1.6877182E-2,8.027997E-2,7.977109E-3],"categories":[],"categories_nodes":[],"categories_segments":[],"categories_sizes":[],"default_left":[0,0,0,0,0,0,0,0,0,0,0,0,0,0,0,0,0,0,0,0,0,0,0,0,0,0,0,0,0,0,0,0,0,0,0,0,0,0,0,0,0,0,0,0,0,0,0,0,0,0,0,0,0,0,0,0,0,0,0,0,0,0,0,0,0,0,0,0,0,0,0,0,0,0,0,0,0,0,0,0,0,0,0,0,0,0,0,0,0,0,0,0,0,0,0,0,0,0,0,0,0,0,0,0,0,0,0,0,0,0,0,0,0],"id":5,"left_children":[1,3,5,7,-1,9,-1,11,13,15,-1,17,19,21,23,25,27,29,-1,31,33,35,37,39,41,43,-1,-1,-1,45,47,49,-1,-1,-1,51,53,55,-1,57,59,61,63,65,67,69,71,-1,73,75,77,79,81,83,85,87,89,91,93,95,97,99,101,103,105,107,-1,109,111,-1,-1,-1,-1,-1,-1,-1,-1,-1,-1,-1,-1,-1,-1,-1,-1,-1,-1,-1,-1,-1,-1,-1,-1,-1,-1,-1,-1,-1,-1,-1,-1,-1,-1,-1,-1,-1,-1,-1,-1,-1,-1,-1,-1],"loss_changes":[8.498103E3,3.2481824E3,1.1450288E3,9.608259E2,0E0,4.014502E1,0E0,1.428064E2,5.131577E2,7.006384E1,0E0,2.5069885E1,6.0703186E1,6.0830804E2,3.5014456E2,2.384961E1,6.062943E0,6.717285E0,0E0,3.0883442E1,6.1590233E0,1.4144641E2,6.446126E1,1.438116E2,1.15061264E2,2.308789E1,0E0,0E0,0E0,2.069519E0,1.2246513E1,1.8242428E1,0E0,0E0,0E0,1.1033608E2,1.3288916E2,4.49412E1,0E0,1.1171411E2,2.4919323E1,9.90255E1,1.1301825E2,1.8382568E0,1.9647766E1,3.6632004E1,3.3483887E-1,0E0,1.0112955E1,8.327782E0,1.7460245E1,3.437352E1,2.1819118E1,2.6140442E1,6.077646E1,9.551853E0,2.8696629E1,6.620209E1,6.99991E1,1.26112995E1,1.2338161E1,8.93345E1,5.1957077E1,1.0145813E2,2.3381554E1,1.6815186E0,0E0,4.73257E0,1.6852936E1,0E0,0E0,0E0,0E0,0E0,0E0,0E0,0E0,0E0,0E0,0E0,0E0,0E0,0E0,0E0,0E0,0E0,0E0,0E0,0E0,0E0,0E0,0E0,0E0,0E0,0E0,0E0,0E0,0E0,0E0,0E0,0E0,0E0,0E0,0E0,0E0,0E0,0E0,0E0,0E0,0E0,0E0,0E0,0E0],"parents":[2147483647,0,0,1,1,2,2,3,3,5,5,7,7,8,8,9,9,11,11,12,12,13,13,14,14,15,15,16,16,17,17,19,19,20,20,21,21,22,22,23,23,24,24,25,25,29,29,30,30,31,31,35,35,36,36,37,37,39,39,40,40,41,41,42,42,43,43,44,44,45,45,46,46,48,48,49,49,50,50,51,51,52,52,53,53,54,54,55,55,56,56,57,57,58,58,59,59,60,60,61,61,62,62,63,63,64,64,65,65,67,67,68,68],"right_children":[2,4,6,8,-1,10,-1,12,14,16,-1,18,20,22,24,26,28,30,-1,32,34,36,38,40,42,44,-1,-1,-1,46,48,50,-1,-1,-1,52,54,56,-1,58,60,62,64,66,68,70,72,-1,74,76,78,80,82,84,86,88,90,92,94,96,98,100,102,104,106,108,-1,110,112,-1,-1,-1,-1,-1,-1,-1,-1,-1,-1,-1,-1,-1,-1,-1,-1,-1,-1,-1,-1,-1,-1,-1,-1,-1,-1,-1,-1,-1,-1,-1,-1,-1,-1,-1,-1,-1,-1,-1,-1,-1,-1,-1,-1],"split_conditions":[4E0,9.233E0,3.4E0,5.68E-2,-6.766104E-2,6E0,-6.711307E-2,2E0,2.76E-1,1.5185722E1,1.0069051E-1,2.4981459E4,1.5441936E-8,2.2343524E0,3.6E0,2.701854E1,3.8233343E-14,1.4719484E3,5.1475555E-2,3.41E0,4.595E0,3.640343E0,7.8E0,1.4067375E3,2.52E2,1.1421524E-8,-1.6905505E-2,-6.4492665E-2,6.2803687E-3,6.5E1,4.344349E0,8.117449E0,-6.0429145E-2,-6.562133E-2,4.0197937E-4,2E0,2.296E2,6.5646853E0,-6.7547336E-2,3.48E-5,4.34E-1,1.6E-1,1.725585E-1,3.3520672E0,6.1476022E-2,1.8379545E-1,1.1544E3,-6.4612895E-2,2.1072396E4,3E0,1.25E2,1.51E2,1.8468376E0,9.9E-6,2E0,1.742E-3,3.18743E-1,7.225E0,2.0847458E1,2.4434804E2,3.2713366E-1,3.835E0,1.0000823E0,1.2213423E3,2.76E2,3.6E1,4.385906E-2,8.846724E-1,4.276E-4,-6.720561E-2,1.9333676E-2,-6.676802E-2,-4.5149114E-2,2.6700208E-2,-5.8144577E-2,2.9642409E-2,7.584476E-2,6.888547E-2,-4.265608E-2,-6.890255E-2,1.0205003E-2,-4.2028166E-2,4.889278E-2,1.0031938E-1,7.124022E-2,3.6392916E-2,7.600517E-2,-6.0654234E-2,-1.227653E-2,2.6381684E-2,-6.501674E-2,3.926301E-2,1.0222038E-1,2.9024733E-2,-3.8763385E-2,6.965407E-2,-2.3461673E-2,-2.4555817E-2,-6.828691E-2,-5.7061534E-2,5.1517736E-2,-5.331647E-2,-1.8630326E-3,-4.174033E-2,2.5621507E-2,9.327441E-2,-3.372195E-3,8.5049324E-2,9.892026E-2,4.3223955E-2,-1.6877182E-2,8.027997E-2,7.977109E-3],"split_indices":[47,7,11,15,0,47,0,47,13,3,0,46,45,15,3,54,54,55,0,3,5,5,15,10,16,45,0,0,0,16,5,54,0,0,0,47,16,55,0,12,13,17,53,15,3,56,16,0,2,47,16,16,0,12,47,12,56,55,55,46,56,5,54,55,16,16,0,0,12,0,0,0,0,0,0,0,0,0,0,0,0,0,0,0,0,0,0,0,0,0,0,0,0,0,0,0,0,0,0,0,0,0,0,0,0,0,0,0,0,0,0,0,0],"split_type":[0,0,0,0,0,0,0,0,0,0,0,0,0,0,0,0,0,0,0,0,0,0,0,0,0,0,0,0,0,0,0,0,0,0,0,0,0,0,0,0,0,0,0,0,0,0,0,0,0,0,0,0,0,0,0,0,0,0,0,0,0,0,0,0,0,0,0,0,0,0,0,0,0,0,0,0,0,0,0,0,0,0,0,0,0,0,0,0,0,0,0,0,0,0,0,0,0,0,0,0,0,0,0,0,0,0,0,0,0,0,0,0,0],"sum_hessian":[8.746636E3,6.694379E3,2.052257E3,3.7291384E3,2.9652402E3,1.9399872E3,1.1227E2,6.549023E2,3.074236E3,4.4256628E2,1.4974209E3,5.6105554E2,9.384675E1,1.3901084E3,1.6841277E3,4.3118118E2,1.13851E1,5.5692957E2,4.125944E0,6.603657E1,2.781018E1,1.1664584E3,2.2365001E2,5.760746E2,1.1080531E3,4.2592398E2,5.2571845E0,6.648861E0,4.7362394E0,5.255885E2,3.134108E1,5.8682148E1,7.3544145E0,2.3702673E1,4.107509E0,1.5043932E2,1.0160191E3,1.20316444E2,1.0333357E2,4.9611835E2,7.9956245E1,3.6461847E2,7.4343463E2,3.1913794E2,1.0678605E2,1.0468952E2,4.20899E2,1.765726E1,1.368382E1,4.4701508E1,1.3980642E1,6.27189E1,8.772042E1,3.7412683E2,6.418923E2,5.286904E1,6.7447395E1,1.7018239E2,3.2593594E2,1.2903606E1,6.705264E1,1.4181734E2,2.2280113E2,7.1493787E2,2.8496746E1,3.1487286E2,4.2650795E0,1.2154906E1,9.463115E1,9.103583E1,1.3653693E1,4.104018E2,1.04972E1,9.372258E0,4.311562E0,1.8173082E1,2.6528423E1,4.2111773E0,9.7694645E0,4.3121357E1,1.959754E1,6.4219065E0,8.129851E1,1.2917459E2,2.4495224E2,5.222203E2,1.1967194E2,3.827804E1,1.4591002E1,5.8378613E1,9.068786E0,8.836629E1,8.18161E1,2.8283667E2,4.3099277E1,6.8291507E0,6.0744557E0,3.3885567E1,3.3167076E1,2.1595041E1,1.202223E2,7.1711624E1,1.5108951E2,6.544869E2,6.0451E1,1.9606936E1,8.8898115E0,9.902667E1,2.1584619E2,4.1756167E0,7.9792895E0,8.5485146E1,9.145998E0],"tree_param":{"num_deleted":"0","num_feature":"59","num_nodes":"113","size_leaf_vector":"1"}},{"base_weights":[-3.4105547E-2,-5.644653E-1,1.6736627E0,-6.650513E-2,3.6344495E-2,-6.597434E-2,1.8384262E0,-1.0372038E0,2.6522827E-1,1.848213E0,-3.2542798E-1,-1.2220672E0,7.576293E-2,5.489331E-1,-2.9103318E-1,1.6805173E0,1.9269339E0,-5.734049E-2,3.1331684E-2,-1.2493587E0,3.2715064E-2,-1.0954388E0,6.4099294E-1,3.470793E-1,1.1255994E0,1.9985932E-1,-7.1130884E-1,1.69591E0,-2.1511031E-2,9.645047E-2,5.603361E-2,-1.2690054E0,-7.328174E-1,-6.1971433E-2,-1.7820802E-2,8.953277E-1,-5.9836447E-2,-5.4699606E-1,4.9859652E-1,-1.0538608E0,1.2113007E0,5.2739716E-1,-6.7054056E-2,-8.2643825E-1,6.0365164E-1,1.3068036E0,1.7789326E0,-1.2786726E0,-7.805041E-1,-6.309426E-2,1.2786168E-2,1.3842441E0,3.723728E-1,-8.627997E-1,1.4148763E0,1.4939874E0,2.5737607E-1,-3.141146E-3,-6.506655E-2,1.3315136E0,2.8420767E-1,-1.0514395E-2,1.0566037E0,-9.051381E-1,1.1078488E0,1.0028384E0,-6.3242406E-2,1.4023798E0,-2.0397816E-2,1.7961254E0,1.0606124E0,-6.474681E-2,-4.785081E-2,2.8359003E-3,-5.951805E-2,3.333327E-2,9.082877E-2,2.9442718E-3,7.56674E-2,-3.2208115E-2,-6.1986085E-2,8.808138E-2,-1.7430004E-2,7.9813175E-2,-3.089231E-2,4.4714507E-2,1.3362305E-3,2.887269E-2,7.628003E-2,-1.8025203E-2,4.5482572E-2,8.1554735E-3,-7.132712E-2,-1.7647306E-2,5.883348E-2,-1.9373773E-2,-5.4644085E-2,-1.786265E-2,7.961663E-2,7.283351E-2,-4.391494E-2,7.5237304E-2,2.2786725E-2,8.225075E-2,9.449539E-2,8.802555E-2,2.1782598E-2],"categories":[],"categories_nodes":[],"categories_segments":[],"categories_sizes":[],"default_left":[0,0,0,0,0,0,0,0,0,0,0,0,0,0,0,0,0,0,0,0,0,0,0,0,0,0,0,0,0,0,0,0,0,0,0,0,0,0,0,0,0,0,0,0,0,0,0,0,0,0,0,0,0,0,0,0,0,0,0,0,0,0,0,0,0,0,0,0,0,0,0,0,0,0,0,0,0,0,0,0,0,0,0,0,0,0,0,0,0,0,0,0,0,0,0,0,0,0,0,0,0,0,0,0,0,0,0],"id":6,"left_children":[1,3,5,-1,7,-1,9,11,13,15,17,19,21,23,25,27,29,-1,-1,31,-1,33,35,37,39,41,43,45,-1,-1,-1,47,49,-1,-1,51,-1,53,55,57,59,61,-1,63,65,67,69,71,73,-1,-1,75,77,79,81,83,85,-1,-1,87,89,91,93,95,97,99,-1,101,-1,103,105,-1,-1,-1,-1,-1,-1,-1,-1,-1,-1,-1,-1,-1,-1,-1,-1,-1,-1,-1,-1,-1,-1,-1,-1,-1,-1,-1,-1,-1,-1,-1,-1,-1,-1,-1,-1],"loss_changes":[7.8152617E3,3.0286685E3,1.0107969E3,0E0,9.0698047E2,0E0,4.1651367E1,1.3355511E2,4.8028613E2,2.2238281E1,8.208689E0,2.930658E1,6.2492393E1,2.341742E2,2.1227676E2,2.1014404E1,2.3925781E-2,0E0,0E0,4.6384277E0,0E0,2.830635E0,3.0791716E1,2.0267384E2,9.8783264E1,2.4047357E2,8.4396454E1,1.7704956E1,0E0,0E0,0E0,1.4918213E0,1.2075676E1,0E0,0E0,1.39122505E1,0E0,1.3565805E2,3.0649948E2,4.893345E0,5.565204E1,1.1174103E2,0E0,7.863721E1,3.4976364E1,1.9058426E1,4.371704E0,1.4570923E0,4.4590163E0,0E0,0E0,7.7221794E0,1.0152428E1,1.4654938E1,1.9242638E1,5.479065E1,1.5128815E2,0E0,0E0,6.421246E1,2.4109776E1,4.833113E1,3.390059E1,4.7256866E1,1.5040741E1,3.3545406E1,0E0,9.689545E0,0E0,3.904419E0,5.497566E0,0E0,0E0,0E0,0E0,0E0,0E0,0E0,0E0,0E0,0E0,0E0,0E0,0E0,0E0,0E0,0E0,0E0,0E0,0E0,0E0,0E0,0E0,0E0,0E0,0E0,0E0,0E0,0E0,0E0,0E0,0E0,0E0,0E0,0E0,0E0,0E0],"parents":[2147483647,0,0,1,1,2,2,4,4,6,6,7,7,8,8,9,9,10,10,11,11,12,12,13,13,14,14,15,15,16,16,19,19,21,21,22,22,23,23,24,24,25,25,26,26,27,27,31,31,32,32,35,35,37,37,38,38,39,39,40,40,41,41,43,43,44,44,45,45,46,46,47,47,48,48,51,51,52,52,53,53,54,54,55,55,56,56,59,59,60,60,61,61,62,62,63,63,64,64,65,65,67,67,69,69,70,70],"right_children":[2,4,6,-1,8,-1,10,12,14,16,18,20,22,24,26,28,30,-1,-1,32,-1,34,36,38,40,42,44,46,-1,-1,-1,48,50,-1,-1,52,-1,54,56,58,60,62,-1,64,66,68,70,72,74,-1,-1,76,78,80,82,84,86,-1,-1,88,90,92,94,96,98,100,-1,102,-1,104,106,-1,-1,-1,-1,-1,-1,-1,-1,-1,-1,-1,-1,-1,-1,-1,-1,-1,-1,-1,-1,-1,-1,-1,-1,-1,-1,-1,-1,-1,-1,-1,-1,-1,-1,-1,-1],"split_conditions":[2.5E0,1E0,1E0,-6.650513E-2,5.68E-2,-6.597434E-2,2.1828865E1,1.5E0,1.4E-1,7E0,3.0312543E0,1.39766E1,1.4714904E0,2E0,3.52E-1,9.37988E0,8.91E-1,-5.734049E-2,3.1331684E-2,2.1624417E3,3.2715064E-2,4.595E0,3.3474214E0,7.115299E-1,7.500837E-14,4.26E0,1.0610787E3,1.248E-6,-2.1511031E-2,9.645047E-2,5.603361E-2,1.1544E3,1.31263E1,-6.1971433E-2,-1.7820802E-2,4.812E3,-5.9836447E-2,3.4E0,1.2E-1,9.148317E0,8.48E-1,1.3787661E0,-6.7054056E-2,1.6375406E-1,1.2023E1,2.701854E1,1.1390418E-2,1.7852383E0,1.038E-1,-6.309426E-2,1.2786168E-2,3E0,1.26E-7,1E0,2.03508E2,2.5630205E0,4E-2,-3.141146E-3,-6.506655E-2,3.6E1,1.15E3,1.2352E1,1.7755328E-2,1.01843E1,4.0120473E0,2.78E2,-6.3242406E-2,3.83E0,-2.0397816E-2,1.9E-2,9.529E0,-6.474681E-2,-4.785081E-2,2.8359003E-3,-5.951805E-2,3.333327E-2,9.082877E-2,2.9442718E-3,7.56674E-2,-3.2208115E-2,-6.1986085E-2,8.808138E-2,-1.7430004E-2,7.9813175E-2,-3.089231E-2,4.4714507E-2,1.3362305E-3,2.887269E-2,7.628003E-2,-1.8025203E-2,4.5482572E-2,8.1554735E-3,-7.132712E-2,-1.7647306E-2,5.883348E-2,-1.9373773E-2,-5.4644085E-2,-1.786265E-2,7.961663E-2,7.283351E-2,-4.391494E-2,7.5237304E-2,2.2786725E-2,8.225075E-2,9.449539E-2,8.802555E-2,2.1782598E-2],"split_indices":[49,28,28,0,15,0,3,48,18,47,5,8,42,47,13,15,18,0,0,55,0,5,3,54,54,15,55,12,0,0,0,16,8,0,0,4,0,20,13,3,13,43,0,53,8,54,45,43,13,0,0,47,12,30,16,42,18,0,0,16,51,8,45,8,5,16,0,3,0,17,8,0,0,0,0,0,0,0,0,0,0,0,0,0,0,0,0,0,0,0,0,0,0,0,0,0,0,0,0,0,0,0,0,0,0,0,0],"split_type":[0,0,0,0,0,0,0,0,0,0,0,0,0,0,0,0,0,0,0,0,0,0,0,0,0,0,0,0,0,0,0,0,0,0,0,0,0,0,0,0,0,0,0,0,0,0,0,0,0,0,0,0,0,0,0,0,0,0,0,0,0,0,0,0,0,0,0,0,0,0,0,0,0,0,0,0,0,0,0,0,0,0,0,0,0,0,0,0,0,0,0,0,0,0,0,0,0,0,0,0,0,0,0,0,0,0,0],"sum_hessian":[8.62663E3,6.582925E3,2.0437053E3,2.893897E3,3.689028E3,1.0626429E2,1.937441E3,6.476732E2,3.0413547E3,1.928863E3,8.578006E0,5.553343E2,9.233893E1,2.0141234E3,1.0272313E3,6.2333954E2,1.3055236E3,4.495233E0,4.0827723E0,5.477022E2,7.632029E0,2.9752121E1,6.258681E1,1.4930903E3,5.210331E2,4.7405164E2,5.531797E2,6.190218E2,4.317718E0,1.3007827E3,4.740853E0,5.262302E2,2.1472025E1,2.4333843E1,5.418278E0,5.5428493E1,7.158316E0,2.1598604E2,1.2771044E3,1.9285639E1,5.017474E2,3.9149445E2,8.25572E1,5.0898758E2,4.419213E1,1.11797035E2,5.0722476E2,5.1443225E2,1.1797941E1,1.3806346E1,7.6656795E0,2.7795343E1,2.763315E1,1.8652174E2,2.9464293E1,2.4810616E2,1.0289982E3,4.104063E0,1.5181577E1,4.437692E2,5.7978226E1,1.9463646E2,1.9685799E2,4.8959943E2,1.9388147E1,3.6794613E1,7.3975186E0,1.060673E2,5.7297363E0,4.9390283E2,1.3321921E1,4.8679318E2,2.7639082E1,4.160608E0,7.637334E0,1.1405929E1,1.6389414E1,2.2502193E1,5.130956E0,1.1976174E2,6.676001E1,2.4623615E1,4.8406777E0,2.3687828E2,1.1227878E1,2.7280508E2,7.561931E2,9.16539E1,3.521153E2,2.8757942E1,2.9220284E1,1.7416618E2,2.0470278E1,1.5299959E1,1.8155801E2,1.3112213E2,3.584773E2,4.8833323E0,1.4504816E1,2.9824884E1,6.969727E0,9.5184845E1,1.0882451E1,1.9624185E2,2.9766098E2,5.4270864E0,7.8948345E0],"tree_param":{"num_deleted":"0","num_feature":"59","num_nodes":"107","size_leaf_vector":"1"}},{"base_weights":[-1.9227108E-2,-6.544512E-2,6.4215463E-1,-7.020395E-2,1.6526119E0,-1.1147984E0,1.5256861E-1,1.1226063E0,1.753975E0,7.870128E-2,-1.1380943E0,5.177571E-1,-2.1370026E-1,-8.4992814E-1,1.1951121E0,1.7675148E0,1.9157033E-1,-1.1690575E0,8.255973E-1,7.7874106E-1,-6.991218E-1,3.0241102E-1,-6.0417765E-1,-1.0823268E-3,-5.930558E-2,1.246041E0,-4.8613173E-1,1.6143088E0,9.189017E-2,-5.3875007E-2,8.803169E-2,-1.2137436E0,-5.8480173E-1,-6.4925156E-3,7.78033E-2,8.895199E-1,-5.33962E-1,-1.1925362E0,-1.0117491E-1,3.9927825E-1,-9.553148E-1,-3.5763222E-1,-1.2370688E0,1.396789E0,5.960165E-1,-5.7232585E-2,1.4499846E-2,1.6273288E0,1.176236E-2,-1.2337775E0,-6.529333E-1,-8.8609725E-1,3.6711324E-2,1.2971163E0,6.3887215E-1,1.9867975E-1,-1.0604836E0,-1.2546646E-2,-1.2330503E0,2.2734402E-1,-8.138334E-1,1.0322931E0,1.6866001E-1,-1.9224837E-2,-1.1793956E0,-4.9800718E-1,1.0067817E0,-1.3146691E0,-8.216615E-1,1.4474554E0,-3.5696715E-2,-8.345135E-1,8.189698E-1,1.3361021E0,1.6809117E0,-6.26397E-2,-4.2943135E-2,-6.1504703E-2,1.4579262E-2,-8.566018E-3,-6.776672E-2,7.77207E-2,3.3092175E-2,4.074574E-2,-1.345996E-2,-4.878618E-2,3.21432E-2,-6.699886E-2,-2.8762354E-2,-6.520208E-2,-3.0374898E-2,2.4907427E-2,-6.2969506E-2,1.4748538E-2,-6.899102E-2,5.9254717E-2,-6.2110778E-2,3.9538324E-2,-1.4083222E-2,-5.9993684E-2,5.9217084E-2,-6.672216E-2,-8.154274E-4,-2.8781889E-2,5.9143472E-2,6.997528E-2,-2.7437806E-2,-3.671245E-2,-6.6691644E-2,-5.5512805E-2,5.2588113E-2,2.7695933E-2,7.8130566E-2,-5.572614E-3,-6.647235E-2,6.1734933E-2,8.514515E-3,7.268988E-2,-1.2911635E-2,7.9270944E-2,8.904055E-2],"categories":[],"categories_nodes":[],"categories_segments":[],"categories_sizes":[],"default_left":[0,0,0,0,0,0,0,0,0,0,0,0,0,0,0,0,0,0,0,0,0,0,0,0,0,0,0,0,0,0,0,0,0,0,0,0,0,0,0,0,0,0,0,0,0,0,0,0,0,0,0,0,0,0,0,0,0,0,0,0,0,0,0,0,0,0,0,0,0,0,0,0,0,0,0,0,0,0,0,0,0,0,0,0,0,0,0,0,0,0,0,0,0,0,0,0,0,0,0,0,0,0,0,0,0,0,0,0,0,0,0,0,0,0,0,0,0,0,0,0,0],"id":7,"left_children":[1,-1,3,5,7,9,11,13,15,-1,17,19,21,23,25,27,29,31,33,35,37,39,41,-1,-1,43,45,47,-1,-1,-1,49,51,-1,-1,53,55,57,59,61,63,65,67,69,71,-1,-1,73,-1,75,77,79,-1,81,83,85,87,-1,89,91,93,95,97,99,101,103,105,107,109,111,-1,113,115,117,119,-1,-1,-1,-1,-1,-1,-1,-1,-1,-1,-1,-1,-1,-1,-1,-1,-1,-1,-1,-1,-1,-1,-1,-1,-1,-1,-1,-1,-1,-1,-1,-1,-1,-1,-1,-1,-1,-1,-1,-1,-1,-1,-1,-1,-1,-1],"loss_changes":[7.267208E3,0E0,4.0539275E3,7.6905524E2,1.2313623E2,3.817816E1,3.6449088E2,5.4882996E1,4.097705E1,0E0,3.601703E1,4.3385852E2,2.744228E2,3.855423E0,3.1747375E1,1.78833E1,3.75431E1,1.4118469E1,6.8567786E0,1.6391595E2,7.1122734E1,7.186951E1,1.2048859E2,0E0,0E0,3.3786316E1,6.1650057E0,1.0698242E1,0E0,0E0,0E0,5.1117554E0,1.7454529E1,0E0,0E0,1.05097534E2,3.4192146E1,4.7341003E0,2.6000519E1,7.946334E1,8.840736E0,1.0759559E2,5.910614E0,3.1622986E1,2.2451883E1,0E0,0E0,7.291626E0,0E0,2.5414429E0,1.1419332E1,1.1464399E1,0E0,6.3345764E1,1.0316821E2,2.0281965E1,6.201931E0,0E0,4.82547E0,3.1328833E1,2.2378145E1,5.2032013E1,1.1257477E2,1.4462775E1,6.1235085E0,6.692424E1,3.2835037E1,1.0345764E0,2.1064926E1,2.7910645E1,0E0,3.3225427E0,1.5849915E1,1.9112747E1,2.064331E0,0E0,0E0,0E0,0E0,0E0,0E0,0E0,0E0,0E0,0E0,0E0,0E0,0E0,0E0,0E0,0E0,0E0,0E0,0E0,0E0,0E0,0E0,0E0,0E0,0E0,0E0,0E0,0E0,0E0,0E0,0E0,0E0,0E0,0E0,0E0,0E0,0E0,0E0,0E0,0E0,0E0,0E0,0E0,0E0,0E0,0E0],"parents":[2147483647,0,0,2,2,3,3,4,4,5,5,6,6,7,7,8,8,10,10,11,11,12,12,13,13,14,14,15,15,16,16,17,17,18,18,19,19,20,20,21,21,22,22,25,25,26,26,27,27,31,31,32,32,35,35,36,36,37,37,38,38,39,39,40,40,41,41,42,42,43,43,44,44,47,47,49,49,50,50,51,51,53,53,54,54,55,55,56,56,58,58,59,59,60,60,61,61,62,62,63,63,64,64,65,65,66,66,67,67,68,68,69,69,71,71,72,72,73,73,74,74],"right_children":[2,-1,4,6,8,10,12,14,16,-1,18,20,22,24,26,28,30,32,34,36,38,40,42,-1,-1,44,46,48,-1,-1,-1,50,52,-1,-1,54,56,58,60,62,64,66,68,70,72,-1,-1,74,-1,76,78,80,-1,82,84,86,88,-1,90,92,94,96,98,100,102,104,106,108,110,112,-1,114,116,118,120,-1,-1,-1,-1,-1,-1,-1,-1,-1,-1,-1,-1,-1,-1,-1,-1,-1,-1,-1,-1,-1,-1,-1,-1,-1,-1,-1,-1,-1,-1,-1,-1,-1,-1,-1,-1,-1,-1,-1,-1,-1,-1,-1,-1,-1,-1],"split_conditions":[1E0,-6.544512E-2,2E0,5.68E-2,4E0,7.904278E-10,3.52E-1,7.500837E-14,9.37988E0,7.870128E-2,1.39766E1,2.2E0,1.08E-1,8.743813E-1,2.1925528E0,7E0,6E0,1.5E0,1.4859153E0,1E0,5.824279E-1,1.773E3,1.21229E1,-1.0823268E-3,-5.930558E-2,6.44E-1,1.9253294E0,3.58117E1,9.189017E-2,-5.3875007E-2,8.803169E-2,2.1624417E3,1.10171E-1,-6.4925156E-3,7.78033E-2,1.593372E-1,6.3E-2,3.057593E-1,1.23666E1,1.00198E1,4.34E-1,1.0610787E3,5.1017545E2,3.755355E0,1.0275685E0,-5.7232585E-2,1.4499846E-2,1.5106888E0,1.176236E-2,1.7852383E0,1.31263E1,5.77E-1,3.6711324E-2,1.24989E1,1.23353E1,1.3839236E-12,2E0,-1.2546646E-2,9.200996E0,6.68E0,3.50482E-2,3.4218762E0,3.626E-2,3.96E-1,7.09E0,1.1545425E-1,1.54E0,3.72E-1,8.061656E-1,1.0462077E0,-3.5696715E-2,9.4875E-2,1.05886E1,1.4627153E0,9.11E-1,-6.26397E-2,-4.2943135E-2,-6.1504703E-2,1.4579262E-2,-8.566018E-3,-6.776672E-2,7.77207E-2,3.3092175E-2,4.074574E-2,-1.345996E-2,-4.878618E-2,3.21432E-2,-6.699886E-2,-2.8762354E-2,-6.520208E-2,-3.0374898E-2,2.4907427E-2,-6.2969506E-2,1.4748538E-2,-6.899102E-2,5.9254717E-2,-6.2110778E-2,3.9538324E-2,-1.4083222E-2,-5.9993684E-2,5.9217084E-2,-6.672216E-2,-8.154274E-4,-2.8781889E-2,5.9143472E-2,6.997528E-2,-2.7437806E-2,-3.671245E-2,-6.6691644E-2,-5.5512805E-2,5.2588113E-2,2.7695933E-2,7.8130566E-2,-5.572614E-3,-6.647235E-2,6.1734933E-2,8.514515E-3,7.268988E-2,-1.2911635E-2,7.9270944E-2,8.904055E-2],"split_indices":[28,0,48,15,47,45,13,54,15,0,8,15,18,6,57,47,47,48,1,26,54,10,8,0,0,13,42,54,0,0,0,55,18,0,0,17,18,42,8,8,13,55,55,42,54,0,0,42,0,43,8,6,0,8,8,54,47,0,44,15,18,42,18,13,15,53,15,13,13,42,0,18,8,42,6,0,0,0,0,0,0,0,0,0,0,0,0,0,0,0,0,0,0,0,0,0,0,0,0,0,0,0,0,0,0,0,0,0,0,0,0,0,0,0,0,0,0,0,0,0,0],"split_type":[0,0,0,0,0,0,0,0,0,0,0,0,0,0,0,0,0,0,0,0,0,0,0,0,0,0,0,0,0,0,0,0,0,0,0,0,0,0,0,0,0,0,0,0,0,0,0,0,0,0,0,0,0,0,0,0,0,0,0,0,0,0,0,0,0,0,0,0,0,0,0,0,0,0,0,0,0,0,0,0,0,0,0,0,0,0,0,0,0,0,0,0,0,0,0,0,0,0,0,0,0,0,0,0,0,0,0,0,0,0,0,0,0,0,0,0,0,0,0,0,0],"sum_hessian":[8.517925E3,2.8871284E3,5.6307964E3,3.3030918E3,2.3277043E3,5.799001E2,2.723192E3,3.7564047E2,1.952064E3,4.4093013E0,5.754908E2,1.3633999E3,1.3597919E3,1.2937993E1,3.6270248E2,1.9351626E3,1.6901308E1,5.6695575E2,8.535019E0,1.122926E3,2.4047383E2,5.85774E2,7.7401794E2,4.042516E0,8.895477E0,3.5228964E2,1.0412839E1,6.161421E2,1.3190205E3,9.517095E0,7.3842134E0,5.256729E2,4.1282845E1,4.054283E0,4.480736E0,1.0358345E3,8.709152E1,1.3120859E2,1.09265236E2,5.445189E2,4.1255077E1,5.581524E2,2.1586557E2,2.8503745E2,6.725218E1,5.3763547E0,5.0364842E0,6.1020105E2,5.9410086E0,5.063833E2,1.9289602E1,3.387358E1,7.409263E0,3.9283762E2,6.429969E2,3.6677853E1,5.041367E1,5.7093377E0,1.2549925E2,7.5255295E1,3.400994E1,1.4447606E2,4.0004282E2,8.177911E0,3.3077168E1,5.0666064E2,5.149175E1,1.8006387E2,3.5801685E1,2.786626E2,6.3748727E0,8.698323E0,5.855386E1,9.885468E1,5.1134637E2,4.797099E2,2.6673388E1,1.1785539E1,7.5040627E0,1.3965458E1,1.9908123E1,2.785661E2,1.142715E2,5.3867053E2,1.04326385E2,9.736999E0,2.6940855E1,3.0870775E1,1.9542894E1,1.1173437E2,1.3764882E1,6.422231E1,1.103298E1,1.1655304E1,2.235464E1,1.3582999E2,8.646079E0,1.6766454E2,2.323783E2,4.1298084E0,4.048103E0,2.9056414E1,4.020753E0,4.8492224E2,2.173839E1,4.1192307E1,1.0299441E1,7.0117087E0,1.7305217E2,3.1375727E1,4.425961E0,3.2476425E1,2.4618616E2,4.0324297E0,4.665894E0,3.5133762E1,2.3420097E1,9.214089E1,6.713793E0,2.7006436E2,2.41282E2],"tree_param":{"num_deleted":"0","num_feature":"59","num_nodes":"121","size_leaf_vector":"1"}},{"base_weights":[-2.4497498E-2,-6.446426E-2,6.082183E-1,-5.2678343E-2,1.5961034E0,-1.1072848E0,1.6069041E-1,1.2767402E0,1.7494371E0,-1.1308036E0,7.95859E-2,4.1589138E-1,-3.1611618E-1,1.3509954E0,-1.0263311E0,1.6914773E0,8.929213E-2,-1.1591747E0,6.995267E-1,4.8044264E-2,6.533214E-1,-6.999602E-1,2.718092E-1,1.3698412E0,-7.0587285E-2,-6.495826E-2,6.4367005E-3,8.498106E-2,1.1445221E0,-1.1988249E0,-6.487473E-1,1.0864825E-2,5.2578118E-2,4.2568937E-1,-5.6455076E-1,9.96482E-1,1.1636603E-1,-2.7430928E-1,-9.900304E-1,1.0551085E0,-2.7600563E-1,1.3960422E0,-7.156516E-1,1.8120177E-2,7.870604E-2,-1.2428861E0,-9.92439E-1,-1.0058271E0,3.721881E-2,5.911884E-1,-8.4437895E-1,-8.011593E-1,2.5849685E-1,1.3478636E0,5.795725E-1,6.5857697E-1,-3.5548365E-1,7.325267E-2,-6.450123E-2,-1.0519567E0,9.840286E-1,1.3790664E-1,1.2687298E0,2.0467888E-1,-1.1693839E0,7.08168E-1,1.4640458E0,-4.102701E-3,-5.8935195E-2,-6.384666E-2,-4.7233548E-2,-9.1391365E-4,-5.3916365E-2,-5.9883427E-2,1.3625368E-2,3.5968356E-2,-5.27108E-2,3.1323813E-2,-5.3128332E-2,-7.260922E-2,-3.284767E-2,-4.5547415E-2,2.81945E-2,-4.5860935E-2,7.161915E-2,4.7040217E-2,-4.666801E-3,4.4280246E-2,-5.3401154E-2,-3.965387E-2,3.4036323E-2,-5.867563E-2,1.3127917E-2,-3.745763E-3,-5.6828927E-2,9.930189E-2,-4.5643477E-3,4.1026182E-2,-5.0582685E-2,9.1604486E-2,4.874181E-2,2.7464598E-2,-4.1916125E-2,-5.0614583E-3,-6.183378E-2,-5.1050456E-3,6.800446E-2,6.8941936E-2,9.148008E-2],"categories":[],"categories_nodes":[],"categories_segments":[],"categories_sizes":[],"default_left":[0,0,0,0,0,0,0,0,0,0,0,0,0,0,0,0,0,0,0,0,0,0,0,0,0,0,0,0,0,0,0,0,0,0,0,0,0,0,0,0,0,0,0,0,0,0,0,0,0,0,0,0,0,0,0,0,0,0,0,0,0,0,0,0,0,0,0,0,0,0,0,0,0,0,0,0,0,0,0,0,0,0,0,0,0,0,0,0,0,0,0,0,0,0,0,0,0,0,0,0,0,0,0,0,0,0,0,0,0],"id":8,"left_children":[1,-1,3,5,7,9,11,13,15,17,-1,19,21,23,25,27,-1,29,31,33,35,37,39,41,-1,-1,-1,-1,43,45,47,-1,-1,49,51,53,55,57,59,61,63,65,67,-1,-1,69,71,73,-1,75,77,79,81,83,85,87,89,91,-1,93,95,97,99,101,103,105,107,-1,-1,-1,-1,-1,-1,-1,-1,-1,-1,-1,-1,-1,-1,-1,-1,-1,-1,-1,-1,-1,-1,-1,-1,-1,-1,-1,-1,-1,-1,-1,-1,-1,-1,-1,-1,-1,-1,-1,-1,-1,-1],"loss_changes":[6.690805E3,0E0,3.6386406E3,7.517654E2,1.0715918E2,3.7485596E1,3.382734E2,1.25943115E2,1.5820312E-1,2.9782349E1,0E0,1.5809625E2,2.189527E2,3.8693848E1,7.515621E0,7.281494E-1,0E0,1.0348755E1,1.3230491E0,1.6479222E2,2.0261594E2,7.217514E1,1.6490459E2,3.9343506E1,0E0,0E0,0E0,0E0,3.4167051E0,3.3947754E0,2.1546051E1,0E0,0E0,9.311035E1,5.3116432E1,9.7533875E1,1.1027668E2,8.4533745E1,4.364685E1,3.0799332E1,9.7521645E1,3.1397827E1,2.6517549E0,0E0,0E0,3.012146E0,7.8873825E0,8.591633E0,0E0,8.3093994E1,1.7098782E1,1.8880386E1,2.244982E1,7.088916E1,7.51238E1,7.953446E1,1.05117004E2,4.2592136E1,0E0,2.789801E1,1.2161584E1,2.5144714E1,1.9423264E1,5.370635E1,5.5817566E0,3.4113346E1,1.7102295E1,0E0,0E0,0E0,0E0,0E0,0E0,0E0,0E0,0E0,0E0,0E0,0E0,0E0,0E0,0E0,0E0,0E0,0E0,0E0,0E0,0E0,0E0,0E0,0E0,0E0,0E0,0E0,0E0,0E0,0E0,0E0,0E0,0E0,0E0,0E0,0E0,0E0,0E0,0E0,0E0,0E0,0E0],"parents":[2147483647,0,0,2,2,3,3,4,4,5,5,6,6,7,7,8,8,9,9,11,11,12,12,13,13,14,14,15,15,17,17,18,18,19,19,20,20,21,21,22,22,23,23,28,28,29,29,30,30,33,33,34,34,35,35,36,36,37,37,38,38,39,39,40,40,41,41,42,42,45,45,46,46,47,47,49,49,50,50,51,51,52,52,53,53,54,54,55,55,56,56,57,57,59,59,60,60,61,61,62,62,63,63,64,64,65,65,66,66],"right_children":[2,-1,4,6,8,10,12,14,16,18,-1,20,22,24,26,28,-1,30,32,34,36,38,40,42,-1,-1,-1,-1,44,46,48,-1,-1,50,52,54,56,58,60,62,64,66,68,-1,-1,70,72,74,-1,76,78,80,82,84,86,88,90,92,-1,94,96,98,100,102,104,106,108,-1,-1,-1,-1,-1,-1,-1,-1,-1,-1,-1,-1,-1,-1,-1,-1,-1,-1,-1,-1,-1,-1,-1,-1,-1,-1,-1,-1,-1,-1,-1,-1,-1,-1,-1,-1,-1,-1,-1,-1,-1,-1],"split_conditions":[1E0,-6.446426E-2,3E0,5.68E-2,6E0,2.396E-2,1.4E-1,1.445E1,1.03476E-2,1.39766E1,7.95859E-2,7.225E0,1.5116345E0,2.3400286E3,1.0549515E-13,2.93E-1,8.929213E-2,2E0,3.348226E-2,1E-1,1.19055E1,2.84E-1,3.36E-1,2.701854E1,-7.0587285E-2,-6.495826E-2,6.4367005E-3,8.498106E-2,4.0269256E0,1.314E4,1.10171E-1,1.0864825E-2,5.2578118E-2,1E0,2E0,3.76E-5,2.18E-1,4.09E0,1.4719484E3,3.0250866E-2,1.18964E1,1.5756315E0,1.77E0,1.8120177E-2,7.870604E-2,1.6786618E0,1.352E4,1.44E-1,3.721881E-2,9.046698E3,3.39E-1,5.95531E0,1.04E-1,7.452415E-1,7.716349E1,1.6756994E1,1.33256E1,3.5587603E3,-6.450123E-2,9.02097E0,1.34508E0,1.4615026E1,5.6E-6,6.4798574E3,1.09E0,1.9E-2,3.4E0,-4.102701E-3,-5.8935195E-2,-6.384666E-2,-4.7233548E-2,-9.1391365E-4,-5.3916365E-2,-5.9883427E-2,1.3625368E-2,3.5968356E-2,-5.27108E-2,3.1323813E-2,-5.3128332E-2,-7.260922E-2,-3.284767E-2,-4.5547415E-2,2.81945E-2,-4.5860935E-2,7.161915E-2,4.7040217E-2,-4.666801E-3,4.4280246E-2,-5.3401154E-2,-3.965387E-2,3.4036323E-2,-5.867563E-2,1.3127917E-2,-3.745763E-3,-5.6828927E-2,9.930189E-2,-4.5643477E-3,4.1026182E-2,-5.0582685E-2,9.1604486E-2,4.874181E-2,2.7464598E-2,-4.1916125E-2,-5.0614583E-3,-6.183378E-2,-5.1050456E-3,6.800446E-2,6.8941936E-2,9.148008E-2],"split_indices":[28,0,47,15,47,12,18,3,17,8,0,55,43,52,54,18,0,47,45,18,8,13,13,54,0,0,0,0,3,51,18,0,0,25,47,12,13,15,55,45,8,0,6,0,0,43,51,9,0,46,15,9,18,54,55,3,8,4,0,8,15,3,12,4,15,17,20,0,0,0,0,0,0,0,0,0,0,0,0,0,0,0,0,0,0,0,0,0,0,0,0,0,0,0,0,0,0,0,0,0,0,0,0,0,0,0,0,0,0],"split_type":[0,0,0,0,0,0,0,0,0,0,0,0,0,0,0,0,0,0,0,0,0,0,0,0,0,0,0,0,0,0,0,0,0,0,0,0,0,0,0,0,0,0,0,0,0,0,0,0,0,0,0,0,0,0,0,0,0,0,0,0,0,0,0,0,0,0,0,0,0,0,0,0,0,0,0,0,0,0,0,0,0,0,0,0,0,0,0,0,0,0,0,0,0,0,0,0,0,0,0,0,0,0,0,0,0,0,0,0,0],"sum_hessian":[8.358901E3,2.7868997E3,5.5720015E3,3.339091E3,2.2329104E3,5.6118115E2,2.77791E3,7.2733813E2,1.5055723E3,5.5690936E2,4.2718024E0,1.809526E3,9.68384E2,7.0502045E2,2.2317724E1,5.991505E2,9.0642175E2,5.487698E2,8.139554E0,7.102882E2,1.0992377E3,5.857619E2,3.8262204E2,7.007445E2,4.275921E0,1.7952475E1,4.365248E0,5.882838E2,1.0866685E1,5.079624E2,4.080737E1,4.117087E0,4.0224676E0,4.3959634E2,2.706919E2,6.701186E2,4.2911917E2,2.3818842E2,3.475735E2,1.570855E2,2.2553656E2,6.9237646E2,8.368019E0,4.506262E0,6.360423E0,4.14458E2,9.350441E1,3.270306E1,8.10431E0,3.893905E2,5.0205856E1,2.1027026E2,6.042161E1,3.6242496E2,3.076936E2,1.9948808E2,2.2963107E2,1.7815459E2,6.0033836E1,3.3745465E2,1.0118841E1,2.998552E1,1.27099976E2,1.4713895E2,7.83976E1,6.3317413E1,6.290591E2,4.0304E0,4.3376193E0,3.6904248E2,4.541552E1,7.674272E0,8.583014E1,2.8490545E1,4.2125154E0,3.6177097E2,2.761953E1,6.2437778E0,4.396208E1,3.648532E1,1.7378496E2,1.2100846E1,4.8320766E1,1.2682692E1,3.4974228E2,1.9995522E2,1.0773839E2,1.7673637E2,2.2751707E1,1.6161525E2,6.801583E1,2.2799337E1,1.5535524E2,2.7047758E1,3.104069E2,4.79955E0,5.3192906E0,1.8993359E1,1.0992161E1,4.177956E1,8.532041E1,1.10952896E2,3.6186058E1,4.79462E0,7.360298E1,2.8606253E1,3.471116E1,5.140188E2,1.150403E2],"tree_param":{"num_deleted":"0","num_feature":"59","num_nodes":"109","size_leaf_vector":"1"}},{"base_weights":[-2.242872E-2,-6.355952E-2,5.8540386E-1,-3.2522067E-2,1.529358E0,-1.0662941E0,1.7015533E-1,9.811992E-1,1.6137713E0,-1.138666E0,-2.9783562E-1,-7.2625333E-1,3.0567142E-1,1.1409186E0,-1.1889937E0,1.6219726E0,-1.4742948E-2,-1.1631528E0,2.3925325E-2,2.0907876E-1,-6.239721E-2,-1.3310554E0,-5.5335116E-1,8.3755183E-1,3.3760834E-2,4.5661528E-2,1.254443E0,-6.621872E-2,-2.578258E-2,1.4579252E0,1.6975191E0,-1.1890007E0,-7.1771306E-1,1.0775534E0,-3.2434756E-1,-6.774465E-2,-3.4947224E-2,4.8614603E-1,-6.843406E-1,9.8022217E-1,-5.9515893E-1,5.921089E-1,-2.1444032E-1,-7.773509E-1,8.602995E-2,1.3368365E0,-3.3101043E-1,1.1652122E0,1.5357983E0,8.49993E-2,4.6551056E-2,-1.0046811E0,-1.2325158E0,-6.0914177E-2,-1.2641555E-1,8.2632326E-2,2.986601E-2,-1.089533E0,6.3267805E-2,-3.0165055E-1,1.1838253E0,-1.0287999E0,-2.884291E-1,1.4200362E0,6.704951E-1,-9.1155276E-2,-6.323404E-2,6.6212094E-1,-9.7426176E-1,5.304039E-2,-9.465796E-1,-6.311465E-2,7.005716E-3,1.3958842E0,-1.8327802E-1,3.0816847E-2,-6.865098E-2,8.6875117E-1,1.3692755E0,1.5519224E0,-5.2023223E-3,-6.069688E-2,1.4105827E-2,-6.2361576E-2,-3.3472903E-2,4.5304287E-2,-3.3580758E-2,-6.430565E-2,-2.570281E-2,-5.7959836E-2,1.8576706E-2,8.356098E-2,2.3962012E-2,-3.6198583E-2,-6.300925E-2,1.667099E-2,-4.559433E-2,7.875725E-2,4.9246047E-2,-1.2461193E-3,4.4720206E-2,2.8846685E-2,-4.7354206E-2,3.857132E-2,-2.3018783E-2,-6.971603E-2,-7.876509E-3,-2.8998125E-2,1.6806502E-2,-2.4465984E-2,-5.772063E-2,7.14708E-2,5.638408E-3,-3.7179806E-3,-1.2384579E-2,5.009156E-2,-2.8421251E-2,1.6322325E-3,7.305362E-2,7.83424E-2,7.0185275E-3],"categories":[],"categories_nodes":[],"categories_segments":[],"categories_sizes":[],"default_left":[0,0,0,0,0,0,0,0,0,0,0,0,0,0,0,0,0,0,0,0,0,0,0,0,0,0,0,0,0,0,0,0,0,0,0,0,0,0,0,0,0,0,0,0,0,0,0,0,0,0,0,0,0,0,0,0,0,0,0,0,0,0,0,0,0,0,0,0,0,0,0,0,0,0,0,0,0,0,0,0,0,0,0,0,0,0,0,0,0,0,0,0,0,0,0,0,0,0,0,0,0,0,0,0,0,0,0,0,0,0,0,0,0,0,0,0,0,0,0,0,0],"id":9,"left_children":[1,-1,3,5,7,9,11,13,15,17,19,21,23,25,27,29,-1,31,-1,33,-1,35,37,39,41,43,45,-1,-1,47,49,51,53,55,57,-1,-1,59,61,63,65,67,69,71,-1,73,75,77,79,-1,-1,81,83,-1,85,-1,-1,87,-1,89,91,93,95,97,99,101,-1,103,105,107,109,-1,-1,111,113,-1,-1,115,117,119,-1,-1,-1,-1,-1,-1,-1,-1,-1,-1,-1,-1,-1,-1,-1,-1,-1,-1,-1,-1,-1,-1,-1,-1,-1,-1,-1,-1,-1,-1,-1,-1,-1,-1,-1,-1,-1,-1,-1,-1,-1],"loss_changes":[6.2387686E3,0E0,3.2247349E3,7.0044324E2,9.962305E1,3.0137024E1,3.397766E2,1.0341028E2,3.0121582E1,2.0374695E1,2.3629477E1,3.7680084E1,3.5123834E2,3.4104767E1,1.2015762E0,2.089746E1,0E0,4.826294E0,0E0,1.5403877E1,0E0,2.72995E-1,3.946705E1,1.6852167E2,2.2300017E2,3.8338196E1,3.2957825E1,0E0,0E0,1.192627E1,8.4716797E-1,2.4890137E0,8.600508E0,2.491644E0,2.6801657E1,0E0,0E0,1.8356659E1,3.4568893E1,1.0088312E2,2.520221E1,5.494786E1,2.1822049E2,8.490868E0,0E0,2.1511871E1,1.3775802E1,6.7104187E0,1.264502E1,0E0,0E0,2.5698982E1,2.2435303E0,0E0,8.869755E0,0E0,0E0,9.957409E-1,0E0,9.769942E0,5.2330456E0,8.702942E0,4.695776E1,1.9236633E1,6.862047E1,2.5640123E1,0E0,5.85838E1,7.187458E0,1.4658162E2,2.777005E1,0E0,0E0,9.651672E0,4.9907E-2,0E0,0E0,1.1275253E1,9.2295685E0,9.631348E0,0E0,0E0,0E0,0E0,0E0,0E0,0E0,0E0,0E0,0E0,0E0,0E0,0E0,0E0,0E0,0E0,0E0,0E0,0E0,0E0,0E0,0E0,0E0,0E0,0E0,0E0,0E0,0E0,0E0,0E0,0E0,0E0,0E0,0E0,0E0,0E0,0E0,0E0,0E0,0E0,0E0],"parents":[2147483647,0,0,2,2,3,3,4,4,5,5,6,6,7,7,8,8,9,9,10,10,11,11,12,12,13,13,14,14,15,15,17,17,19,19,21,21,22,22,23,23,24,24,25,25,26,26,29,29,30,30,31,31,32,32,33,33,34,34,37,37,38,38,39,39,40,40,41,41,42,42,43,43,45,45,46,46,47,47,48,48,51,51,52,52,54,54,57,57,59,59,60,60,61,61,62,62,63,63,64,64,65,65,67,67,68,68,69,69,70,70,73,73,74,74,77,77,78,78,79,79],"right_children":[2,-1,4,6,8,10,12,14,16,18,20,22,24,26,28,30,-1,32,-1,34,-1,36,38,40,42,44,46,-1,-1,48,50,52,54,56,58,-1,-1,60,62,64,66,68,70,72,-1,74,76,78,80,-1,-1,82,84,-1,86,-1,-1,88,-1,90,92,94,96,98,100,102,-1,104,106,108,110,-1,-1,112,114,-1,-1,116,118,120,-1,-1,-1,-1,-1,-1,-1,-1,-1,-1,-1,-1,-1,-1,-1,-1,-1,-1,-1,-1,-1,-1,-1,-1,-1,-1,-1,-1,-1,-1,-1,-1,-1,-1,-1,-1,-1,-1,-1,-1,-1],"split_conditions":[1E0,-6.355952E-2,3E0,5.68E-2,4E0,2E0,3.835E0,8.34235E0,2.05357E1,1.39766E1,1.2737854E-8,2.1271229E0,2.04E-1,1.80794E0,3.71E2,7E0,-1.4742948E-2,1.4719484E3,2.3925325E-2,5.77E-1,-6.239721E-2,1.208E0,5.07066E-1,2.6346755E0,1E-1,6.7E1,7.8E-1,-6.621872E-2,-2.578258E-2,5.68E-2,8.91E-1,6.5E1,1.31263E1,4.023678E0,1.68E-1,-6.774465E-2,-3.4947224E-2,2E0,1.0704915E1,2.42512E2,7.8E0,1.773E3,1.21229E1,8.743813E-1,8.602995E-2,2.1925528E0,7.16199E0,4.0309176E0,9.37988E0,8.49993E-2,4.6551056E-2,8.61E2,5.456208E0,-6.0914177E-2,1.31823E1,8.2632326E-2,2.986601E-2,2.519959E0,6.3267805E-2,1.44E-1,3.4E-1,6.325834E0,4E-1,1.632976E-1,6.0901487E-1,2.616E2,-6.323404E-2,2.5455086E4,3.3520672E0,6.9102564E0,3.86E-1,-6.311465E-2,7.005716E-3,3.755355E0,5.9252E-3,3.0816847E-2,-6.865098E-2,3.5498207E0,1.7293384E0,1.66E2,-5.2023223E-3,-6.069688E-2,1.4105827E-2,-6.2361576E-2,-3.3472903E-2,4.5304287E-2,-3.3580758E-2,-6.430565E-2,-2.570281E-2,-5.7959836E-2,1.8576706E-2,8.356098E-2,2.3962012E-2,-3.6198583E-2,-6.300925E-2,1.667099E-2,-4.559433E-2,7.875725E-2,4.9246047E-2,-1.2461193E-3,4.4720206E-2,2.8846685E-2,-4.7354206E-2,3.857132E-2,-2.3018783E-2,-6.971603E-2,-7.876509E-3,-2.8998125E-2,1.6806502E-2,-2.4465984E-2,-5.772063E-2,7.14708E-2,5.638408E-3,-3.7179806E-3,-1.2384579E-2,5.009156E-2,-2.8421251E-2,1.6322325E-3,7.305362E-2,7.83424E-2,7.0185275E-3],"split_indices":[28,0,47,15,47,47,5,3,3,8,45,0,13,0,10,47,0,55,0,6,0,13,15,15,18,9,13,0,0,15,18,16,8,0,17,0,0,47,55,16,15,10,8,6,0,57,0,5,15,0,0,10,57,0,8,0,0,57,0,9,15,3,13,17,57,16,0,2,15,55,13,0,0,42,17,0,0,57,0,14,0,0,0,0,0,0,0,0,0,0,0,0,0,0,0,0,0,0,0,0,0,0,0,0,0,0,0,0,0,0,0,0,0,0,0,0,0,0,0,0,0],"split_type":[0,0,0,0,0,0,0,0,0,0,0,0,0,0,0,0,0,0,0,0,0,0,0,0,0,0,0,0,0,0,0,0,0,0,0,0,0,0,0,0,0,0,0,0,0,0,0,0,0,0,0,0,0,0,0,0,0,0,0,0,0,0,0,0,0,0,0,0,0,0,0,0,0,0,0,0,0,0,0,0,0,0,0,0,0,0,0,0,0,0,0,0,0,0,0,0,0,0,0,0,0,0,0,0,0,0,0,0,0,0,0,0,0,0,0,0,0,0,0,0,0],"sum_hessian":[8.21733E3,2.689924E3,5.527406E3,3.341184E3,2.1862214E3,5.4698474E2,2.7941995E3,2.9342377E2,1.8927977E3,4.9946436E2,4.7520363E1,3.663719E2,2.4278276E3,2.7375082E2,1.9672928E1,1.8848489E3,7.948882E0,4.9229095E2,7.1734133E0,3.1496096E1,1.6024267E1,7.996399E1,2.864079E2,8.2059436E2,1.6072332E3,2.584138E1,2.4790945E2,1.5574654E1,4.0982733E0,6.007133E2,1.2841355E3,4.6371347E2,2.857746E1,1.1596197E1,1.9899899E1,7.5956154E1,4.0078297E0,3.1748543E1,2.5465936E2,7.465666E2,7.40278E1,4.9417096E2,1.1130623E3,1.7686615E1,8.154762E0,2.3581152E2,1.2097937E1,1.2958533E2,4.71128E2,1.2788019E3,5.3336587E0,9.316731E1,3.7054617E2,1.4901796E1,1.3675663E1,4.1659765E0,7.43022E0,1.3646126E1,6.2537727E0,1.5177848E1,1.6570694E1,1.3532365E2,1.1933571E2,3.070166E2,4.3955E2,4.2882668E1,3.1145134E1,4.7358066E2,2.0590322E1,8.159057E2,2.971565E2,1.1324832E1,6.361784E0,2.2707277E2,8.73874E0,6.5507784E0,5.547158E0,5.49752E1,7.461013E1,4.6659375E2,4.534238E0,8.018449E1,1.2982825E1,3.5992432E2,1.06218605E1,4.497101E0,9.178562E0,9.251122E0,4.395003E0,6.357409E0,8.820439E0,8.984072E0,7.5866227E0,6.017611E1,7.5147545E1,5.9977833E1,5.9357876E1,2.2440224E2,8.261437E1,1.07272224E2,3.3227774E2,2.426711E1,1.8615559E1,4.318419E2,4.1738747E1,1.3130098E1,7.460224E0,2.5180598E2,5.6409973E2,9.390582E1,2.0325067E2,2.2117868E2,5.894093E0,4.0481076E0,4.6906323E0,5.0593266E1,4.3819323E0,4.8818913E0,6.972824E1,4.6160278E2,4.9909744E0],"tree_param":{"num_deleted":"0","num_feature":"59","num_nodes":"121","size_leaf_vector":"1"}},{"base_weights":[-2.830099E-2,5.5267423E-1,-6.272105E-2,-7.254283E-2,1.451256E0,-9.0143067E-1,9.723692E-2,1.1482428E0,1.61921E0,-9.2264867E-1,6.115656E-2,7.256636E-1,-9.5982604E-2,1.2145118E0,-9.5528364E-1,1.5577278E0,8.29649E-2,-1.0162868E0,-3.8643554E-1,1.0555146E0,2.5649855E-1,1.7382947E-1,-4.7566697E-1,1.2329044E0,-6.002624E-2,-6.406152E-2,1.7791323E-2,1.5675398E0,2.4757737E-2,-1.1387832E0,-5.475539E-1,1.641389E-1,-1.1912214E0,1.2186484E0,-5.1250815E-1,7.770055E-1,-2.1896812E-1,-3.3442828E-1,6.087808E-1,-6.344382E-1,4.327345E-1,1.1402801E0,8.5538186E-2,1.4762713E0,8.126735E-2,-1.1726176E0,-6.9638506E-2,-1.0454603E0,-1.2784685E-1,-6.682296E-1,9.2136675E-1,-6.363843E-2,-2.8209273E-2,1.4093473E0,5.0766236E-1,-8.748427E-1,4.4174943E-2,-6.671109E-2,8.67559E-1,5.2809393E-1,-7.830919E-1,-5.4551613E-1,5.706253E-1,8.786832E-1,-1.358949E-1,-1.3759758E-1,-9.7290015E-1,1.2378904E0,-3.4886977E-1,9.4133025E-1,1.3291095E0,1.5025388E0,9.7853655E-1,-6.1351687E-2,-4.4386994E-2,5.7220258E-2,-4.8380103E-2,-6.0771693E-2,-2.6157151E-3,2.0094968E-2,-4.5619298E-2,-5.893278E-2,1.6548425E-3,8.1065916E-2,1.27709005E-2,5.087284E-2,8.266959E-2,7.0551924E-2,-2.0277333E-2,-4.651525E-3,-6.321545E-2,4.813002E-2,-3.1315997E-2,6.954416E-2,-1.4612782E-2,-6.0080677E-2,-7.0940168E-3,-6.375935E-2,-1.3790828E-2,4.125937E-2,-3.4329962E-2,-2.7545E-2,4.911458E-2,-4.516874E-2,2.7086863E-2,1.7471E-2,-2.5925428E-2,-5.430249E-2,2.3711151E-3,7.303755E-2,-2.218267E-2,-6.487266E-2,2.744628E-2,4.8637312E-2,-4.9803592E-2,4.0400755E-2,7.189776E-2,7.603322E-2,3.9002165E-2,9.469028E-3,7.502894E-2],"categories":[],"categories_nodes":[],"categories_segments":[],"categories_sizes":[],"default_left":[0,0,0,0,0,0,0,0,0,0,0,0,0,0,0,0,0,0,0,0,0,0,0,0,0,0,0,0,0,0,0,0,0,0,0,0,0,0,0,0,0,0,0,0,0,0,0,0,0,0,0,0,0,0,0,0,0,0,0,0,0,0,0,0,0,0,0,0,0,0,0,0,0,0,0,0,0,0,0,0,0,0,0,0,0,0,0,0,0,0,0,0,0,0,0,0,0,0,0,0,0,0,0,0,0,0,0,0,0,0,0,0,0,0,0,0,0,0,0,0,0],"id":10,"left_children":[1,3,-1,5,7,9,11,13,15,17,-1,19,21,23,25,27,-1,29,31,33,35,37,39,41,-1,-1,-1,43,-1,45,47,49,51,53,55,57,59,61,63,65,67,69,-1,71,-1,73,75,77,79,81,83,-1,-1,85,87,89,-1,-1,91,93,95,97,99,101,103,105,107,109,111,113,115,117,119,-1,-1,-1,-1,-1,-1,-1,-1,-1,-1,-1,-1,-1,-1,-1,-1,-1,-1,-1,-1,-1,-1,-1,-1,-1,-1,-1,-1,-1,-1,-1,-1,-1,-1,-1,-1,-1,-1,-1,-1,-1,-1,-1,-1,-1,-1,-1,-1],"loss_changes":[5.71305E3,3.0572817E3,0E0,4.5181097E2,1.11771484E2,2.5732605E1,3.2367706E2,1.1263428E2,9.499512E-1,2.67695E1,0E0,9.673627E1,2.0899054E2,3.5935547E1,1.1132509E1,5.29541E0,0E0,2.5784973E1,3.6546288E1,9.469382E1,6.453965E1,2.639023E2,1.2249457E2,3.2144897E1,0E0,0E0,0E0,6.4245605E-1,0E0,1.3075287E1,2.0182789E1,3.187293E1,9.9214935E-1,4.448694E1,1.8657959E1,2.4937668E1,5.8027657E1,1.05522705E2,1.2938205E2,1.212348E2,8.0146805E1,2.3102234E1,0E0,1.5952759E0,0E0,4.375122E0,1.4429439E1,7.419342E0,2.2764418E1,8.703209E0,1.18863125E1,0E0,0E0,2.3405518E1,6.002979E1,8.583067E0,0E0,0E0,1.762307E1,4.245971E1,2.0840649E1,8.762843E1,3.405611E1,7.047836E1,8.991752E1,5.4649002E1,4.959384E1,2.41129E1,5.6115276E1,2.0390808E1,1.7564331E1,1.7060242E0,5.739414E0,0E0,0E0,0E0,0E0,0E0,0E0,0E0,0E0,0E0,0E0,0E0,0E0,0E0,0E0,0E0,0E0,0E0,0E0,0E0,0E0,0E0,0E0,0E0,0E0,0E0,0E0,0E0,0E0,0E0,0E0,0E0,0E0,0E0,0E0,0E0,0E0,0E0,0E0,0E0,0E0,0E0,0E0,0E0,0E0,0E0,0E0,0E0,0E0],"parents":[2147483647,0,0,1,1,3,3,4,4,5,5,6,6,7,7,8,8,9,9,11,11,12,12,13,13,14,14,15,15,17,17,18,18,19,19,20,20,21,21,22,22,23,23,27,27,29,29,30,30,31,31,32,32,33,33,34,34,35,35,36,36,37,37,38,38,39,39,40,40,41,41,43,43,45,45,46,46,47,47,48,48,49,49,50,50,53,53,54,54,55,55,58,58,59,59,60,60,61,61,62,62,63,63,64,64,65,65,66,66,67,67,68,68,69,69,70,70,71,71,72,72],"right_children":[2,4,-1,6,8,10,12,14,16,18,-1,20,22,24,26,28,-1,30,32,34,36,38,40,42,-1,-1,-1,44,-1,46,48,50,52,54,56,58,60,62,64,66,68,70,-1,72,-1,74,76,78,80,82,84,-1,-1,86,88,90,-1,-1,92,94,96,98,100,102,104,106,108,110,112,114,116,118,120,-1,-1,-1,-1,-1,-1,-1,-1,-1,-1,-1,-1,-1,-1,-1,-1,-1,-1,-1,-1,-1,-1,-1,-1,-1,-1,-1,-1,-1,-1,-1,-1,-1,-1,-1,-1,-1,-1,-1,-1,-1,-1,-1,-1,-1,-1,-1,-1],"split_conditions":[9.233E0,2E0,-6.272105E-2,3.779E0,6E0,2.5779145E4,2.32E2,1.392E1,1.03476E-2,1.5E0,6.115656E-2,1.593372E-1,1.19055E1,3.5498207E0,1.5263776E-13,4.808038E0,8.29649E-2,3.5664253E0,3.3474214E0,1.2503227E0,2.34E-1,8.976684E0,1.35868E1,3.4E0,-6.002624E-2,-6.406152E-2,1.7791323E-2,9E0,2.4757737E-2,2.0619774E0,4.023678E0,6.8941E0,8.429421E-13,1.24848E1,4.0963216E0,8.429421E-13,7.82E2,2E0,5.96E-1,3.56E-1,1.86476E-2,2.5E0,8.5538186E-2,6.8030043E0,8.126735E-2,4.0498555E3,1.9175203E2,8.679482E0,2.666E2,1.5290747E0,1.0616409E1,-6.363843E-2,-2.8209273E-2,6.941279E-1,5.49E1,1.4731241E0,4.4174943E-2,-6.671109E-2,2.00796E3,5.64E-1,7.28E-1,6.8891884E1,1.1765022E0,1.2046866E0,1.290162E1,1.25386E1,4.712E0,1.6769367E1,1.249909E1,9.932623E0,3.6069455E0,5.436E-3,1.5899157E1,-6.1351687E-2,-4.4386994E-2,5.7220258E-2,-4.8380103E-2,-6.0771693E-2,-2.6157151E-3,2.0094968E-2,-4.5619298E-2,-5.893278E-2,1.6548425E-3,8.1065916E-2,1.27709005E-2,5.087284E-2,8.266959E-2,7.0551924E-2,-2.0277333E-2,-4.651525E-3,-6.321545E-2,4.813002E-2,-3.1315997E-2,6.954416E-2,-1.4612782E-2,-6.0080677E-2,-7.0940168E-3,-6.375935E-2,-1.3790828E-2,4.125937E-2,-3.4329962E-2,-2.7545E-2,4.911458E-2,-4.516874E-2,2.7086863E-2,1.7471E-2,-2.5925428E-2,-5.430249E-2,2.3711151E-3,7.303755E-2,-2.218267E-2,-6.487266E-2,2.744628E-2,4.8637312E-2,-4.9803592E-2,4.0400755E-2,7.189776E-2,7.603322E-2,3.9002165E-2,9.469028E-3,7.502894E-2],"split_indices":[7,48,0,5,47,55,16,3,17,49,0,17,8,57,54,5,0,5,3,54,13,55,8,20,0,0,0,47,0,43,0,0,54,8,57,54,10,47,13,13,18,49,0,54,0,46,46,44,16,3,0,0,0,57,16,54,0,0,9,13,13,46,54,0,14,8,5,55,55,3,0,12,54,0,0,0,0,0,0,0,0,0,0,0,0,0,0,0,0,0,0,0,0,0,0,0,0,0,0,0,0,0,0,0,0,0,0,0,0,0,0,0,0,0,0,0,0,0,0,0,0],"split_type":[0,0,0,0,0,0,0,0,0,0,0,0,0,0,0,0,0,0,0,0,0,0,0,0,0,0,0,0,0,0,0,0,0,0,0,0,0,0,0,0,0,0,0,0,0,0,0,0,0,0,0,0,0,0,0,0,0,0,0,0,0,0,0,0,0,0,0,0,0,0,0,0,0,0,0,0,0,0,0,0,0,0,0,0,0,0,0,0,0,0,0,0,0,0,0,0,0,0,0,0,0,0,0,0,0,0,0,0,0,0,0,0,0,0,0,0,0,0,0,0,0],"sum_hessian":[8.018083E3,5.440668E3,2.5774148E3,3.2088955E3,2.2317727E3,5.4479974E2,2.6640957E3,7.986785E2,1.4330941E3,5.399727E2,4.8269787E0,6.258446E2,2.0382511E3,7.746954E2,2.3983175E1,5.8134766E2,8.5174646E2,4.5893436E2,8.103838E1,3.667487E2,2.5909595E2,1.1918433E3,8.464079E2,7.693258E2,5.369598E0,1.9226248E1,4.7569265E0,5.755576E2,5.790021E0,3.6271478E2,9.6219574E1,4.859165E1,3.244673E1,3.323903E2,3.4358387E1,1.2338676E2,1.357092E2,5.49713E2,6.4213025E2,7.2073816E2,1.2566972E2,6.472538E2,1.2207201E2,2.3347517E2,3.4208246E2,3.5149454E2,1.1220247E1,4.332791E1,5.2891666E1,2.3203342E1,2.5388306E1,2.780131E1,4.6454234E0,2.6131802E2,7.107227E1,2.7574684E1,6.7837024E0,4.509732E0,1.1887702E2,5.841492E1,7.729428E1,4.4607184E2,1.0364117E2,4.7117587E2,1.7095435E2,2.9261072E2,4.2812747E2,6.1614674E1,6.4055046E1,3.1809512E2,3.2915863E2,2.1985384E2,1.36213455E1,2.923448E2,5.9149757E1,4.6538343E0,6.566413E0,3.680504E1,6.522876E0,3.186387E1,2.1027794E1,1.303549E1,1.0167851E1,1.1678701E1,1.3709604E1,1.0226634E2,1.5905168E2,3.5454437E1,3.5617832E1,9.580902E0,1.7993782E1,1.1210075E2,6.776274E0,2.8132036E1,3.0282887E1,4.6239548E1,3.1054731E1,1.19375046E2,3.266968E2,8.6475334E1,1.716583E1,3.1548893E1,4.3962698E2,8.0006546E1,9.09478E1,1.2845541E2,1.6415529E2,3.8533136E2,4.279611E1,5.452023E1,7.094444E0,3.0930094E1,3.3124954E1,3.135093E2,4.5858126E0,5.8329872E1,2.7082877E2,2.1339555E2,6.4582815E0,5.965795E0,7.6555505E0],"tree_param":{"num_deleted":"0","num_feature":"59","num_nodes":"121","size_leaf_vector":"1"}},{"base_weights":[-2.9489554E-2,5.263548E-1,-6.1945565E-2,-6.978969E-2,1.3894304E0,-1.034426E0,1.1720924E-1,1.0643853E0,1.5659729E0,-1.0661769E0,4.3609902E-2,5.316357E-1,-1.2241656E-1,1.1312424E0,-9.495823E-1,1.4301964E0,1.584095E0,-1.0874071E0,6.2291563E-2,7.410184E-1,-8.0904907E-1,6.319424E-1,-2.6632833E-1,1.1510099E0,-5.934475E-2,-6.351734E-2,1.96522E-2,1.470348E0,4.39737E-3,7.932367E-2,4.2804282E-2,-1.1305169E0,-5.3787017E-1,-6.726994E-2,9.9025244E-1,-3.159906E-1,-6.257621E-2,1.0080131E0,7.832668E-2,-5.629288E-2,-8.627692E-1,1.3177538E0,8.508164E-1,1.2322732E0,8.018647E-2,-1.1572667E0,-6.6544336E-1,-7.932767E-1,2.755637E-2,-6.939361E-1,5.419436E-1,1.2231685E0,5.396785E-1,-9.847456E-1,6.449387E-1,1.1408658E0,-7.2637147E-1,-4.787038E-1,5.571666E-1,1.061445E-1,-7.7465224E-1,-9.6389055E-1,-3.054395E-1,1.212323E0,1.6156992E0,9.462319E-1,-9.433857E-1,2.9007632E-1,7.474827E-2,-4.9560446E-2,-5.981645E-2,-5.9411008E-2,-3.26917E-3,-3.477472E-3,-6.410905E-2,-1.14744E-2,-6.723937E-2,4.7641557E-2,-7.1276605E-2,6.553419E-2,2.1330616E-2,4.252174E-2,-2.277418E-2,-6.146347E-2,-4.2078835E-3,5.4099943E-2,-5.7693835E-2,6.227556E-2,-3.124016E-2,2.76075E-2,-7.2570875E-2,-7.3076556E-3,-7.3380254E-2,3.650936E-2,-6.714726E-2,3.773306E-2,-5.0721485E-3,-5.5059817E-2,3.0858455E-2,-3.050991E-2,-5.6330692E-2,1.557785E-2,-6.8145186E-2,6.266268E-2,1.918244E-2,8.3119854E-2,5.042764E-2,5.5259448E-2,1.2218571E-2,-5.9697866E-3,-7.234818E-2,4.8442375E-2,-6.1799258E-2],"categories":[],"categories_nodes":[],"categories_segments":[],"categories_sizes":[],"default_left":[0,0,0,0,0,0,0,0,0,0,0,0,0,0,0,0,0,0,0,0,0,0,0,0,0,0,0,0,0,0,0,0,0,0,0,0,0,0,0,0,0,0,0,0,0,0,0,0,0,0,0,0,0,0,0,0,0,0,0,0,0,0,0,0,0,0,0,0,0,0,0,0,0,0,0,0,0,0,0,0,0,0,0,0,0,0,0,0,0,0,0,0,0,0,0,0,0,0,0,0,0,0,0,0,0,0,0,0,0,0,0,0,0],"id":11,"left_children":[1,3,-1,5,7,9,11,13,15,17,-1,19,21,23,25,27,29,31,-1,33,35,37,39,41,-1,-1,-1,43,-1,-1,-1,45,47,49,51,53,-1,55,57,59,61,63,65,67,-1,69,71,73,-1,75,77,79,81,83,85,87,89,91,93,95,97,99,101,103,105,107,109,111,-1,-1,-1,-1,-1,-1,-1,-1,-1,-1,-1,-1,-1,-1,-1,-1,-1,-1,-1,-1,-1,-1,-1,-1,-1,-1,-1,-1,-1,-1,-1,-1,-1,-1,-1,-1,-1,-1,-1,-1,-1,-1,-1,-1,-1],"loss_changes":[5.3303047E3,2.795163E3,0E0,5.7988513E2,1.2569092E2,3.2529358E1,2.67503E2,1.0667468E2,1.2678223E0,2.657843E1,0E0,2.776207E2,1.8550362E2,3.6170837E1,1.158568E1,9.539185E0,8.195801E-1,1.1467957E1,0E0,1.7211893E2,2.8790733E1,5.6927147E1,1.7964297E2,3.660132E1,0E0,0E0,0E0,3.5531006E0,0E0,0E0,0E0,5.098816E0,1.128086E1,7.7577675E1,6.785272E1,4.2155807E1,0E0,3.8378403E1,3.0098314E1,1.2399296E2,2.0755127E1,1.320343E1,4.744713E1,1.6110283E1,0E0,1.6990356E0,8.709433E0,1.1229988E1,0E0,2.9956284E1,8.470427E1,2.9387146E1,6.974058E1,8.373299E0,2.2568344E1,2.8818375E1,1.2115969E1,1.6964504E1,2.0904854E1,1.1678716E2,8.973987E1,1.7480835E1,3.8804176E1,1.1747498E1,1.815033E0,2.8592682E1,5.732789E0,1.7578138E1,0E0,0E0,0E0,0E0,0E0,0E0,0E0,0E0,0E0,0E0,0E0,0E0,0E0,0E0,0E0,0E0,0E0,0E0,0E0,0E0,0E0,0E0,0E0,0E0,0E0,0E0,0E0,0E0,0E0,0E0,0E0,0E0,0E0,0E0,0E0,0E0,0E0,0E0,0E0,0E0,0E0,0E0,0E0,0E0,0E0],"parents":[2147483647,0,0,1,1,3,3,4,4,5,5,6,6,7,7,8,8,9,9,11,11,12,12,13,13,14,14,15,15,16,16,17,17,19,19,20,20,21,21,22,22,23,23,27,27,31,31,32,32,33,33,34,34,35,35,37,37,38,38,39,39,40,40,41,41,42,42,43,43,45,45,46,46,47,47,49,49,50,50,51,51,52,52,53,53,54,54,55,55,56,56,57,57,58,58,59,59,60,60,61,61,62,62,63,63,64,64,65,65,66,66,67,67],"right_children":[2,4,-1,6,8,10,12,14,16,18,-1,20,22,24,26,28,30,32,-1,34,36,38,40,42,-1,-1,-1,44,-1,-1,-1,46,48,50,52,54,-1,56,58,60,62,64,66,68,-1,70,72,74,-1,76,78,80,82,84,86,88,90,92,94,96,98,100,102,104,106,108,110,112,-1,-1,-1,-1,-1,-1,-1,-1,-1,-1,-1,-1,-1,-1,-1,-1,-1,-1,-1,-1,-1,-1,-1,-1,-1,-1,-1,-1,-1,-1,-1,-1,-1,-1,-1,-1,-1,-1,-1,-1,-1,-1,-1,-1,-1],"split_conditions":[9.233E0,2E0,-6.1945565E-2,5.68E-2,6E0,1.39766E1,2.04E-1,1.445E1,7E0,1.3038E-2,4.3609902E-2,2.6346755E0,3.9E-2,3.5498207E0,1.5263776E-13,2.55715E1,9.2E-1,1.5E0,6.2291563E-2,4.1209705E-2,7.8E0,1.2812E-4,1.21229E1,1.5441936E-8,-5.934475E-2,-6.351734E-2,1.96522E-2,8.81E-1,4.39737E-3,7.932367E-2,4.2804282E-2,1.4719484E3,1.10171E-1,1.5E0,1.2E-1,2.8108685E2,-6.257621E-2,9.819859E-2,1.1337246E0,1.773E3,4.604378E0,9.232127E-2,9.4099975E-1,5.9242663E0,8.018647E-2,6.5E1,1.31263E1,5.77E-1,2.755637E-2,2.26E2,7.44E-1,8.9534235E0,1.54E0,2.681812E1,2.814E2,3.44E2,8.118147E-2,1.1814119E1,6.1563388E-2,9.44275E0,8.420902E0,3.86E-1,1.645448E3,5.71E0,4.5E0,3.52889E0,3.3E-2,8.0334E-1,7.474827E-2,-4.9560446E-2,-5.981645E-2,-5.9411008E-2,-3.26917E-3,-3.477472E-3,-6.410905E-2,-1.14744E-2,-6.723937E-2,4.7641557E-2,-7.1276605E-2,6.553419E-2,2.1330616E-2,4.252174E-2,-2.277418E-2,-6.146347E-2,-4.2078835E-3,5.4099943E-2,-5.7693835E-2,6.227556E-2,-3.124016E-2,2.76075E-2,-7.2570875E-2,-7.3076556E-3,-7.3380254E-2,3.650936E-2,-6.714726E-2,3.773306E-2,-5.0721485E-3,-5.5059817E-2,3.0858455E-2,-3.050991E-2,-5.6330692E-2,1.557785E-2,-6.8145186E-2,6.266268E-2,1.918244E-2,8.3119854E-2,5.042764E-2,5.5259448E-2,1.2218571E-2,-5.9697866E-3,-7.234818E-2,4.8442375E-2,-6.1799258E-2],"split_indices":[7,48,0,15,47,8,13,3,47,12,0,15,18,57,54,0,18,48,0,56,15,12,8,45,0,0,0,6,0,0,0,55,18,48,13,14,0,45,54,10,5,56,57,0,0,16,8,6,0,16,15,0,15,55,16,16,56,0,45,8,44,13,14,3,50,3,18,6,0,0,0,0,0,0,0,0,0,0,0,0,0,0,0,0,0,0,0,0,0,0,0,0,0,0,0,0,0,0,0,0,0,0,0,0,0,0,0,0,0,0,0,0,0],"split_type":[0,0,0,0,0,0,0,0,0,0,0,0,0,0,0,0,0,0,0,0,0,0,0,0,0,0,0,0,0,0,0,0,0,0,0,0,0,0,0,0,0,0,0,0,0,0,0,0,0,0,0,0,0,0,0,0,0,0,0,0,0,0,0,0,0,0,0,0,0,0,0,0,0,0,0,0,0,0,0,0,0,0,0,0,0,0,0,0,0,0,0,0,0,0,0,0,0,0,0,0,0,0,0,0,0,0,0,0,0,0,0,0,0],"sum_hessian":[7.927079E3,5.4313994E3,2.4956797E3,3.2130188E3,2.2183804E3,5.2098413E2,2.6920347E3,7.832715E2,1.4351089E3,5.128839E2,8.100248E0,9.8583704E2,1.7061976E3,7.585292E2,2.4742357E1,1.7840048E2,1.2567084E3,5.08742E2,4.1418867E0,8.5305725E2,1.3277972E2,2.7280627E2,1.4333914E3,7.526148E2,5.914342E0,2.0014551E1,4.7278056E0,1.731262E2,5.2742815E0,1.2514408E3,5.2676196E0,4.7075525E2,3.798676E1,2.0121832E2,6.51839E2,6.3610966E1,6.916876E1,1.6196368E2,1.108426E2,1.060894E3,3.724973E2,4.8167606E2,2.7093875E2,6.584212E1,1.0728409E2,4.4374377E2,2.7011461E1,3.0990095E1,6.996665E0,9.911984E1,1.0209847E2,4.2857843E2,2.2326053E2,3.7493042E1,2.6117924E1,1.5075793E2,1.120575E1,5.1238068E1,5.960453E1,8.65938E2,1.9495602E2,3.1467374E2,5.7823593E1,3.5952405E2,1.2215201E2,2.5770657E2,1.3232193E1,1.4813789E1,5.1028328E1,8.952751E1,3.5421628E2,1.3911494E1,1.3099968E1,1.2955004E1,1.8035093E1,5.863234E1,4.04875E1,8.488649E1,1.7211983E1,3.8557144E2,4.3007008E1,1.7024428E2,5.3016247E1,2.9199858E1,8.293184E0,2.1333092E1,4.784831E0,1.4260103E2,8.156896E0,4.141403E0,7.0643477E0,3.920267E1,1.2035398E1,5.519435E1,4.4101787E0,2.0933293E2,6.566051E2,1.5807732E2,3.687872E1,1.0065081E2,2.1402292E2,3.696252E1,2.0861073E1,3.4211368E2,1.741037E1,1.1181393E2,1.0338084E1,2.0965039E2,4.8056187E1,5.4885426E0,7.7436504E0,1.0505999E1,4.307791E0],"tree_param":{"num_deleted":"0","num_feature":"59","num_nodes":"113","size_leaf_vector":"1"}},{"base_weights":[-2.2325987E-2,-6.123376E-2,5.1886916E-1,-5.5211067E-2,1.3563231E0,-1.00754E0,1.2284066E-1,8.6942095E-1,1.4568119E0,-1.0418866E0,6.820513E-1,3.6381933E-1,-2.80086E-1,9.700789E-1,-1.2141044E0,1.4643898E0,-1.9125827E-2,-1.1194825E0,-2.0032716E-1,-1.45502165E-2,7.176912E-2,5.0829804E-1,-1.0421158E0,4.3385155E-2,-8.020224E-1,1.0189424E0,-5.4855466E-1,-3.541768E-2,-6.625294E-2,1.3085256E0,1.5377533E0,-1.1563145E0,-5.306644E-1,8.55905E-2,-4.6766526E-1,5.9686923E-1,-6.0634923E-1,-6.4032726E-2,-5.038375E-1,7.8162086E-1,-1.16496444E-1,-8.732333E-1,1.0994703E0,1.1416155E0,3.4452108E-1,-5.6722123E-2,8.903374E-3,1.0259291E0,1.386728E0,7.698734E-2,4.159604E-2,-1.178477E0,-9.1349065E-1,-5.832031E-2,7.760418E-2,-8.532334E-1,7.9332185E-1,7.5989026E-1,-4.177749E-2,-9.363045E-3,-1.232713E0,1.5163018E-1,-1.1128362E0,1.0419475E0,-7.470151E-1,6.532549E-1,-3.2668933E-1,9.3693805E-1,-9.409739E-1,1.7084349E-2,9.3179844E-2,7.0487034E-1,1.340666E0,-1.0416092E-1,1.0434409E0,1.1011072E0,6.550605E-2,1.400256E0,-2.0212287E-3,-5.976708E-2,-4.37008E-2,-5.480492E-2,2.5502501E-2,6.0035106E-2,-3.176082E-2,-1.0022282E-2,-6.302594E-2,7.874315E-2,-7.6726414E-3,6.1513074E-2,2.7891783E-2,-3.4765992E-2,2.9106721E-2,-3.6799338E-2,3.5346966E-2,-6.652084E-2,-1.8996915E-2,6.7772344E-2,-2.8819848E-2,-1.7141217E-2,-6.2356997E-2,-8.405599E-3,6.295373E-2,-5.5891354E-2,1.501211E-2,3.7282914E-2,-6.8575114E-2,-5.220112E-3,-4.5663122E-2,-1.5578431E-2,8.2766645E-2,-5.22814E-2,-2.2923946E-2,-7.024516E-2,4.5861814E-2,6.9174856E-2,-2.2944383E-2,5.3645413E-2,-2.8344342E-2,-1.324658E-2,6.927883E-2,4.4802442E-2,6.61501E-2,-5.3180363E-2,6.8827964E-2,7.11545E-2,2.5256842E-2],"categories":[],"categories_nodes":[],"categories_segments":[],"categories_sizes":[],"default_left":[0,0,0,0,0,0,0,0,0,0,0,0,0,0,0,0,0,0,0,0,0,0,0,0,0,0,0,0,0,0,0,0,0,0,0,0,0,0,0,0,0,0,0,0,0,0,0,0,0,0,0,0,0,0,0,0,0,0,0,0,0,0,0,0,0,0,0,0,0,0,0,0,0,0,0,0,0,0,0,0,0,0,0,0,0,0,0,0,0,0,0,0,0,0,0,0,0,0,0,0,0,0,0,0,0,0,0,0,0,0,0,0,0,0,0,0,0,0,0,0,0,0,0,0,0,0,0],"id":12,"left_children":[1,-1,3,5,7,9,11,13,15,17,19,21,23,25,27,29,-1,31,33,-1,-1,35,37,39,41,43,45,-1,-1,47,49,51,53,-1,55,57,59,-1,61,63,65,67,69,71,73,-1,-1,75,77,-1,-1,79,81,-1,83,85,87,89,91,93,95,97,99,101,103,105,107,109,111,-1,-1,113,115,117,119,121,123,125,-1,-1,-1,-1,-1,-1,-1,-1,-1,-1,-1,-1,-1,-1,-1,-1,-1,-1,-1,-1,-1,-1,-1,-1,-1,-1,-1,-1,-1,-1,-1,-1,-1,-1,-1,-1,-1,-1,-1,-1,-1,-1,-1,-1,-1,-1,-1,-1,-1],"loss_changes":[5.0419595E3,0E0,2.5689814E3,5.3783496E2,1.0506494E2,2.9703796E1,2.595961E2,7.967041E1,2.5648193E1,3.1776978E1,8.157253E0,3.4031854E2,1.6899252E2,2.7093079E1,5.4193497E-2,1.8487793E1,0E0,9.112366E0,2.2571321E1,0E0,0E0,1.501854E2,1.941214E1,7.312694E1,5.2815506E1,2.8296844E1,5.224093E0,0E0,0E0,1.1405762E1,4.260254E-1,1.1903687E0,1.1014552E1,0E0,1.9225315E1,1.4645258E2,4.1946304E1,0E0,1.9974518E1,4.4665962E1,8.264916E1,4.621405E1,7.6243E0,2.452475E1,1.7294048E1,0E0,0E0,9.289795E0,8.779663E0,0E0,0E0,9.1937256E-1,1.087291E1,0E0,1.30707655E1,7.643282E0,7.2353654E0,1.0580023E2,1.1740373E2,3.094703E1,4.05616E0,2.24957E1,2.2446785E0,2.5080925E1,6.794031E0,2.153181E1,5.2175007E1,1.2926194E1,1.75401E1,0E0,0E0,4.332942E1,1.6061432E1,1.9281801E1,9.99884E0,4.2831116E0,1.6971804E1,8.4296875E0,0E0,0E0,0E0,0E0,0E0,0E0,0E0,0E0,0E0,0E0,0E0,0E0,0E0,0E0,0E0,0E0,0E0,0E0,0E0,0E0,0E0,0E0,0E0,0E0,0E0,0E0,0E0,0E0,0E0,0E0,0E0,0E0,0E0,0E0,0E0,0E0,0E0,0E0,0E0,0E0,0E0,0E0,0E0,0E0,0E0,0E0,0E0,0E0,0E0],"parents":[2147483647,0,0,2,2,3,3,4,4,5,5,6,6,7,7,8,8,9,9,10,10,11,11,12,12,13,13,14,14,15,15,17,17,18,18,21,21,22,22,23,23,24,24,25,25,26,26,29,29,30,30,31,31,32,32,34,34,35,35,36,36,38,38,39,39,40,40,41,41,42,42,43,43,44,44,47,47,48,48,51,51,52,52,54,54,55,55,56,56,57,57,58,58,59,59,60,60,61,61,62,62,63,63,64,64,65,65,66,66,67,67,68,68,71,71,72,72,73,73,74,74,75,75,76,76,77,77],"right_children":[2,-1,4,6,8,10,12,14,16,18,20,22,24,26,28,30,-1,32,34,-1,-1,36,38,40,42,44,46,-1,-1,48,50,52,54,-1,56,58,60,-1,62,64,66,68,70,72,74,-1,-1,76,78,-1,-1,80,82,-1,84,86,88,90,92,94,96,98,100,102,104,106,108,110,112,-1,-1,114,116,118,120,122,124,126,-1,-1,-1,-1,-1,-1,-1,-1,-1,-1,-1,-1,-1,-1,-1,-1,-1,-1,-1,-1,-1,-1,-1,-1,-1,-1,-1,-1,-1,-1,-1,-1,-1,-1,-1,-1,-1,-1,-1,-1,-1,-1,-1,-1,-1,-1,-1,-1,-1],"split_conditions":[1E0,-6.123376E-2,2E0,5.68E-2,4E0,1.39766E1,5.02E-1,1.0294642E1,2.12E1,1.5E0,9.1388786E-1,4.26E0,3.8117E2,2.1925528E0,7.2E-3,7E0,-1.9125827E-2,7.2950215E0,1E0,-1.45502165E-2,7.176912E-2,1E0,4.396354E3,9.4022E0,1.35868E1,7.8E-1,1.9253294E0,-3.541768E-2,-6.625294E-2,5.68E-2,9.2E-1,7.7575986E3,1.31263E1,8.55905E-2,1.10171E-1,1.25227E1,8.4E-1,-6.4032726E-2,7.8E0,3.279971E0,3.626E-2,7.9995E0,9.8163E2,1.03476E-2,1.08E-1,-5.6722123E-2,8.903374E-3,1.693E0,9.37988E0,7.698734E-2,4.159604E-2,1.7852383E0,6.38E3,-5.832031E-2,1.31823E1,5.77E-1,1.33011055E1,1.593372E-1,1.31439E1,2E0,4.5106288E-2,9.266721E0,1.0162059E-1,1.7019958E0,1.2612782E-1,2.3874636E0,1.20797E1,5.873244E0,8.603555E0,1.7084349E-2,9.3179844E-2,6.802155E-1,3.755355E0,1.19E0,1.725585E-1,9.11E-1,6E0,9.91924E0,-2.0212287E-3,-5.976708E-2,-4.37008E-2,-5.480492E-2,2.5502501E-2,6.0035106E-2,-3.176082E-2,-1.0022282E-2,-6.302594E-2,7.874315E-2,-7.6726414E-3,6.1513074E-2,2.7891783E-2,-3.4765992E-2,2.9106721E-2,-3.6799338E-2,3.5346966E-2,-6.652084E-2,-1.8996915E-2,6.7772344E-2,-2.8819848E-2,-1.7141217E-2,-6.2356997E-2,-8.405599E-3,6.295373E-2,-5.5891354E-2,1.501211E-2,3.7282914E-2,-6.8575114E-2,-5.220112E-3,-4.5663122E-2,-1.5578431E-2,8.2766645E-2,-5.22814E-2,-2.2923946E-2,-7.024516E-2,4.5861814E-2,6.9174856E-2,-2.2944383E-2,5.3645413E-2,-2.8344342E-2,-1.324658E-2,6.927883E-2,4.4802442E-2,6.61501E-2,-5.3180363E-2,6.8827964E-2,7.11545E-2,2.5256842E-2],"split_indices":[28,0,48,15,47,8,13,3,3,48,43,15,9,57,18,47,0,58,31,0,0,26,46,8,8,13,42,0,0,15,18,46,8,0,18,8,15,0,15,42,18,8,9,17,18,0,0,6,15,0,0,43,4,0,8,6,54,17,8,47,45,44,56,58,56,58,8,44,44,0,0,42,42,3,53,6,47,8,0,0,0,0,0,0,0,0,0,0,0,0,0,0,0,0,0,0,0,0,0,0,0,0,0,0,0,0,0,0,0,0,0,0,0,0,0,0,0,0,0,0,0,0,0,0,0,0,0],"split_type":[0,0,0,0,0,0,0,0,0,0,0,0,0,0,0,0,0,0,0,0,0,0,0,0,0,0,0,0,0,0,0,0,0,0,0,0,0,0,0,0,0,0,0,0,0,0,0,0,0,0,0,0,0,0,0,0,0,0,0,0,0,0,0,0,0,0,0,0,0,0,0,0,0,0,0,0,0,0,0,0,0,0,0,0,0,0,0,0,0,0,0,0,0,0,0,0,0,0,0,0,0,0,0,0,0,0,0,0,0,0,0,0,0,0,0,0,0,0,0,0,0,0,0,0,0,0,0],"sum_hessian":[7.746473E3,2.4041086E3,5.3423643E3,3.1701438E3,2.1722205E3,4.9861087E2,2.671533E3,3.7326736E2,1.7989532E3,4.890526E2,9.558258E0,1.6717845E3,9.997484E2,3.5657513E2,1.6692226E1,1.7917751E3,7.178113E0,4.4746396E2,4.1588646E1,4.438669E0,5.1195893E0,1.5165746E3,1.5520993E2,6.177892E2,3.8195926E2,3.457784E2,1.0796714E1,4.3317013E0,1.2360524E1,5.794796E2,1.2122955E3,4.2021472E2,2.7249249E1,4.438572E0,3.7150074E1,1.405367E3,1.1120759E2,1.0659366E2,4.8616283E1,1.092857E2,5.0850348E2,3.6869247E2,1.3266777E1,2.9197687E2,5.3801533E1,5.6664796E0,5.130234E0,1.2866136E2,4.5081827E2,1.2077032E3,4.5922384E0,3.815384E2,3.8676315E1,1.2875073E1,1.4374174E1,2.8698412E1,8.451664E0,1.119431E3,2.8593597E2,5.745873E1,5.374886E1,2.3776527E1,2.4839754E1,9.3654686E1,1.5631008E1,1.08619194E2,3.9988428E2,1.2836723E1,3.5585574E2,7.3876324E0,5.879144E0,9.283183E1,1.9914505E2,3.3284817E1,2.0516714E1,1.1918552E2,9.475846E0,4.4660373E2,4.214524E0,3.5874112E2,2.2797281E1,3.448296E1,4.1933575E0,5.315228E0,9.058947E0,1.1599364E1,1.7099047E1,4.266426E0,4.1852374E0,3.3484436E2,7.845867E2,1.3959595E2,1.4634001E2,2.851022E1,2.894851E1,4.7721252E1,6.027609E0,8.635552E0,1.5140976E1,4.216666E0,2.0623087E1,1.4282633E1,7.9372055E1,1.1493879E1,4.137129E0,1.04482666E2,4.136523E0,2.9084427E2,1.0904003E2,4.895345E0,7.9413776E0,2.9146854E2,6.4387215E1,7.976172E0,8.485567E1,1.9474123E2,4.4038243E0,9.020374E0,2.4264442E1,4.299707E0,1.6217007E1,6.456115E1,5.462437E1,5.1925907E0,4.283256E0,4.3491946E2,1.1684262E1],"tree_param":{"num_deleted":"0","num_feature":"59","num_nodes":"127","size_leaf_vector":"1"}},{"base_weights":[-2.479611E-2,-6.0563903E-2,4.9138433E-1,-6.4557485E-2,1.3054272E0,-9.9586457E-1,1.02035806E-1,7.924479E-1,1.4125255E0,-1.068132E0,-1.856371E-1,-6.0522413E-1,2.2868524E-1,8.8673115E-1,-5.9728432E-2,1.230439E0,7.494616E-2,-1.0939354E0,2.3990713E-2,-6.310683E-1,1.0910634E0,-7.0033103E-1,4.5107096E-1,7.022498E-1,-1.8106433E-2,9.316246E-1,-6.4150304E-1,1.2624955E0,-6.579908E-1,-1.1303403E0,-5.383099E-1,-1.0039545E0,3.5947494E-2,2.2306873E-2,7.2957434E-2,3.3062822E-1,-7.8234124E-1,9.3875116E-1,-6.3658886E-2,1.2465732E0,3.9732015E-1,1.8130572E-1,-6.220515E-1,1.0467569E0,3.2869714E-1,-5.536107E-2,-1.4109778E-3,8.9702916E-1,1.3517661E0,-5.6266334E-2,2.4978183E-3,-1.1657429E0,-8.663859E-1,-5.7656314E-2,8.086561E-2,-2.5255358E-2,-6.1612874E-2,9.7764415E-1,-6.179641E-1,-9.445721E-1,-1.0649424E-1,1.3607749E0,-3.831309E-2,1.3009607E0,-6.2335182E-2,-5.9010756E-1,5.27257E-1,-5.4505017E-2,7.3585916E-1,-5.7999678E-2,-8.978378E-1,5.8974546E-1,1.2095352E0,-5.935518E-1,7.6340985E-1,9.882989E-1,-4.6045776E-2,1.1582004E0,1.4256403E0,-5.9716024E-2,-4.483236E-2,-5.9676554E-2,-1.5028358E-3,5.4009207E-2,-2.0525742E-2,2.3196017E-2,9.221705E-2,-6.254968E-2,1.7136818E-2,-5.0991505E-2,7.845311E-3,5.3942244E-2,-2.945723E-2,2.0960318E-2,8.437236E-2,7.690159E-2,4.4944923E-2,4.229016E-3,-6.849196E-2,3.0812118E-2,-3.5120647E-2,6.9193207E-3,-4.7658205E-2,5.7826545E-2,-1.5717503E-3,6.62537E-3,-4.5968626E-2,-2.3024505E-2,-5.4349143E-2,-6.9210045E-2,4.0089596E-2,6.2352747E-2,-1.1618767E-3,-7.356475E-2,1.1532988E-2,-3.736041E-2,4.9630176E-2,5.411138E-2,8.292708E-3,-2.9595604E-3,5.989737E-2,7.2555974E-2,2.2921383E-2],"categories":[],"categories_nodes":[],"categories_segments":[],"categories_sizes":[],"default_left":[0,0,0,0,0,0,0,0,0,0,0,0,0,0,0,0,0,0,0,0,0,0,0,0,0,0,0,0,0,0,0,0,0,0,0,0,0,0,0,0,0,0,0,0,0,0,0,0,0,0,0,0,0,0,0,0,0,0,0,0,0,0,0,0,0,0,0,0,0,0,0,0,0,0,0,0,0,0,0,0,0,0,0,0,0,0,0,0,0,0,0,0,0,0,0,0,0,0,0,0,0,0,0,0,0,0,0,0,0,0,0,0,0,0,0,0,0,0,0,0,0,0,0],"id":13,"left_children":[1,-1,3,5,7,9,11,13,15,17,19,21,23,25,-1,27,-1,29,-1,31,33,35,37,39,41,43,45,47,49,51,53,55,-1,-1,-1,57,59,61,-1,63,65,67,69,71,73,-1,-1,75,77,-1,-1,79,81,-1,83,-1,-1,85,87,89,91,93,-1,95,-1,97,99,101,103,105,107,109,111,113,115,117,-1,119,121,-1,-1,-1,-1,-1,-1,-1,-1,-1,-1,-1,-1,-1,-1,-1,-1,-1,-1,-1,-1,-1,-1,-1,-1,-1,-1,-1,-1,-1,-1,-1,-1,-1,-1,-1,-1,-1,-1,-1,-1,-1,-1,-1,-1],"loss_changes":[4.676768E3,0E0,2.4082988E3,4.9081888E2,1.175188E2,2.7908386E1,2.4054147E2,7.135979E1,2.6240234E1,1.8119507E1,2.3731081E1,4.129207E1,2.6612573E2,2.5215912E1,0E0,3.594525E1,0E0,8.161804E0,0E0,1.6162384E1,1.9239111E0,3.1929276E1,3.0037167E1,1.2898691E2,1.8050594E2,2.3881866E1,3.062646E0,1.7407166E1,3.4770613E0,2.7840576E0,1.0969628E1,2.1622982E0,0E0,0E0,0E0,1.7976078E1,3.7976044E1,2.0695911E1,0E0,3.9541138E1,6.46516E1,1.4739523E2,5.7820007E1,2.1052185E1,2.3471502E1,0E0,0E0,1.9993126E1,4.8795166E0,0E0,0E0,1.6598511E0,1.4166771E1,0E0,7.8923445E0,0E0,0E0,6.8089123E0,7.781359E0,2.3364532E1,3.973968E1,6.1376114E0,0E0,2.4749115E1,0E0,3.1042456E1,4.898192E1,1.3734435E2,1.0857611E2,2.0344597E1,2.0162918E1,3.409016E1,9.9635315E0,1.405291E1,1.4403336E1,8.317757E0,0E0,6.4331512E0,7.3739624E0,0E0,0E0,0E0,