tree
version=v4
num_class=1
num_tree_per_iteration=1
label_index=0
max_feature_idx=58
objective=binary sigmoid:1
feature_names=period_days duration_hours depth_ppm planet_radius_re stellar_teff_k stellar_logg_cgs stellar_radius_rsun mag_kepler mag_tess insolation_earth eqt_k snr_like period_errw duration_errw depth_errw prad_errw teff_errw logg_errw srad_errw insol_errw eqt_errw period_days__missing duration_hours__missing depth_ppm__missing planet_radius_re__missing stellar_teff_k__missing stellar_logg_cgs__missing stellar_radius_rsun__missing mag_kepler__missing mag_tess__missing insolation_earth__missing eqt_k__missing snr_like__missing period_errw__missing duration_errw__missing depth_errw__missing prad_errw__missing teff_errw__missing logg_errw__missing srad_errw__missing insol_errw__missing eqt_errw__missing log_period log_duration_h log_depth_ppm duty_cycle depth_per_hour star_multiplicity depth_ppm__rank_in_star snr_like__rank_in_star period_days__rank_in_star star_depth_mean star_depth_std star_depth_cv depth_over_radii_model snr_proxy eqt_over_teff log_depth_over_radii_model log_snr_proxy
feature_infos=[0:129995.7784] [-1.1962422476036538:2820.6947392786419] [-128.2326412194918:1541483.7343492641] [-7.1672129097730881:200346.10758297076] [0:50000] [-0.19023293342009373:6.1764366693558994] [-0.34480860814569136:229.90799999999999] [0:20.003] [0:18.3324] [0:10947554.550000001] [0:14667] [0:9054.7000000000007] [0:53920] [0:40.399999999999999] [0:777200] [0:91710] [0:14000] [0:4.0216799999999999] [0:129.78100000000001] [0:8979555.0399999991] [0:478] [0:1] [0:1] [0:1] [0:1] [0:1] [0:1] [0:1] [0:1] [0:1] [0:1] [0:1] [0:1] none [0:1] [0:1] none none none none none none [9.9999950000033335e-07:11.775264947592191] [9.9999950000033335e-07:7.9450168489559303] [9.9999999949999999e-10:14.248202301086685] [4.9703765557278619e-13:1] [5.0014003921097912e-13:1581977.6073390478] [1:50] [1:25.5] [1:25.5] [1:50] [0:1541400] [0:319682.26866765693] [0:1.8530412955171633] [4.9437043196935081e-26:43829.125647562454] [0:592200] [0:4.2885964912280699] [9.9999999949999999e-10:10.68807666011106] [9.9999999949999999e-10:13.291601383266912]
tree_sizes=6786 6857 6843 6822 6807 6868 6856 6837 6850 6838 6862 6856 6873 6839 6837 6836 6820 6864 6873 6846 6860 6843 6875 6861 6857 6867 6849 6863 6868 6881 6852 6840 6832 6862 6866 6866 6863 6830 6864 6874 6868 6854 6864 6846 6872 6857 6903 6852 6844 6829 6851 6885 6893 6858 6855 6854 6878 6898 6872 6812 6868 6861 6866 6906 6853 6849 6866 6846 6894 6877 6793 6838 6871 6831 6874 6843 6816 6854 6857 6865 6872 6824 6818 6884 6803 6830 6865 6833 6871 6848 6845 6821 6849 6876 6844 6847 6797 6849 6822 6833 6860 6886 6879 6849 6811 6841 6813 6848 6840 6858 6776 6866 6833 6791 6795 6834 6884 6815 6800 6880 6822 6814 6850 6864 6852 6794 6795 6854 6810 6890 6807 6830 6797 6840 6834 6812 6846 6829 6876 6764 6761 6774 6806 6754 6840 6814 6862 6786 6845 6823 6811 6803 6798 6813 6823 6894 6795 6827 6832 6848 6858 6827 6807 6874 6821 6794 6825 6800 6808 6818 6874 6812 6829 6819 6844 6849 6823 6805 6773 6792 6817 6830 6835 6792 6845 6804 6813 6833 6831 6807 6812 6778 6827 6815 6786 6774 6795 6779 6841 6832 6784 6815 6859 6788 6829 6878 6861 6809 6785 6870 6798 6806 6798 6793 6803 6814 6793 6789 6831 6799 6789 6815 6839 6793 6792 6774 6822 6786 6859 6868 6813 6833 6801 6810 6856 6837 6771 6836 6838 6853 6828 6818 6813 6808 6827 6831 6808 6841 6839 6809 6830 6853 6832 6866 6813 6819 6829 6808 6852 6816 6822 6819 6849 6824 6821 6826 6810 6805 6789 6801 6821 6833 6876 6806 6789 6801 6812 6805 6837 6798 6788 6833 6836 6783 6876 6880 6827 6811 6821 6831 6820 6841 6795 6816 6809 6835 6845 6795 6843 6820 6802 6798 6809 6788 6817 6823 6776 6817 6880 6781 6812 6825 6814 6810 6834 6795 6808 6829 6823 6787 6807 6848 6788 6791 6820 6843 6822 6798 6805 6814 6836 6846 6811 6811 6824 6799 6837 6774 6799 6850 6844 6837 6801 6809 6827 6824

Tree=0
num_leaves=63
num_cat=0
split_feature=13 45 47 3 56 11 8 16 3 8 19 8 45 3 47 11 3 13 5 3 13 48 45 16 45 16 19 13 8 8 12 13 52 0 55 12 57 0 16 54 43 16 13 8 54 16 55 12 52 17 54 56 17 6 47 43 52 51 13 6 54 43
split_gain=4210.71 2016.85 806.537 761.992 695.966 677.746 899.468 732.827 406.602 397.525 376.052 308.552 293.164 249.886 248.075 214.536 220.353 181.7 171.013 166.714 160.974 160.85 263.086 215.314 159.189 115.693 112.926 110.812 145.452 102.141 97.8813 97.5785 85.0269 81.9336 80.1536 79.7424 69.5527 68.4745 67.5938 64.979 63.4837 62.8118 61.5584 61.1892 60.8938 59.2264 62.2942 57.8201 56.4334 53.166 52.9173 58.6225 52.3247 51.9262 55.6651 47.9446 47.7584 61.6528 50.2798 46.8899 45.5349 77.5851
threshold=0.057653400000000007 0.062083028873590539 4.5000000000000009 22.494424291953241 0.039837448370564202 14.850000000000003 11.920050000000002 258.41500000000002 5.3789173055972368 13.530050000000001 8.1450000000000014 10.788950000000002 0.023263498308517434 26.970618195720569 1.5000000000000002 49.95000000000001 15.019573105147964 0.21405570000000004 4.7209690229087702 4.9975349697756917 0.77608250000000012 1.7500000000000002 5.3540647177341349e-08 41.600200000000008 0.03354883962172029 337.90000000000003 2148.4000000000001 0.20022030000000005 10.284050000000002 10.488300000000001 0.0010401000000000002 1.1023259000000003 272.05933406152423 1.0000000180025095e-35 8.6287755617817208 0.027010000000000003 0.77133567537110792 0.56680201107291006 332.10000000000008 0.63084530535825878 1.4247816322210889 53.500000000000007 0.91644370000000019 12.121050000000002 1.1171157011901196 313.90000000000003 10.872063470527646 2.7560000000000004e-05 102.60249269388008 0.33950000000000008 1.2306821517999602 0.10684902729276165 0.15101230000000002 0.12659705760382775 1.5000000000000002 0.98063548265712586 8.6974134085945369 173.77500000000001 0.26203710000000008 0.92003531325826238 1.1994900866772473 1.7058156830815514
decision_type=2 2 2 2 2 2 2 2 2 2 2 2 2 2 2 2 2 2 2 2 2 2 2 2 2 2 2 2 2 2 2 2 2 2 2 2 2 2 2 2 2 2 2 2 2 2 2 2 2 2 2 2 2 2 2 2 2 2 2 2 2 2
left_child=2 3 4 5 8 6 10 26 21 17 27 33 19 15 24 -6 25 41 43 20 56 22 23 53 30 -17 39 -2 34 -5 38 -16 48 -3 35 40 -14 -23 -12 -7 -29 -8 -41 -19 -21 -11 -47 -43 50 -10 51 -30 -53 -1 -55 -35 57 -9 -59 -56 61 -45
right_child=1 11 -4 29 13 7 9 12 49 45 14 -13 36 -15 31 16 -18 18 -20 44 -22 37 -24 -25 -26 -27 -28 28 32 -31 -32 -33 -34 55 -36 -37 -38 -39 -40 42 -42 47 -44 60 -46 46 -48 -49 -50 -51 -52 52 -54 54 59 -57 -58 58 -60 -61 -62 -63
leaf_value=-0.7007845037964201 -0.73006055769549794 -0.66806779501039693 -0.77401778786197117 -0.75358573027635145 -0.74962067910818242 -0.69285910937873474 -0.7613082159665634 -0.7073348841510978 -0.60585609209258995 -0.73820612514429196 -0.60545759047628112 -0.68490077978746611 -0.73807631360747861 -0.77776535887268372 -0.56978717169584181 -0.59144344626757739 -0.75004156795278798 -0.6445379894261597 -0.69252289522452315 -0.72205686903584609 -0.70062922469256994 -0.61291885065567298 -0.73949386306445086 -0.69276371060766084 -0.72719386829066945 -0.72131629500484273 -0.73678384452856127 -0.70325013061809438 -0.62935993481393548 -0.65770639394202657 -0.6877518249113127 -0.66685647568258088 -0.72782965333697536 -0.73102420000713908 -0.72776122863169845 -0.72688309475975355 -0.67011648666242263 -0.74092031464320507 -0.66238419960946704 -0.56388764383724332 -0.66435768195673539 -0.63298817710956456 -0.66181744139051268 -0.60017845604068099 -0.59350254341220721 -0.62881274618273086 -0.72232375374342572 -0.69779153795103777 -0.55305471378920512 -0.71709730354848511 -0.63119127279066434 -0.72161543091050195 -0.67485064543181017 -0.55531046620603963 -0.58922425760598496 -0.7670562882184323 -0.55697710493976149 -0.57357464158773652 -0.63632889641115209 -0.69230361994538003 -0.57870661082130925 -0.67059632080071641
leaf_weight=12.514656215906141 237.63482141494751 24.184014916419983 1547.1803425848484 251.71812972426414 361.97612781822681 10.62873564660549 16.141662180423737 14.982277899980543 126.64488478004932 76.729026451706886 108.17347066104412 175.45308193564415 115.11374972760677 533.42442366480827 105.25164806842804 63.079402565956116 62.302616521716118 79.324569284915924 57.682851329445839 59.918957352638245 45.124529376626015 10.828704074025152 173.6814549267292 203.91889782249928 95.760160371661186 23.549744427204132 10.484040543437002 216.34940008819103 57.355498909950256 31.222891166806221 133.19808664917946 34.335867986083031 66.693485483527184 108.69333902001381 292.31855744123459 149.75423856079578 55.946192070841789 297.29939272999763 100.67725312709808 411.50749327242374 203.72284607589245 91.414364039897919 16.698309913277626 397.68136911094189 10.885125279426573 36.136678889393806 35.117639526724815 55.209552899003029 10.471348464488981 11.73631629347801 74.50465552508831 73.220348209142685 326.70649883151054 48.79521456360817 26.43272577226162 612.90657083690166 56.123889207839966 75.096703052520752 55.514646053314209 18.936152145266533 207.59692020714283 43.382998451590538
leaf_count=63 836 122 3703 1116 1143 56 43 76 795 252 698 882 536 2197 730 419 280 438 254 292 233 64 799 952 460 115 49 982 334 173 711 193 229 491 1120 720 312 977 572 2887 1109 504 95 2530 72 209 128 241 75 54 450 280 1625 348 170 2583 399 517 335 80 1406 209
internal_value=-0.704162 -0.677028 -0.746985 -0.663513 -0.725809 -0.658308 -0.668736 -0.620703 -0.69437 -0.631505 -0.686592 -0.74456 -0.663078 -0.753829 -0.651706 -0.728838 -0.678326 -0.619613 -0.609652 -0.63466 -0.615259 -0.70818 -0.690211 -0.662653 -0.670212 -0.626749 -0.574612 -0.69838 -0.693262 -0.743005 -0.65426 -0.593664 -0.674555 -0.758595 -0.706476 -0.695556 -0.71585 -0.736422 -0.632899 -0.570738 -0.684388 -0.667695 -0.567707 -0.603085 -0.702293 -0.707724 -0.6749 -0.657389 -0.668003 -0.615291 -0.670266 -0.676633 -0.683413 -0.605097 -0.592379 -0.761629 -0.596162 -0.611267 -0.600248 -0.632248 -0.598016 -0.607105
internal_weight=0 5524.75 3522.3 4603.51 1975.12 4320.57 3382.55 938.025 930.788 1096.42 2286.13 921.237 488.706 1044.33 577.396 510.908 148.932 948.434 785.669 317.646 246.842 792.407 484.279 310.598 437.809 86.6291 449.319 1708.73 1471.1 282.941 342.049 139.588 608.952 745.784 862.145 569.826 171.06 308.128 208.851 438.835 420.072 162.766 428.206 727.986 70.8041 147.983 71.2543 146.624 542.258 138.381 531.787 457.282 399.927 106.679 94.1641 721.6 201.718 145.594 130.611 45.3689 648.661 441.064
internal_count=40723 28564 12159 24486 8456 23197 17338 5859 4302 6214 11124 4078 2772 4154 3364 1957 814 5625 4837 1924 1560 3453 2412 1613 2441 534 3087 7760 6924 1289 1981 923 2993 3196 3931 2811 848 1041 1270 3038 2091 788 2982 4583 364 589 337 745 2764 849 2689 2239 1905 661 598 3074 1327 928 852 250 4145 2739
is_linear=0
shrinkage=1


Tree=1
num_leaves=63
num_cat=0
split_feature=13 45 47 2 3 11 8 47 19 15 18 8 45 54 47 15 45 49 45 5 54 12 11 13 8 13 15 47 57 17 8 8 57 15 13 57 55 44 17 20 43 45 12 19 15 12 55 17 18 54 5 15 45 12 55 8 45 6 55 13 55 55
split_gain=3725.86 1789.59 789.926 654.323 625.459 565.845 806.268 532.135 347.13 327.548 401.732 285.378 274.97 244.137 191.093 175.612 160.857 156.508 213.013 216.435 110.233 215.323 102.203 97.8442 96.5494 96.1477 88.9485 84.926 83.5218 79.9125 74.5566 71.9519 71.7628 71.6151 67.472 67.1579 73.8952 64.25 62.8641 60.4251 60.0491 59.7364 60.6785 57.7598 57.4938 56.6596 56.3003 69.1188 77.6855 55.4465 53.6225 53.303 52.3129 48.676 54.1785 45.785 56.2177 61.9158 45.4292 45.0069 50.5988 58.9656
threshold=0.057653400000000007 0.062083028873590539 4.5000000000000009 11890.225771811047 22.494424291953241 14.850000000000003 11.900150000000002 1.5000000000000002 8.1450000000000014 0.20002900000000004 0.039267900000000001 6.7013000000000007 0.023263498308517434 1.2793425553092595e-13 1.5000000000000002 1.3376041000000003 0.03354883962172029 1.7500000000000002 5.3540647177341349e-08 2.6610000000000005 1.1633189732279308 1.0000000180025095e-35 14.250000000000002 0.21405570000000004 11.377450000000001 0.51593470000000019 0.71000900000000022 1.5000000000000002 0.78388558369420613 0.40050000000000008 12.449150000000001 12.538150000000002 0.77133567537110792 0.64005690000000015 0.44245390000000007 0.68191412358339221 9.6079591925927321 7.6077538971932928 0.33750000000000008 5.8000000000000007 2.7595980976564936 6.9712991762234312e-08 6.4300000000000013e-07 367.74000000000007 1.6521520000000003 7.837000000000001e-05 6.6614382239382239 0.22224400000000002 0.055023000000000009 1.1863869668808999e-11 4.7010990516336282 0.48046650000000007 0.059479335103034471 0.00022030000000000002 9.5072878886747514 10.159050000000002 0.015784300992693127 0.60001338870202126 3.338146997929607 3.2384945000000003 11.071279885273556 3.6822576569153171
decision_type=2 2 2 2 2 2 2 2 2 2 2 2 2 2 2 2 2 2 2 2 2 2 2 2 2 2 2 2 2 2 2 2 2 2 2 2 2 2 2 2 2 2 2 2 2 2 2 2 2 2 2 2 2 2 2 2 2 2 2 2 2 2
left_child=2 4 3 13 5 6 8 12 24 52 37 -3 15 27 16 25 26 18 19 51 49 -22 -6 44 28 43 58 -1 46 -16 -5 45 -14 39 -26 -17 -37 -11 59 -21 -9 -19 -43 -7 -12 -13 47 48 -2 -20 -33 -15 -8 -25 -55 -48 57 -57 -10 60 61 -30
right_child=1 11 -4 30 22 7 9 40 14 10 23 31 32 17 29 35 -18 41 20 33 21 -23 -24 53 34 -27 -28 -29 38 -31 -32 50 -34 -35 -36 36 -38 -39 -40 -41 -42 42 -44 -45 -46 -47 55 -49 -50 -51 -52 -53 -54 54 -56 56 -58 -59 -60 -61 -62 -63
leaf_value=0.12151563883952921 -0.032735075734809743 -0.059776450399908455 -0.067973873772108367 -0.066035135278794913 0.005895972750230319 0.11407929310536309 0.11313777800042719 0.12834737040654051 0.027729335548620185 0.080001079978274325 0.0059241833803217927 0.00089506131365830349 -0.023719979397915144 0.051563783533552704 0.1134349634834653 -0.0068935736515235383 -0.024757262794836567 -0.039947971194807363 0.074627154150936056 0.010526014393725532 -0.055532349890491661 0.10210798524633834 -0.057829050159767054 0.091145090449364474 0.0081312215937308172 0.033193070014883197 0.021151400492973274 0.035244542805603511 0.0020614156864644803 0.0094337542569258009 0.031209839510700711 0.052085484615661454 0.037661412471606946 0.083913261633041691 0.059261622938442261 -0.015711694928412814 0.11178285547954379 -0.016084291203502035 -0.021744531203364698 -0.049313406784752267 0.018741990161607981 -0.014693193711975236 0.10447932940543109 0.012319937137438952 0.08028494285708189 -0.052480046808049456 -0.03338514846263943 -0.018153386320758007 0.033507089374879999 -0.036624183869805899 -0.05315824463588642 0.11469528524677988 0.00021922032530436459 0.10118125864653305 0.03340645255170966 -0.066194498425442491 -0.01878076972350887 0.043707736442234045 0.086486722815120654 -0.03896279257450519 0.0066063932265127542 0.065097813101736998
leaf_weight=44.926251426339149 54.806325227022171 586.23793974518776 1500.8749370276928 589.52810524404049 97.11616250872612 212.76438450813293 315.43888133764267 345.19444262981415 43.167063027620316 19.054829269647598 78.781323611736298 154.73842786252499 124.27962790429592 66.208501651883125 126.44782675802708 77.079441800713539 95.728800743818283 353.96511617302895 11.607619240880011 187.13677524030209 39.718224510550499 47.649390682578087 178.68554949760437 349.18597167730331 133.85442101955414 53.986155971884727 157.51602518558502 78.147653743624687 49.884050652384758 21.629992678761482 20.392010122537613 78.768842220306396 77.194190740585327 26.303539127111435 124.56596384942532 17.421568438410759 32.69185933470726 200.08842305839062 76.780442386865616 54.4659643471241 12.965701952576635 42.364132076501846 14.282238274812697 14.92304480075836 38.794242918491364 73.260611891746521 265.11625069379807 190.39774081110954 230.00628936290741 318.63236393034458 14.300321310758589 67.544159829616547 10.601682603359221 43.907956749200821 89.779715463519096 15.194796472787855 233.61706358194351 81.834311529994011 138.26454201340675 22.985023990273476 110.73991341888905 144.74259702861309
leaf_count=300 202 2559 3685 2400 498 1395 2049 2327 235 108 326 711 598 357 828 386 460 1097 64 862 175 302 784 2122 568 298 846 400 252 112 101 449 430 155 678 85 214 736 309 155 69 203 90 78 228 299 942 876 1186 1419 57 432 51 275 448 38 906 427 860 104 511 829
internal_value=0 0.0252735 -0.0406675 -0.0197882 0.0376667 0.0422136 0.0327648 0.0759982 0.015801 0.0670776 0.0502151 -0.0390242 0.047607 -0.00040543 0.0491878 0.0711654 0.0324764 -0.00712432 0.00550298 0.0314995 -0.0195008 0.0304431 -0.03539 0.0713629 0.00458398 0.0931853 0.0486409 0.0667365 -0.000351838 0.0982433 -0.0627839 -0.00113274 -0.000201852 0.00556582 0.0327775 0.0224015 0.0674603 -0.00772953 0.0189857 -0.00296395 0.12438 -0.0323188 0.0153538 0.10741 0.0304596 -0.0162554 -0.00766694 0.00516905 0.0207601 -0.0327138 0.0359145 0.0834448 0.109466 0.0813225 0.0556662 -0.0179056 -0.00549387 0.026497 0.0725069 0.02851 0.0335886 0.0489412
internal_weight=0 5614.52 3463.75 1962.87 4707.21 4431.41 3462.91 968.5 2317.28 1145.63 819.592 907.306 610.34 1352.95 582.754 408.866 434.676 1229.88 819.267 401.659 417.608 87.3676 275.802 600.449 1734.53 281.674 338.948 123.074 1476.1 148.078 609.92 321.068 201.474 267.906 258.42 127.193 50.1134 219.143 405.132 241.603 358.16 410.611 56.6464 227.687 117.576 227.999 1070.97 475.21 284.813 330.24 93.0692 133.753 326.041 482.874 133.688 595.762 330.646 97.0291 181.432 328.352 305.367 194.627
internal_count=40946 28749 12197 8512 24674 23392 17512 5880 11169 6343 4243 4075 3484 6011 3341 2456 2401 5311 3921 1961 1960 477 1282 3399 7828 1771 1941 700 6582 940 2501 1516 1028 1172 1246 685 299 844 2005 1017 2396 1390 293 1473 554 1010 4577 2264 1388 1483 506 789 2100 2845 723 2313 1371 465 1095 1696 1592 1081
is_linear=0
shrinkage=0.05


Tree=2
num_leaves=63
num_cat=0
split_feature=13 45 47 51 3 15 19 52 8 18 45 8 54 15 8 19 13 49 12 16 16 54 47 13 17 54 8 47 45 12 45 8 8 18 51 17 17 0 16 16 45 16 49 10 16 0 16 47 54 54 12 58 19 45 51 0 13 19 15 45 45 0
split_gain=3423.55 1693.95 726.052 616.269 600.393 442.723 398.706 528.821 356.263 328.854 268.132 256.499 206.968 191.604 166.65 404.907 135.524 128.004 202.275 176.907 127.61 125.179 119.18 117.337 114.428 110.208 101.233 97.6708 93.6391 108.339 88.9039 85.3776 79.42 76.7626 73.7313 72.4248 68.7988 65.8057 62.1794 59.8519 59.4788 59.3618 58.6537 87.118 66.3691 56.5438 55.624 55.3871 53.9848 52.3613 49.4856 49.1275 47.7361 46.0629 45.4897 44.2856 46.6608 52.8941 43.7542 42.8246 41.9897 41.2135
threshold=0.057653400000000007 0.062083028873590539 4.5000000000000009 8536.2819178500013 22.494424291953241 0.24021700000000004 4.5850000000000009 5.0558134854838164 11.405050000000001 0.036650000000000009 0.032576832318721528 10.788950000000002 4.1565230634939185e-13 1.4074670000000002 11.529150000000001 0.24500000000000002 0.19310000000000002 1.7500000000000002 2.8020000000000004e-06 1.0000000180025095e-35 269.07700000000006 1.1471902357495642 2.5000000000000004 1.0870000000000004 0.33050000000000007 1.1941749701393922 11.151150000000003 1.5000000000000002 0.0096455425709059059 0.013313 8.2464925469160985e-08 12.121050000000002 12.449150000000001 0.057009500000000012 1520.6500000000003 0.17973700000000001 0.25250000000000006 1.0000000180025095e-35 298.04200000000009 263.41000000000003 2.9618465493286588e-09 1.0000000180025095e-35 1.2500000000000002 158.50000000000003 275.84100000000007 3.398181281522104 206.03800000000004 1.5000000000000002 1.1607660469520145 1.2687429699707968 1.8040000000000002e-06 1.9635292432571563 5675.8450000000012 0.095034063729154808 548.06638250000003 524.85080273030314 0.41205200000000003 0.31500000000000011 0.53006000000000009 0.032117038678010516 0.059479335103034471 3.5946265000000004
decision_type=2 2 2 2 2 2 2 2 2 2 2 2 2 2 2 2 2 2 2 2 2 2 2 2 2 2 2 2 2 2 2 2 2 2 2 2 2 2 2 2 2 2 2 2 2 2 2 2 2 2 2 2 2 2 2 2 2 2 2 2 2 2
left_child=2 4 3 12 5 14 8 10 25 34 13 37 22 24 15 -2 35 18 27 47 -17 42 41 -9 39 28 -6 40 29 33 -19 49 -5 -7 -10 -11 -27 -3 52 -8 -14 -1 43 44 -21 -24 -30 -20 54 -18 -32 -48 -12 -39 -41 56 57 -35 -13 -22 -16 -33
right_child=1 11 -4 32 26 6 7 23 9 16 38 58 17 -15 60 20 31 30 19 21 59 -23 45 -25 -26 36 -28 -29 46 -31 50 61 -34 55 -36 -37 -38 53 -40 48 -42 -43 -44 -45 -46 -47 51 -49 -50 -51 -52 -53 -54 -55 -56 -57 -58 -59 -60 -61 -62 -63
leaf_value=0.10911072129596709 -0.00888900886129655 0.030101510238780518 -0.066117313354522173 -0.063556453446418928 -0.044649034139871251 -0.040605832104607179 0.11029368380331402 0.11700405635833842 0.10429156970344125 -0.0069785258194431203 0.078661945992329285 0.052080053622422344 0.07767348425410836 0.010465493625417301 0.10275979237085915 0.11266579078171456 0.037123277495415226 -0.042213785146216626 0.12569329039743418 -0.0036840359551489725 0.060594440869383072 0.1043876528439564 0.080332251334596122 0.02381688660134346 0.015823358626869205 0.044438219860289702 0.061843385166890946 0.05240161669899162 -0.048969549143388649 -0.019139866113035354 0.0020209390696596763 0.063377336604063292 0.029262456123089604 0.028603335648209927 -0.015248838923946358 0.069701734911745361 -0.0096267394315374157 -0.038687277593168486 -0.031666672753780843 0.028483237165967529 -0.032336497661623512 0.039418023877734326 -0.032294212279729867 -0.014310274506655486 0.12138668377502569 -0.023021002920289975 0.016822413350947835 0.047619970149023971 0.088722720909815297 0.11898573992344291 0.12017955159832966 -0.017337196094547803 -0.056259907556610339 -0.065029619763739652 0.092599783710205108 0.13064259409740631 0.021853369351001396 0.11069001453126691 -0.001601715327981632 -0.025907519573166449 0.0065597493244855922 0.094899419375085919
leaf_weight=66.947566166520119 161.16027714312077 23.564976453781128 1464.5686356425285 608.74419547617435 254.04580749571323 30.237594529986382 108.5595989972353 322.3685829937458 13.68347431719303 106.09117539227009 24.978758454322815 54.354712814092636 12.73055389523506 216.17180763185024 347.96212580800056 191.8281546831131 221.8067062497139 318.49821944534779 51.440232336521149 16.966516584157944 41.612752333283424 30.647289872169495 16.770665943622589 37.734215095639229 88.656662851572037 232.94423605501652 24.465524241328239 41.54979445040226 100.79069086909294 145.56629204750061 36.80337592959404 180.45745468139648 23.952896311879158 39.221131712198257 225.05101330578327 43.386867359280586 78.729505360126495 270.51077297329903 151.98719817399979 106.53290297091007 352.47064609825611 56.206429988145828 97.358075499534607 70.781551748514175 28.29872153699398 62.745023623108864 141.5613549798727 40.68244406580925 140.26307711005211 21.419884145259857 11.671172723174093 410.38359145820141 8.8885971456766111 429.34610722959042 37.367206603288651 13.878316536545752 145.63746476173401 39.277461722493172 125.83214040100574 21.805731758475304 11.725347921252249 243.76082870364189
leaf_count=430 735 115 3696 2518 1168 97 701 2102 84 406 153 312 78 1129 2179 1245 1102 973 340 66 242 195 102 202 467 1242 142 232 322 702 184 1014 117 187 831 243 348 1238 718 577 1645 288 316 309 187 230 661 200 869 140 77 1608 39 1863 233 95 714 254 574 104 57 1482
internal_value=0 0.0239455 -0.0395271 -0.0195076 0.0359244 0.0403783 0.033136 0.0561691 0.0213681 0.0432258 0.0353514 -0.0387855 3.14002e-05 0.0495702 0.0746944 0.0531607 0.0583119 -0.00845284 0.0034811 0.032179 0.0923383 0.00989451 0.0464945 0.107239 0.0671308 0.00462612 -0.0352943 -0.0202374 -0.00301707 0.0155897 -0.0326128 0.0679495 -0.0600425 0.0344356 -0.00839718 0.0152784 0.0307813 -0.0520805 -0.0180147 0.0787134 -0.0285017 0.0773036 -0.00367575 0.0203339 0.0745071 -0.00122275 -0.0148133 0.0912152 0.0666487 0.0443325 0.0304699 -0.00857603 0.0432513 -0.0548477 0.0451327 0.043969 0.0386022 0.0696761 0.0145918 0.0308517 0.0996238 0.0814903
internal_weight=0 5635.61 3409.83 1945.27 4732 4453.49 3677.39 1243.51 2433.89 1055.66 883.406 903.609 1312.57 697.551 776.094 416.407 816.923 1109.9 742.926 336.175 255.247 244.052 202.67 360.103 481.379 1378.23 278.511 406.751 1066.55 413.818 366.973 667.445 632.697 268.252 238.734 149.478 311.674 723.422 185.855 392.723 365.201 123.154 213.405 116.047 45.2652 79.5157 652.736 92.1227 284.163 243.227 48.4745 551.945 33.8674 699.857 143.9 238.014 224.136 78.4986 180.187 63.4185 359.687 424.218
internal_count=40879 28696 12183 8487 24594 23284 18722 7190 11532 5302 4886 4102 5852 3976 4562 2326 4387 4802 3568 1613 1591 1073 1050 2304 2847 6230 1310 1955 4640 2049 1234 3738 2635 1347 915 649 1590 3216 910 2380 1723 718 878 562 253 332 2591 540 1679 1242 261 2269 192 3101 810 1250 1155 441 886 346 2236 2496
is_linear=0
shrinkage=0.05


Tree=3
num_leaves=63
num_cat=0
split_feature=54 45 12 47 19 11 8 16 3 51 15 18 15 8 46 47 8 17 55 12 51 11 47 47 45 8 45 16 10 15 12 14 20 54 0 12 47 2 43 9 47 8 54 11 54 8 6 8 45 14 44 9 0 4 0 45 15 16 10 45 55 15
split_gain=2650.36 1175.12 936.354 588.164 779.308 398.486 719.761 676.987 304.389 302.55 235.988 296.511 223.195 195.363 182.587 168.316 160.219 151.01 147.238 127.467 117.519 187.538 119.09 98.6711 90.2785 81.2207 76.0989 72.4779 70.1561 67.9896 67.3767 66.949 66.7042 77.5544 65.5866 64.6289 56.6177 55.3224 54.1626 53.0934 51.154 49.6926 49.153 69.1199 49.1063 47.2145 65.2587 46.6461 48.4415 46.3102 46.1656 45.6603 42.8395 42.083 40.4242 39.9843 39.4501 37.829 37.7908 37.092 35.8514 36.223
threshold=0.45961636093234109 0.065428736126188144 5.4010000000000005e-06 3.5000000000000004 1.0000000180025095e-35 11.550000000000002 11.673400000000003 274.61000000000007 13.73355424091565 9476.5831930000022 0.12231000000000002 0.039267900000000001 0.43014800000000009 6.7013000000000007 71.422950420749402 3.5000000000000004 12.104100000000001 1.0000000180025095e-35 7.7719551921287069 0.017293300000000001 9863.5396960000016 53.850000000000001 5.5000000000000009 2.5000000000000004 0.042922068940692733 12.121050000000002 0.041065140957882683 204.70000000000002 1101.5000000000002 9.1818403000000028 0.011814600000000001 56.637000000000008 8.7000000000000011 1.5753548008027559e-12 1.731414875020026 0.011814600000000001 1.5000000000000002 1890.9267001045569 1.0677466220511829 2000.0400000000002 1.5000000000000002 10.407900000000001 0.92749899679148162 59.350000000000001 1.1393740095640126 10.063300000000002 1.0933610741451967 11.349000000000002 0.14034116231534308 13.803690000000001 9.670041058381317 2660.7425050500005 4.837894665251393 6126.0005830405207 3.5556346592479593 0.012524695608317931 1.5342991000000004 287.10000000000008 1076.2725524500004 0.019781456656584952 3.2661550451548629 2.3589700000000007
decision_type=2 2 2 2 2 2 2 2 2 2 2 2 2 2 2 2 2 2 2 2 2 2 2 2 2 2 2 2 2 2 2 2 2 2 2 2 2 2 2 2 2 2 2 2 2 2 2 2 2 2 2 2 2 2 2 2 2 2 2 2 2 2
left_child=3 2 16 4 12 6 15 8 35 14 34 37 32 38 26 18 20 23 19 24 21 22 -2 -14 31 52 30 -18 42 -5 40 39 33 36 -8 51 -1 -12 57 -4 55 59 43 -16 -30 -20 -47 48 -15 -50 54 -7 56 -39 -27 -9 -13 -3 -48 -35 -33 -62
right_child=1 13 5 29 -6 7 10 9 -10 -11 11 25 17 47 28 -17 27 -19 45 -21 -22 -23 -24 -25 -26 50 -28 -29 44 -31 -32 60 -34 41 -36 -37 -38 53 -40 -41 -42 -43 -44 -45 -46 46 58 -49 49 -51 -52 -53 -54 -55 -56 -57 -58 -59 -60 -61 61 -63
leaf_value=0.10412827793831875 -0.0083355519868544403 0.032260012234311859 0.063341358905070477 -0.064330376300899744 -0.058811109390443816 0.10993397924951789 0.021138110962137111 0.061750726784045133 -0.033836903480896005 -0.060906533116755958 0.07047281915869516 -0.016380880463943315 0.096248221703255921 -0.037931897102187868 0.066983072476563904 -0.050565676479404159 -0.040125765259752477 0.013672213769217526 -0.021110535760166846 -0.015179280700525065 -0.056198141282264094 0.082904522164098951 -0.064556420893907215 0.010192113029867009 -0.024009892594311327 0.058920358247036633 -0.052116937274805687 0.071815843148657785 -0.026124673787073824 0.020947327673094981 -0.022864405360527734 0.0062131316371723897 -0.05599616803565477 -0.010725775906824889 0.099257939988001975 0.011699170669292255 0.012261382158211794 -0.020490994406912724 -0.063143311590095938 -0.029567378518749611 0.093020833284464643 0.080035581123305027 0.086785905053886156 -0.044927142009661525 0.06306686907367462 -0.01658758579048673 0.049601487574518398 0.018046154749215493 -0.050942277992155754 0.078720585383362518 0.040032352445680201 -0.011384106788707665 0.057365812489411229 0.063017779865923204 0.092336417569826135 -0.001256516944825598 0.046927598462405101 -0.040567577292968351 0.00870000798853998 -0.06133239518503978 0.045861978727015279 0.011218393444755238
leaf_weight=25.162441074848175 346.7900897860527 24.739486902952194 243.82198132574558 1365.4178342819214 646.45458871126175 574.45033350586891 29.457513228058815 39.66626313328743 41.983420252799988 89.806831330060959 21.451159790158272 58.514176413416862 135.62815311551094 115.49989357590675 54.33734555542469 117.12455135583878 18.805585592985153 225.37384137511253 288.03192423284054 172.56344640254974 247.53766943514347 45.256382614374161 129.31798252463341 44.153082445263863 66.151806518435478 150.2519226372242 46.274266138672829 62.572086229920387 33.82838386297226 23.779884591698647 66.136034354567528 154.63030160963535 68.539819657802582 230.25923432409763 305.61936728656292 17.846402257680893 50.294637992978096 190.60974889993668 432.47420217096806 16.411871328949928 32.779165863990784 13.371472820639609 192.63530485332012 18.493571043014526 28.378180757164955 210.1356225758791 78.995177298784256 129.59888572990894 10.615035459399225 19.604038134217262 94.848766565322876 7.8619662076234809 92.326606646180153 16.382968038320541 227.60008069872856 68.944751903414726 42.465748444199562 63.852193489670753 198.08642961084843 42.964110791683197 242.74868081510067 109.48430308699608
leaf_count=156 1586 141 1406 3546 2859 3680 148 232 201 402 117 222 829 481 320 347 59 1065 1112 848 976 279 335 186 301 823 208 355 162 113 318 767 187 1029 1899 93 220 688 1942 77 203 81 1180 83 168 812 420 643 40 115 480 39 499 87 1364 348 221 300 912 188 1273 511
internal_value=0 0.0187787 0.027301 -0.039496 -0.0175881 0.0365042 0.0267987 0.0596163 0.0963187 0.024507 0.056601 0.0431938 0.0142981 -0.037846 0.0376989 0.00749451 -0.0207686 0.0409358 0.0113126 0.0239339 -0.0278295 -0.0143605 -0.023606 0.0751134 0.0320341 0.060054 0.00586327 0.0459472 0.0623574 -0.0628706 0.0187917 0.0368671 -0.010766 -0.00220356 0.0923902 0.105424 0.042896 -0.00596051 -0.0558472 0.057482 0.0382766 -0.0140777 0.0735568 0.0385663 0.0145639 -0.00506227 0.00442511 -0.00377702 -0.023186 0.033174 0.0712199 0.108296 0.0327495 -0.0138815 0.0790486 0.0217546 0.0102426 -0.0202303 0.0203609 -0.0186836 0.026283 0.0350937
internal_weight=0 6087.8 5291.42 2871.4 1482.2 4441.14 3127.71 1313.42 642.142 671.28 1229.53 894.451 835.747 796.384 581.473 1898.19 850.28 405.155 1781.06 1005.81 768.902 521.364 476.108 179.781 833.249 666.007 253.8 81.3777 327.673 1389.2 207.526 767.097 430.592 362.052 335.077 600.159 75.4571 228.444 521.066 260.234 141.39 286.595 265.466 72.8309 62.2066 775.249 487.217 275.318 145.719 30.2191 472.701 582.312 193.307 206.993 377.852 108.611 100.98 88.5917 277.082 273.223 506.863 352.233
internal_count=40682 30223 26561 10459 6800 22971 15334 7637 4013 3624 6548 4501 3941 3662 3222 8786 3590 2080 8439 5183 3176 2200 1921 1015 4335 3609 1309 414 1913 3659 1101 4034 1861 1674 2047 3812 376 892 2383 1483 783 1298 1583 403 330 3256 2144 1279 636 155 2667 3719 942 775 2187 580 443 441 1332 1217 2551 1784
is_linear=0
shrinkage=0.05


Tree=4
num_leaves=63
num_cat=0
split_feature=13 45 49 56 3 11 8 16 3 8 19 3 45 8 11 16 4 47 48 45 45 3 8 13 16 13 13 4 8 19 54 55 18 14 13 0 12 11 18 55 16 3 16 45 47 56 52 16 52 46 3 8 43 46 44 57 16 47 54 45 14 11
split_gain=2846.33 1324.48 651.019 518.052 486.026 415.167 562.855 457.19 266.124 231.368 221.055 220.669 210.327 192.586 172.942 155.931 144.729 141.093 117.673 203.474 117.397 112.936 112.102 125.471 101.3 98.4554 95.2534 88.5244 87.6935 81.6151 80.0713 76.4589 69.724 65.2283 62.5359 61.1385 59.1812 72.7723 54.2235 52.9034 48.487 47.5622 46.9406 46.3887 45.5609 45.0324 44.0701 43.8454 42.7835 42.1492 41.2295 40.8206 38.0626 37.7016 36.9709 38.2269 36.1967 35.891 35.595 34.7597 34.6741 34.6597
threshold=0.054425500000000009 0.062083028873590539 2.7500000000000004 0.036538695297784571 22.494424291953241 14.850000000000003 12.121050000000002 258.41500000000002 5.3789173055972368 10.788950000000002 10.385000000000002 26.970618195720569 0.023263498308517434 13.560750000000002 66.950000000000017 256.64500000000004 3919.2743396733181 1.5000000000000002 1.7500000000000002 4.3359551694511567e-08 0.03354883962172029 6.7157370672831176 10.333950000000002 0.21405570000000004 41.600200000000008 0.77608250000000012 0.18609300000000004 5533.5088759883829 11.115900000000002 2148.4000000000001 1.1878433108396622 8.6287755617817208 0.76650000000000007 2458.0300000000002 0.92633360000000009 0.36619724409954818 0.017293300000000001 10.15 0.018446900000000006 918.15947962800351 321.30000000000007 14.516113107830067 314.22300000000007 0.085210646016876793 1.5000000000000002 0.36381625307618093 272.05933406152423 130.50000000000003 80.230720399948765 158.40533689734767 0.88013574653846094 9.0774000000000026 1.8471153304170251 299.27540486996497 5.6868058360805263 0.60683956831562058 318.20000000000005 1.5000000000000002 1.1487886124166744 1.0965345267565573e-08 49.694327000000008 35.350000000000001
decision_type=2 2 2 2 2 2 2 2 2 2 2 2 2 2 2 2 2 2 2 2 2 2 2 2 2 2 2 2 2 2 2 2 2 2 2 2 2 2 2 2 2 2 2 2 2 2 2 2 2 2 2 2 2 2 2 2 2 2 2 2 2 2
left_child=2 4 3 8 5 6 10 29 18 35 22 14 21 16 -5 60 30 20 19 24 32 25 31 42 -1 54 -18 46 61 47 -8 36 40 -15 -19 53 37 48 -35 45 -12 52 -24 -37 58 -29 -25 -7 49 51 -21 -2 -17 -3 -9 -56 -26 -10 -14 -20 -16 -6
right_child=1 9 -4 11 28 7 13 12 57 -11 17 -13 44 33 15 41 26 34 59 50 -22 -23 23 27 56 -27 -28 39 -30 -31 -32 -33 -34 38 -36 43 -38 -39 -40 -41 -42 -43 -44 -45 -46 -47 -48 -49 -50 -51 -52 -53 -54 -55 55 -57 -58 -59 -60 -61 -62 -63
leaf_value=0.072547438411859108 0.022656597729802094 0.081405299525130953 -0.06339952815191395 -0.039190286504680927 -0.025011783419807962 0.024132501131028432 -0.019053530306869845 0.04029205698108583 0.095775270579712607 0.014459125017019073 0.084005855791093209 -0.068127334451503277 -0.041340331949360445 -0.029573112882258074 0.11700862405970934 0.060699481189821637 0.028389065021983351 0.10344221650531725 -0.041343963187601952 -0.036637890534474749 -0.021968718850207736 -0.013755855083912 -0.026465214766425278 0.01794773664207646 0.0079856849027492207 -0.0004003084460637429 0.079162780493563872 0.05687476724471259 0.05165512514284526 -0.039294539769328639 0.07833297812298011 -0.023729124370555056 0.0075824274045527083 -0.019254994155958976 0.030588159209922229 -0.03181241268781778 -0.017799378086004881 0.067257252980561122 0.079286303247951426 0.002240079740425025 0.037167056029204781 -0.046262303893475271 0.042650368350153858 -0.060745028952132067 0.063923846658746827 -0.047551029935577388 -0.030325365671621841 0.10346208932439956 -0.028882377076362532 0.0018321602183336318 0.0685419735466722 0.095107598721277081 -0.048382111650918685 -0.028936427713736175 0.041724684646425869 0.099273426126687991 0.097630343343653642 0.046901334028688679 0.0074530285304405391 -0.0044512521199401743 0.0056616154233381137 -0.062529057568214225
leaf_weight=117.30709378421307 74.335542365908623 13.747696354985239 1391.8840576261282 336.88305947184563 130.41329963505268 18.088118880987167 72.05819296836853 50.033908262848854 68.101138055324554 182.62270414829254 93.08855414390564 479.02439758181572 97.095334619283676 74.688081443309784 41.289603278040886 27.038014277815819 106.00360821187496 106.50509825348854 190.73234751820564 170.43207675218582 96.547073066234589 53.102542728185654 170.20442445576191 266.42059573531151 180.21323388814926 47.239462599158287 718.34370908141136 303.37898939847946 27.337875261902809 10.665426701307295 29.85004611313343 372.9454263150692 108.73739224672318 22.880605533719063 40.715567126870155 197.90500475466251 195.80167269706726 58.417140990495682 35.807350143790245 60.442764267325401 135.94006855785847 47.89085166156292 28.709913894534111 461.8572536110878 16.855814009904861 10.68775090575218 57.480133891105652 470.02680949866772 67.209222882986069 196.92082814872265 9.8559609204530698 26.327025964856148 11.355968996882437 17.719196125864983 35.440847799181938 155.31129239499569 12.011056154966353 83.771647557616234 60.771445572376251 95.972099408507347 8.4171004742383939 116.60097928345203
leaf_count=663 369 80 3707 1130 641 95 269 275 421 894 564 2175 452 254 271 160 492 671 592 806 473 261 590 1224 820 239 4177 1672 150 49 178 1429 558 85 219 946 962 344 209 255 744 229 147 2112 98 43 189 2965 240 923 53 164 52 71 196 971 77 447 313 413 45 530
internal_value=0 0.0210412 -0.0374781 -0.0182897 0.0313103 0.0352114 0.0271102 0.0633999 0.0082852 -0.0355946 0.0140361 -0.0442086 0.0303966 0.0575959 -0.0199787 0.0276129 0.0656846 0.0409924 -0.0035536 0.0113376 0.0266535 0.0532458 0.0057388 0.0185444 0.0359321 0.0655987 0.0726337 0.0285224 -0.0333173 0.0975327 0.00947205 -0.00584513 0.0405516 0.00142235 0.0832936 -0.0488188 0.00492971 0.0154455 0.0408681 0.0450771 0.0562047 -0.013024 -0.0164896 -0.0520663 -0.0142142 0.0533211 0.00938109 0.100522 0.0071485 0.0152861 -0.0308879 0.0416052 0.0284359 0.0192712 0.078547 0.0885811 0.0135871 0.0688169 -0.0225571 -0.0289944 0.0981536 -0.0427215
internal_weight=0 5693.28 3272.18 1880.3 4819.43 4545.08 3530.45 1014.63 928.397 873.852 2470.82 951.899 515.851 1059.63 472.875 135.992 926.256 581.534 776.524 489.819 434.313 341.128 1889.28 897.325 309.531 288.026 824.347 698.41 274.352 498.78 101.908 991.957 337.766 133.376 147.221 691.229 619.011 423.21 58.688 374.51 229.029 86.2848 198.914 659.762 174.723 314.067 323.901 488.115 364.793 297.583 180.288 100.663 38.394 31.4669 240.786 190.752 192.224 151.873 157.867 286.704 49.7067 247.014
internal_count=40843 28782 12061 8354 24679 23358 17444 5914 4292 4103 11780 4062 2805 5664 1887 757 5116 3229 3424 2419 2339 1942 8551 4120 1560 1681 4669 3383 1321 3109 447 4431 1866 548 890 3209 3002 2040 294 1970 1308 441 737 3058 863 1715 1413 3060 1696 1456 859 533 212 151 1442 1167 897 868 765 1005 316 1171
is_linear=0
shrinkage=0.05


Tree=5
num_leaves=63
num_cat=0
split_feature=13 45 47 56 3 11 8 16 15 19 15 18 8 45 3 47 57 47 15 13 8 45 13 3 11 4 17 19 13 15 12 13 47 45 47 54 15 58 45 16 0 11 12 45 16 44 12 47 58 58 13 5 54 3 54 57 3 43 12 44 12 13
split_gain=2602.47 1205.67 591.339 530.561 449.928 348.941 463.658 423.506 255.238 251.825 220.418 249.393 219.481 187.523 154.802 124.247 118.411 101.74 95.4745 93.7798 100.275 91.3092 89.19 88.6721 86.1995 80.0725 74.6166 74.4154 70.9043 68.8987 67.4426 67.4281 66.6326 68.5936 79.5615 140.218 69.3382 59.4605 58.1125 60.1438 57.5128 56.4887 55.1152 51.2813 47.6585 47.4809 44.4846 44.2022 42.8783 40.6902 38.9489 38.2189 49.7019 37.9084 37.7326 37.379 37.3734 36.8126 45.5896 36.2624 36.8208 54.3645
threshold=0.048100000000000011 0.059479335103034471 4.5000000000000009 0.036538695297784571 22.494424291953241 14.850000000000003 11.788950000000002 296.10000000000008 0.78525450000000008 8.1450000000000014 0.20002900000000004 0.039267900000000001 6.7013000000000007 0.023263498308517434 26.970618195720569 1.5000000000000002 0.77779754466882001 2.5000000000000004 2.3589700000000007 0.21405570000000004 10.301300000000001 0.03354883962172029 0.28604820000000003 13.73355424091565 14.250000000000002 4258.5056570639517 0.40050000000000008 0.54500000000000015 0.30586180000000007 0.71000900000000022 5.8240000000000005e-05 0.91644370000000019 3.5000000000000004 4.3359551694511567e-08 1.5000000000000002 5.1934131137876439e-12 0.081000000000000016 2.2857082184508175 0.076089977625118113 289.10000000000008 3.317611383754723 11.550000000000002 0.027010000000000003 0.022240455265817811 331.90000000000003 9.9712461179616998 0.00018570000000000004 2.5000000000000004 6.2731130037619884 3.1196484957925033 2.4030000000000005 2.6610000000000005 1.4466572846271778e-14 2.6464267720588097 1.1011492947403683 0.78388558369420613 0.88013574653846094 3.0014601859295338 0.00015948000000000001 7.6077538971932928 0.0008024000000000001 0.43205150000000009
decision_type=2 2 2 2 2 2 2 2 2 2 2 2 2 2 2 2 2 2 2 2 2 2 2 2 2 2 2 2 2 2 2 2 2 2 2 2 2 2 2 2 2 2 2 2 2 2 2 2 2 2 2 2 2 2 2 2 2 2 2 2 2 2
left_child=2 4 3 8 5 6 9 23 27 19 -8 59 38 18 16 21 -5 51 28 44 37 29 43 31 -6 -22 -17 32 -9 50 54 -7 33 34 35 -1 -36 42 39 53 -19 -18 55 -13 -2 -43 49 56 -27 -45 -11 -10 -53 -3 -14 -21 -35 58 -30 -12 -61 -62
right_child=1 12 -4 14 24 7 10 13 17 15 11 22 30 -15 -16 26 41 40 -20 20 25 -23 -24 -25 -26 48 -28 -29 57 -31 -32 -33 -34 47 36 -37 -38 -39 -40 -41 -42 45 -44 46 -46 -47 -48 -49 -50 -51 -52 52 -54 -55 -56 -57 -58 -59 -60 60 61 -63
leaf_value=0.1038495390438503 -0.035400478990666243 0.088351764795373447 -0.062227362915485189 -0.035714610521155064 0.0051930584665384662 0.095315752977305018 0.084271485567659649 0.085749962504538424 0.10063107141996937 0.063578505151076617 0.052669380660695091 0.078157561118451208 -0.0060594740979120452 -0.020957068153037082 -0.066843149651782438 0.09139857180505874 -0.030616619902296163 0.099487792989785676 -0.0070465808573074457 0.0044144029940631274 -0.0177278695970133 -0.018424562655776296 0.064155146342851604 -0.027902544547954052 -0.053072531498140466 0.039470139100589399 -0.0067729362342663999 -0.067151711246139112 -0.029967920777427284 0.014439575576431758 -0.030060850210779356 0.0057193516261326025 -0.037857591735616154 -0.032169092867474713 0.034991783279113418 0.0075350854497614906 -0.023969389830951204 -0.022741344266667445 -0.059350823075501137 -0.04039516224493174 -0.014479790174733193 0.096031289338241954 -0.021100418680512465 0.089854332136269366 0.020137784031616077 -0.038943003411376451 -0.025205105741772229 0.064902711373615959 -0.00094611378976188583 0.015889378274542006 -0.040290807620062624 -0.04492973121889559 0.07481369596340269 -0.036568262741828624 0.03465691372365913 0.03610332008535843 0.065850207084039797 -0.048259965361058345 0.05802443219944442 -0.025667696772007732 0.13403474142819055 -0.0047501261004113055
leaf_weight=60.786652058362961 213.26468434929848 17.888066396117214 1343.0146898031235 369.53750847280025 98.515943586826324 521.30823443830013 344.54998685419559 131.02756215631962 91.121412187814713 179.94731575250626 21.779894053936005 37.179349675774574 112.43710720539093 156.13816709816456 447.86305267363787 137.69306826591492 20.167640790343285 13.769744187593458 65.880202502012253 285.47984346747398 95.924991652369499 90.960125222802162 477.45217438042164 15.950212135910986 178.47759503126144 380.28840601444244 22.521312460303307 46.714667543768883 18.038343861699104 168.77184320986271 134.98590207099915 21.880447119474411 108.1456343382597 165.32093267142773 78.38532742857933 99.879468142986298 137.03577572107315 272.75907798111439 467.08178018778563 79.052171155810356 56.457652270793915 34.906909793615341 143.60351192951202 23.065229550004005 47.171339690685272 8.0109298676252347 52.014792263507843 14.337096050381659 79.31060916185379 95.92477285861969 9.5018464177846891 11.569107457995413 34.531907007098198 9.1948192864656431 115.19948419928551 138.06199829280376 10.332567840814589 12.819055348634718 80.025050982832909 162.66818445920944 9.2917702347040159 29.327953845262527
leaf_count=378 713 115 3676 1364 509 3241 2058 797 568 1040 111 212 503 763 2098 847 83 86 330 1322 358 452 2666 75 849 1946 110 154 82 879 612 110 350 798 392 506 468 1060 2208 383 216 219 705 139 225 39 188 79 338 418 42 50 197 45 594 730 56 57 460 561 64 121
internal_value=0 0.01943 -0.0370931 -0.0184319 0.0295161 0.0332894 0.025816 0.0589916 0.00793932 0.0123155 0.0502182 0.0373064 -0.0325029 0.0236747 -0.0462378 0.0397959 -0.0249066 0.0568125 0.0463159 0.00220213 0.00734267 0.0263124 0.0522471 0.0882947 -0.0323497 0.0238234 0.0775986 -0.00612392 0.0608482 0.0376721 -0.00205901 0.0917067 -0.00189551 0.00497483 0.0173456 0.0439748 -0.00251517 -0.00355788 -0.0517619 -0.0183645 0.00786625 0.0384038 0.00566808 0.0249371 -0.0253411 0.0708373 0.013366 -0.0195131 0.0324957 0.0302269 0.0583689 0.081862 0.0447639 0.0459406 0.0145458 0.014744 -0.0264032 0.0314224 0.0418386 -0.00861655 -0.0152479 0.028641
internal_weight=0 5754.41 3151.89 1808.87 4818.57 4541.58 3518.51 1023.07 928.388 2265.26 1253.25 908.704 935.839 463.928 880.486 609.396 432.623 207.45 307.79 1655.86 1395.43 449.181 685.636 559.139 276.994 555.524 160.214 720.938 241.91 358.221 362.622 543.189 674.223 566.078 376.087 160.666 215.421 839.904 573.217 106.135 70.2274 63.0855 567.145 208.184 260.436 42.9178 171.005 189.991 459.599 118.99 189.449 137.222 46.101 27.0829 227.637 423.542 175.654 110.882 98.0634 223.068 201.288 38.6197
internal_count=40815 29038 11777 8101 24578 23220 17305 5915 4298 10767 6538 4480 4460 2489 3803 3370 1705 1117 1726 7397 6459 2413 3623 3426 1358 2642 957 3181 1396 1961 1709 3351 3027 2677 1744 884 860 3817 2751 543 302 341 2757 957 938 258 745 933 2284 557 1082 815 247 160 1097 2052 854 599 542 857 746 185
is_linear=0
shrinkage=0.05


Tree=6
num_leaves=63
num_cat=0
split_feature=13 45 47 10 3 17 11 16 8 45 15 3 8 13 11 3 8 1 5 13 47 45 19 8 54 11 19 3 18 48 45 3 16 15 3 16 17 19 55 56 16 13 12 7 53 16 5 54 0 55 12 8 12 50 17 15 16 55 52 45 3 4
split_gain=2377.89 1137.5 582.38 470.113 419.122 330.127 289.63 437.111 428.67 241.58 230.502 172.767 169.14 155.414 127.021 130.104 119.643 114.707 94.0139 82.9292 78.2298 72.9109 90.2761 82.9164 92.8113 72.8869 72.0682 68.0962 67.5848 61.4761 102.744 61.1008 60.9039 57.4883 56.6419 55.3171 53.3003 47.5154 46.9127 46.2198 46.2061 45.9761 50.5676 44.3969 53.6271 48.6757 43.0621 42.4077 41.1685 40.2296 63.93 39.3547 39.3331 38.2673 65.1633 38.0302 67.9912 37.1439 44.3322 48.9899 36.7356 35.2403
threshold=0.051500000000000011 0.076089977625118113 4.5000000000000009 225.06501305000003 22.494424291953241 0.33050000000000007 11.550000000000002 263.41000000000003 12.121050000000002 0.032576832318721528 0.78525450000000008 26.970618195720569 13.560750000000002 0.21405570000000004 62.250000000000007 13.883488594144131 6.7013000000000007 10.518138665122725 4.7209690229087702 0.12358070000000002 2.5000000000000004 0.043476988552036702 45.765000000000008 9.4418750000000014 1.2326812239834273 17.250000000000004 1.1950000000000001 7.9948241102623845 0.018446900000000006 1.7500000000000002 2.8618556617232836e-08 10.625150973948747 41.600200000000008 2.7454263000000005 1.1404319667260745 1222.8000000000002 0.080500000000000016 367.74000000000007 12.492581048092338 0.34005659003827232 259.7530000000001 0.30586180000000007 0.00020090000000000003 13.649000000000003 0.16249738320618326 292.53000000000003 2.6610000000000005 1.4466572846271778e-14 3.317611383754723 6.3340675477239365 0.00043950000000000006 10.984450000000002 0.00071490000000000019 1.2500000000000002 0.20002350000000005 0.20002900000000004 1.0000000180025095e-35 1661.9061072259749 272.05933406152423 0.0050238435337559258 0.88013574653846094 6668.355168574587
decision_type=2 2 2 2 2 2 2 2 2 2 2 2 2 2 2 2 2 2 2 2 2 2 2 2 2 2 2 2 2 2 2 2 2 2 2 2 2 2 2 2 2 2 2 2 2 2 2 2 2 2 2 2 2 2 2 2 2 2 2 2 2 2
left_child=2 4 3 10 5 6 8 27 13 17 26 14 18 61 33 40 -3 31 19 -10 46 22 23 49 57 -6 29 -8 -14 30 32 37 -1 -5 -32 43 -24 41 -30 55 -16 -9 -43 -7 45 -45 -12 -48 -22 50 -15 -23 -26 54 -34 -21 -57 58 59 -25 -55 -2
right_child=1 16 -4 11 25 35 7 9 12 -11 20 -13 28 21 15 -17 -18 -19 -20 39 48 51 36 24 52 -27 -28 -29 38 -31 34 -33 53 -35 -36 -37 -38 -39 -40 -41 -42 42 -44 44 -46 -47 47 -49 -50 -51 -52 -53 -54 60 -56 56 -58 -59 -60 -61 -62 -63
leaf_value=0.062528662267197291 -0.030357927688351889 -0.057820248457039924 -0.061177864972772833 -0.04361394958633702 -0.0022461475735164492 -0.011237052317811932 0.090428792046390982 0.085815619488346789 -0.00095031232773930957 -0.027532810019027378 0.095808281087358352 -0.065532199250681766 -0.036267131641108015 0.053834103739033995 0.10674502077950465 -0.034177139488841594 -0.010205274478876768 -0.017942054992599928 -0.0058192854932016275 0.080951415697715745 0.087138971488847763 -0.02407610405735151 -0.028816441684176092 0.076863398505817082 0.078249843424662596 -0.054173012702318557 -0.065808290202208339 0.022602514393088757 0.073455613606284081 -0.02201726271549298 -0.02849045534046879 -0.014394396907501503 0.0045333820870053871 0.04903242387138454 0.085443126327330435 0.099011186714831778 0.0664959302464595 0.005940526389030712 -0.015380452528967723 0.0082511833456166868 0.024569771623307653 0.00035215971764296453 0.067094120997227349 0.082297893336378561 0.083760463153050996 -0.0033294719223037118 -0.047862172139575589 0.062707777208663301 -0.010316662400937829 -0.023862547347758768 -0.0025643835677578992 0.022157624817487363 -0.0029590887627517397 0.061038103662715365 0.085964969438938277 -0.045494359103590315 0.062528370758657734 -0.025578403654835758 -0.021054500809455225 0.022565523420953762 -0.051794593683283534 0.026090750239225385
leaf_weight=90.265625089406967 231.09917813539505 455.32367772608995 1297.4628451988101 293.94808650016785 114.5436677634716 501.90374943614006 567.79723993688822 165.52594210207462 49.271637961268425 157.51815342903137 90.586533680558205 440.71704038232565 68.722403824329376 64.483804687857628 35.963264480233192 57.793132841587067 185.74899579584599 61.743868112564087 53.763922050595284 339.306406930089 13.608756825327871 143.49012076854706 16.280030518770218 45.523352041840553 107.00400152802467 164.81464013457298 46.739631712436676 39.585498660802841 35.296307906508446 237.67552529275417 158.2607611566782 28.533779799938202 94.809767410159111 17.755529657006264 11.716327860951422 13.425999432802199 148.1326395124197 34.093395322561264 25.668614491820335 33.672628179192543 32.624685168266296 41.249363511800766 90.965822458267212 18.758485212922096 26.084125682711601 144.03092327713966 11.169258266687391 38.783111244440079 53.196847528219223 126.55474683642387 227.58722388744354 67.764666229486465 17.324548780918121 9.0962625443935377 33.159687772393227 15.008596524596213 494.79249742627144 42.417794391512871 52.115032166242599 474.92042118310928 34.855056345462799 31.405909955501556
leaf_count=497 798 2216 3656 968 583 2245 3515 1010 200 772 560 2132 227 350 230 290 864 300 215 2028 82 652 75 265 624 798 157 211 201 891 773 142 449 98 70 84 866 174 96 169 178 205 531 115 159 731 48 214 208 468 1125 323 86 50 195 44 2721 150 184 2277 98 153
internal_value=0 0.0187378 -0.0356334 -0.0172485 0.0266547 0.0301177 0.0355513 0.056368 0.0270647 0.0253085 0.00765347 -0.043429 0.0514089 0.0119453 -0.0211931 0.0210892 -0.0440239 0.0450271 0.0584706 0.0621791 0.054081 0.0180303 0.0223878 0.0174651 0.0275332 -0.0328817 -0.00578049 0.0860083 -0.00227044 -0.00159191 0.00964136 0.055816 0.0292711 -0.0383365 -0.0206371 -0.00150743 0.0570582 0.0618532 0.0360522 0.0657026 0.0676574 0.0682556 0.0462715 -0.00346112 0.0172023 0.00653751 0.0752557 0.0379845 0.00953571 -0.000315584 0.00988734 -0.00924561 0.0669338 0.0118095 0.0256341 0.0679809 0.0593482 0.0195677 0.0229123 0.027315 -0.0284425 -0.0236045
internal_weight=0 5723.25 3100.19 1802.72 5082.18 4802.82 4098.62 1187.01 2911.61 579.63 923.923 878.802 1115.5 1796.1 438.085 126.381 641.073 422.112 985.816 932.052 207.345 1533.6 1322.34 1157.93 739.305 279.358 716.579 607.383 129.687 669.839 432.163 360.368 262.186 311.704 169.977 704.203 164.413 331.835 60.9649 882.78 68.5879 297.741 132.215 690.777 188.874 162.789 140.539 49.9524 66.8056 418.626 292.071 211.255 124.329 171.921 127.969 849.108 509.801 614.977 572.559 520.444 43.9513 262.505
internal_count=40796 28952 11844 8188 25872 24491 21157 6860 14297 3134 4292 3896 5901 8396 1764 698 3080 2362 5377 5162 1112 7445 6470 5529 3586 1381 3180 3726 524 3023 2132 2062 1289 1066 843 3334 941 1920 297 4962 408 1746 736 3250 1005 846 822 262 290 1943 1475 975 710 792 644 4793 2765 2876 2726 2542 148 951
is_linear=0
shrinkage=0.05


Tree=7
num_leaves=63
num_cat=0
split_feature=13 45 47 56 3 16 11 8 15 8 8 3 45 12 7 11 16 8 16 16 13 3 54 16 47 6 15 26 17 55 8 47 45 50 57 16 16 0 54 13 45 4 15 12 56 16 13 0 12 11 6 10 12 13 10 0 7 8 57 0 52 7
split_gain=2250.21 1027.1 562.285 436.921 374.069 267.364 569.178 359.901 243.079 227.437 181.1 179.372 160.076 134.727 165.023 130.436 139.917 119.335 118.341 107.678 96.9005 93.9709 89.8031 84.6113 73.3846 67.9966 67.0965 65.7543 71.9402 65.3883 60.7906 60.7343 60.815 71.3535 59.5252 51.2364 51.2942 47.9693 47.7071 47.5161 46.2478 45.4144 43.1398 42.1786 41.4355 45.2273 42.9536 41.0651 40.9901 40.0601 39.4865 37.9221 37.5034 36.7543 35.9935 35.3189 35.2829 35.0388 36.7589 34.7953 34.2196 32.1025
threshold=0.054425500000000009 0.076089977625118113 4.5000000000000009 0.036538695297784571 23.296507025121382 260.82400000000007 8.0500000000000025 12.121050000000002 0.78525450000000008 13.643050000000002 11.713550000000001 26.970618195720569 0.034510737291149236 0.013313 13.649000000000003 49.95000000000001 256.64500000000004 6.7013000000000007 247.10000000000002 96.190000000000012 0.76818460000000011 12.810947343229985 1.1865574308923488 213.10000000000002 2.5000000000000004 0.39534636823613417 0.20002900000000004 1.0000000180025095e-35 0.14402650000000003 7.1496346714571741 10.370950000000002 3.5000000000000004 4.3359551694511567e-08 1.2500000000000002 0.60683956831562058 41.600200000000008 271.04400000000004 422.586591996967 6.3677204283958435e-12 1.6446749000000003 0.0057113561821168371 4691.8134655412623 3.6327860000000007 0.00043950000000000006 0.14529429455649664 639.10000000000014 0.19691530000000004 0.44527382929892367 0.0012631000000000003 41.250000000000007 0.3759958840701389 1827.8222875500003 8.5340000000000006e-05 0.30981830000000005 1552.1987440000003 2.5492753433758328 13.097000000000003 10.808050000000001 0.76438094543051038 3.317611383754723 303.92146635429179 15.252500000000003
decision_type=2 2 2 2 2 2 2 2 2 2 2 2 2 2 2 2 2 2 2 2 2 2 2 2 2 2 2 2 2 2 2 2 2 2 2 2 2 2 2 2 2 2 2 2 2 2 2 2 2 2 2 2 2 2 2 2 2 2 2 2 2 2
left_child=2 4 3 8 5 6 7 18 31 23 12 15 13 14 37 42 -17 -3 27 -8 34 39 25 26 -10 -12 -9 28 -2 -20 -6 32 33 35 49 50 -37 41 -35 51 -30 -7 -5 -29 -27 46 54 -34 -38 -16 -1 -21 -43 -36 -46 -25 -41 58 -14 -26 -42 -55
right_child=1 17 -4 11 30 10 19 9 24 -11 22 -13 57 -15 20 16 -18 -19 29 21 -22 -23 -24 55 59 44 -28 43 40 -31 -32 -33 47 38 53 36 48 -39 -40 56 60 52 -44 -45 45 -47 -48 -49 -50 -51 -52 -53 -54 61 -56 -57 -58 -59 -60 -61 -62 -63
leaf_value=-0.0026441267608677565 -0.043446249426721296 -0.056581143706243113 -0.059956955162058317 -0.042350159085939039 -0.042150484457327969 -0.029957836399668366 -0.05234292712342397 0.060701741138336367 0.076593367748368682 -0.042174017023518966 -0.032966455658509246 -0.064465186961490353 -0.037855302428819071 -0.014916382005776644 0.043666968628682128 0.083831803049069065 -0.017585914144228713 -0.008241125296418926 0.067504889787128125 0.088688127245666298 0.0081890654262290943 -0.010940548225239767 0.07457087248840337 0.046699088137361171 0.085373472257309957 0.078836531980589972 -0.0064419893843009751 0.054543636466315208 0.049845641610506072 0.014642279058924816 0.032056736469870381 -0.039632385245885228 0.09019707123571305 -0.029356684524362082 0.077554337605373655 -0.012462676457537762 0.018447765044346646 0.096226255735606933 0.04150217387538449 -0.06143271873317091 -0.0035092236939041725 -0.0043336242038502443 0.042928697219124019 -0.022437544648870374 -0.026946124290190384 0.10102406197402214 0.035854640504870548 -0.026463539191508869 0.099271700885691594 -0.024725115022320304 0.079014699618999318 0.010884426710694712 0.022745142947448851 0.02934392268091425 0.063171953664679523 0.077237246954072469 0.062167075115798089 0.020658855374653937 -0.0059945980821118801 -0.004547111130919628 -0.055016658988426538 0.069164383487467562
leaf_weight=19.312954351305962 162.34281612932682 434.40555133670568 1267.4527546316385 294.83501327037811 223.43001560866833 84.322132021188736 15.539985045790671 73.266254678368568 136.83457066118717 59.816218674182892 38.532585933804512 436.73081953823566 188.2781373038888 256.92294749617577 54.356996655464172 53.252401880919933 94.106420248746872 180.8129740729928 82.366249710321426 648.19093696773052 155.63628526031971 26.92563807964325 159.4647785872221 126.65195222198963 13.385709360241888 50.656290099024773 75.599821507930756 59.644371926784515 36.742794141173363 201.8717615455389 31.487843722105026 114.35101392120123 7.8417574167251578 122.82188007235527 191.91084849834442 94.689019352197647 51.432762414216995 14.454421967267988 29.449412167072296 9.1916355639696139 282.06141313910484 247.73475855588913 15.615223973989485 25.35877189040184 56.222998306155205 20.913126677274704 216.88437885046005 198.22956278920174 22.571141421794891 35.326070815324783 63.411272436380386 16.049230650067329 264.25971080362797 113.49557909369469 13.799542069435118 375.07050184905529 15.528238385915754 53.931540265679359 174.37451892346144 54.809018328785896 36.408180296421051 91.351981520652771
leaf_count=88 531 2175 3684 991 1116 293 67 415 810 193 134 2183 871 1269 304 328 484 854 465 4023 792 133 933 685 80 297 298 344 192 895 168 371 48 415 1158 410 253 91 153 38 1178 1059 85 119 199 132 1100 974 138 169 369 84 1340 607 74 2189 91 261 880 221 101 536
internal_value=0 0.0186325 -0.0343771 -0.0165992 0.0260406 0.0291679 0.0413383 0.0246101 0.00741435 0.0511281 0.0177533 -0.0415416 0.0104954 0.0180666 0.0248304 -0.0196734 0.0190643 -0.042374 0.00336676 0.0778674 0.042529 0.0806939 0.042878 0.0597064 0.0554759 0.0301481 0.0266036 -0.00917813 -0.0158719 0.0299608 -0.0329843 -0.0061941 7.67391e-05 0.0113586 0.053516 0.027718 0.0119117 0.00622463 -0.0156525 0.0842751 -0.00326961 0.00404303 -0.0380607 0.031578 0.0369323 0.0300364 0.0248619 -0.0220242 0.043099 0.0167274 0.0599505 0.0868083 0.00964275 0.0618317 -0.0091863 0.0695284 0.0162087 -0.0169437 -0.0225357 0.0131031 -0.00939767 0.0471019
internal_weight=0 5681.59 3091.13 1823.68 5066.37 4811.46 2328.63 1597.2 929.14 710.405 2482.83 894.54 1926.36 1509.77 1252.85 457.809 147.359 615.219 886.796 731.426 642.078 715.886 556.474 650.589 205.029 397.009 148.866 602.558 517.555 284.238 254.918 724.111 609.76 403.688 486.441 251.417 168.693 610.771 152.271 688.96 355.212 596.317 310.45 85.0031 358.476 307.82 286.907 206.071 74.0039 89.6831 82.7242 664.24 511.994 396.758 70.0225 501.722 24.7199 416.584 362.653 68.1947 318.47 204.848
internal_count=40938 28853 12085 8401 25824 24540 12041 7605 4330 3780 12499 4071 9630 7618 6349 1888 812 3029 3825 4436 3566 4369 2869 3587 1111 1936 713 2465 2002 1360 1284 3219 2848 1826 2774 1258 801 2783 568 4236 1471 2692 1076 463 1802 1505 1373 1022 391 473 457 4107 2399 2301 273 2874 129 2012 1751 301 1279 1143
is_linear=0
shrinkage=0.05


Tree=8
num_leaves=63
num_cat=0
split_feature=13 45 47 56 3 17 19 16 45 15 15 16 3 11 16 54 7 51 48 45 18 16 5 11 12 0 55 43 15 43 58 7 16 5 57 43 16 16 7 12 13 16 12 57 6 16 9 15 13 56 15 42 12 12 46 17 3 1 2 46 15 16
split_gain=2051.36 902.65 518.694 367.885 318.401 263.297 246.734 368.669 275.897 233.242 230.471 179.603 162.554 133.245 125.274 115.006 113.347 104.897 102.553 127.183 99.606 93.3298 71.3211 63.94 57.2963 55.4514 60.7166 64.934 69.0119 52.5761 50.8411 49.2733 46.97 46.9231 45.6803 44.5695 43.0063 42.1096 44.9804 41.7897 41.2398 41.1134 40.8233 40.3899 38.4545 42.3282 37.2782 37.2388 35.1359 45.3869 33.0672 32.7315 32.1419 32.0957 51.1653 31.8235 30.8822 33.5708 30.5109 29.8389 29.4656 36.5597
threshold=0.054425500000000009 0.076089977625118113 5.5000000000000009 0.036538695297784571 22.494424291953241 0.33050000000000007 2.3650000000000007 262.61500000000007 0.032576832318721528 1.0000000180025095e-35 1.2935033000000002 139.20000000000002 26.970618195720569 49.95000000000001 256.64500000000004 1.1917111774063345 1.0000000180025095e-35 1100.4591495625002 1.7500000000000002 5.3540647177341349e-08 0.94150000000000011 41.600200000000008 3.4720455915993083 14.250000000000002 0.027010000000000003 524.85080273030314 157.06097836797849 1.1381528545090347 0.63020700000000007 2.4537599886930628 7.5957991201389978 10.890000000000002 239.626 4.8462589939152236 0.55293125105195529 1.4029869701532098 202.29500000000004 843.10000000000014 14.282500000000001 0.00013722000000000004 2.1995694000000006 356.10000000000008 2.0030000000000006e-06 0.77335838609088514 0.66664470683063759 179.40000000000001 4439.8200000000006 0.85978700000000019 0.30586180000000007 0.22925812175769475 1.5342991000000004 1.4776765165331012 5.8240000000000005e-05 0.00062020000000000011 1426.5636345084265 0.33950000000000008 14.349450000000003 5.2185868664951984 16430.088688756918 158.40533689734767 0.55001800000000012 244.00500000000002
decision_type=2 2 2 2 2 2 2 2 2 2 2 2 2 2 2 2 2 2 2 2 2 2 2 2 2 2 2 2 2 2 2 2 2 2 2 2 2 2 2 2 2 2 2 2 2 2 2 2 2 2 2 2 2 2 2 2 2 2 2 2 2 2
left_child=2 4 3 10 5 6 9 20 29 17 18 22 13 36 58 25 52 -2 19 21 -8 -1 -11 -6 35 26 27 28 -13 34 47 53 -23 43 -9 39 -5 38 40 -17 44 -40 -20 -30 -7 -46 60 -28 49 -36 -32 -29 -3 -19 -55 -12 57 -16 -15 -50 61 -37
right_child=1 16 -4 12 23 37 7 8 -10 11 55 15 -14 14 56 24 -18 31 42 -21 -22 32 -24 -25 -26 -27 30 51 33 -31 50 -33 -34 -35 48 46 -38 -39 41 -41 -42 -43 -44 -45 45 -47 -48 -49 59 -51 -52 -53 -54 54 -56 -57 -58 -59 -60 -61 -62 -63
leaf_value=0.06279440249111283 -0.023690488041581911 0.006819526339936384 -0.061269217880710582 -0.056661677877867425 0.0020463381618960699 -0.034945496906414734 0.083052123393880337 0.0023765429282668147 -0.025182794013794221 0.059563279986433404 0.06347478317530264 -0.018361979294941013 -0.063655275138844003 0.09515612345902949 0.045803355642738144 0.044920432285472787 -0.054918605276156107 0.0696424362267965 -0.004629887278078385 -0.028649255851250627 -0.0041053548513337252 -0.028284661879491264 -0.043132238061376858 -0.048397201315934418 -0.017237460604640722 0.087782756821594643 0.01281523323940708 -0.023895118831584086 0.0455052717863123 -0.027721438513132159 -0.018072389328120518 -0.054157230434456485 0.022869423228012539 -0.023718787640218217 0.074796185699364776 0.086176883812524682 -0.021331901974102493 0.078290585272081992 0.057712314080426867 -0.0068284688627310505 -0.045629654467036665 -0.0051868127633748935 -0.039862989800346048 -0.022965817779789677 0.066023615146540329 -0.0014699622736728322 -0.038774094034243312 0.051544850809858711 0.048557456704931251 -0.038599965468816624 0.037522461271033029 0.0034946247364780296 -0.037861848611200483 -0.039783574261669584 0.058735584723239948 -0.016443920254490825 -0.044583000632483522 -0.053559323639919526 -0.008060653045657909 0.004251839995829303 0.076949707106728688 0.021307865588165498
leaf_weight=111.69418841600418 39.140862911939621 123.65700750052929 1082.6088577210903 163.53327836841345 102.34890189766884 82.077237769961357 583.37807464599609 50.185224965214729 195.29758428037167 18.973011404275894 151.61414736509323 79.048168629407883 422.88926041871309 45.927120596170425 27.453629478812218 117.72381886839867 415.70387050509453 376.65884208679199 125.61437708884478 160.11283611506224 34.732197143137455 67.264869511127472 155.2257312387228 162.65841842442751 37.252842202782631 25.374105527997017 87.1831384152174 132.40835192799568 269.13794904947281 24.220301359891891 75.667056560516357 9.0051097124814969 134.81198288500309 32.03030863404274 179.0961604565382 32.089418098330498 182.00194673240185 16.339006185531616 53.770354896783829 58.349221400916576 65.878327712416649 50.266481518745422 237.95383294671774 23.411130577325821 24.648254364728928 403.64824128895998 9.1976535320281965 215.4266694188118 226.1257429420948 9.2814697921276075 41.369943380355835 619.00437049567699 59.672115109860897 18.086960524320602 48.564343705773354 13.571377843618391 47.862328000366688 12.313416972756384 8.4819675683975202 45.678392335772514 159.7954615354538 67.21902047097683
leaf_count=625 183 586 3190 485 526 294 3616 255 977 108 861 300 2186 290 156 615 2150 2214 554 797 174 257 496 830 184 158 399 518 1427 114 278 39 666 115 1078 199 721 97 314 259 296 254 768 87 146 1905 42 1167 1265 42 202 2738 281 79 281 58 241 57 43 229 929 318
internal_value=0 0.0175606 -0.033612 -0.017961 0.0244353 0.0273857 0.0322196 0.0497403 0.0256773 0.0236229 0.00293281 0.0168231 -0.04097 -0.0212943 0.0194736 0.0209042 -0.0404751 0.0548358 -0.00771383 0.00761192 0.0781547 0.0261155 -0.0319471 -0.0289153 0.042325 0.0144565 0.0132749 0.00735698 0.0235324 0.0442577 0.0295635 0.061631 0.00584188 0.0337354 0.0476736 0.0473182 -0.0380526 -0.00103145 -0.00293659 0.0277713 -0.00839948 0.0273219 -0.0276898 0.0400259 -0.00359386 0.00241426 0.0601459 0.0403867 0.0526135 0.0692091 0.00157914 -0.00133179 -0.00772389 0.063983 0.0320007 0.0569088 -0.017527 0.0150368 0.0790654 0.0411116 0.0636574 0.0422689
internal_weight=0 5656.01 2995.71 1913.1 5056.97 4791.97 4095.34 1348 729.885 2747.34 1002.64 2255.89 910.463 487.574 142.038 2081.69 599.033 491.456 837.452 473.884 618.11 313.771 174.199 265.007 481.627 1600.06 1574.69 1155.04 403.628 534.587 419.647 452.315 202.077 324.579 510.367 444.375 345.535 696.628 680.289 176.073 576.252 104.037 363.568 292.549 510.374 428.296 268.302 302.61 460.182 188.378 117.037 751.413 183.329 443.31 66.6513 165.186 87.6294 39.767 54.4091 271.804 259.104 99.3084
internal_count=40719 28764 11955 8765 25747 24391 21085 7750 3960 13335 4586 10539 4179 1993 787 9935 3017 2796 3667 2345 3790 1548 604 1356 2546 7389 7231 5185 1929 2983 2046 2613 923 1629 2869 2362 1206 3306 3209 874 2641 568 1322 1514 2345 2051 1488 1566 2614 1120 480 3256 867 2574 360 919 454 213 333 1494 1446 517
is_linear=0
shrinkage=0.05


Tree=9
num_leaves=63
num_cat=0
split_feature=13 45 47 56 57 11 16 15 15 11 16 3 45 17 13 3 11 13 14 16 51 48 45 18 44 16 52 51 57 18 12 45 5 18 10 19 14 14 46 19 17 17 43 51 13 16 3 43 15 15 45 13 43 55 45 15 3 12 16 17 10 16
split_gain=1823.68 849.056 516.997 417.486 325.472 238.889 348.697 278.967 188.543 165.533 159.022 144 131.056 105.632 117.66 103.41 89.2634 85.9877 83.3908 82.7159 79.2178 74.9353 104.941 72.1656 80.6864 71.1654 64.3224 63.2509 63.1596 62.5458 59.1657 55.7942 54.8668 49.7238 45.8112 45.6716 45.1457 62.4907 43.6236 43.2346 53.4085 46.6071 43.9885 43.7184 42.8596 42.7922 42.135 39.9134 38.2081 37.6804 42.2215 37.4326 38.285 36.6106 34.2743 34.205 32.7997 32.5691 32.4767 32.4686 31.6804 31.23
threshold=0.048100000000000011 0.062083028873590539 4.5000000000000009 0.039837448370564202 0.19468444956372802 11.550000000000002 275.84100000000007 0.081000000000000016 1.3040857000000001 1.0000000180025095e-35 145.40000000000003 26.970618195720569 0.028247680905067452 0.30950000000000011 0.15770350000000002 13.73355424091565 62.250000000000007 1.0587514000000002 3.0037000000000007 289.10000000000008 5130.7546564166669 1.7500000000000002 5.3540647177341349e-08 0.036650000000000009 7.7674754578057517 41.600200000000008 7.201854529601075 3644.1221228000004 0.78635041099804215 0.05214450000000001 7.837000000000001e-05 0.042922068940692733 4.0092482369816533 1.0000000180025095e-35 1961.5000000000002 515.31000000000006 36.648300000000006 429.33454000000006 768.42462633164553 45.765000000000008 0.18387250000000002 0.095500000000000015 1.2177670882297471 883.80000000000007 1.909 251.54800000000003 18.744814376682342 0.96707889418919912 2.8895800000000005 1.4200980000000001 0.016821066791710346 0.25801350000000006 1.6002676931075797 8.2260577434505855 0.040465939118371402 1.5202180000000001 1.1404319667260745 0.00026030000000000004 1456.6000000000001 0.15908810000000004 1906.5000000000002 302.30000000000007
decision_type=2 2 2 2 2 2 2 2 2 2 2 2 2 2 2 2 2 2 2 2 2 2 2 2 2 2 2 2 2 2 2 2 2 2 2 2 2 2 2 2 2 2 2 2 2 2 2 2 2 2 2 2 2 2 2 2 2 2 2 2 2 2
left_child=2 4 3 8 53 7 15 27 21 30 32 16 17 14 55 29 33 20 -16 46 26 22 25 -20 31 -1 35 54 36 -7 -3 39 -9 -5 44 51 -26 38 -38 40 42 -41 57 59 -31 -39 -18 60 -35 -40 -51 -8 -53 -2 -6 -12 -24 -25 -15 -44 -11 -10
right_child=1 9 -4 11 5 6 12 10 61 47 13 -13 -14 58 18 -17 19 -19 23 -21 -22 -23 56 24 28 -27 -28 -29 -30 34 -32 -33 -34 48 -36 -37 37 45 49 41 -42 -43 43 -45 -46 -47 -48 -49 -50 50 -52 52 -54 -55 -56 -57 -58 -59 -60 -61 -62 -63
leaf_value=0.057633052606836002 -0.010149679713740154 0.011723291233840201 -0.057872798609758594 0.055734026637949796 0.041664363932668952 -0.062811039356874918 0.070211057063009966 0.028938988176868852 0.067914658345058734 0.038853299141886621 -0.029817322735095898 -0.06271163415557586 -0.016893835381031064 -0.006265422011255805 -0.017453450549878069 -0.017739061415756624 0.081190668857523351 -0.010172260169446513 -0.0011201604718726441 -0.02119654026533736 -0.022694239358094781 -0.022669108188589093 -0.029509858635603223 0.066883156571665034 0.055593093772132063 0.0086061913207332412 0.090560630306374276 0.064010829824316454 0.074120154207503952 0.0809454847600624 -0.034226219824304488 -0.014351688653645748 -0.038900945234050646 -0.04475065895248434 -0.040995546347437947 -0.018468835813471411 0.080173893296501805 0.0091654366997274937 -0.045347108889536983 -0.013716733440246948 -0.00095834105660267581 0.061832800675906456 0.01820627339245396 0.001753883484410329 -0.01333236986670437 0.057309717558647194 -0.041355910004109937 -0.054068413644186741 0.035206665705649696 0.072466842892552813 -0.010526847052279686 0.00081806185119661463 0.052169968417265435 -0.054898674269515862 -0.017809249827235724 0.010362160638891395 0.058675605697600934 0.012093877620310958 0.076075801418311786 0.060374169900993382 -0.036330399377313638 0.0050454454799914519
leaf_weight=116.43594047427177 71.781131826341152 221.46091362833977 1184.0117418915033 14.215207621455191 67.288164675235748 8.056913882493971 99.54879242181778 35.763307690620422 131.70486146211624 20.853711813688278 126.67734088003635 395.01924714446068 179.63126730173826 464.82118158042431 105.68291649222374 31.186150752007961 45.130559846758842 93.431185305118561 188.20953363180161 67.230842642486095 41.019863411784172 278.5610491707921 147.84411361813545 106.75306738913059 204.56231455504894 203.18110334873199 78.782105401158333 384.93364022672176 142.24042865633965 587.50234444439411 102.4724668264389 94.876106187701225 178.87222667038441 260.11698899418116 8.0593265295028669 30.383878007531166 15.170441597700117 66.002227395772934 46.394902855157852 24.205426797270775 201.27056497335434 130.32895416021347 102.85735869407654 169.25816260278225 12.30758425593376 153.48489609360695 8.3050103038549405 437.02285558730364 15.851495653390883 20.849248707294464 57.829800367355347 62.557294189929962 86.459544599056244 125.82734954357147 37.852204263210297 91.033768475055695 11.354035422205923 36.363318130373955 12.291722148656843 82.077189847826958 42.703934848308563 23.238437592983246
leaf_count=646 362 1060 3669 78 375 33 596 185 762 126 429 2117 907 2132 406 164 278 467 757 350 207 1045 751 605 1123 935 494 2248 831 3672 468 444 602 883 36 147 90 298 146 118 921 758 515 744 59 854 40 2307 83 124 237 310 490 633 178 403 62 180 71 448 223 112
internal_value=0 0.0162559 -0.0324509 -0.0149326 0.0242084 0.0268697 0.044893 0.0197694 0.00823147 -0.0306621 0.0137926 -0.0411564 0.0196611 0.0171536 0.0218446 0.071088 -0.0204318 0.0330025 0.0257399 0.0157099 0.0431188 -0.00204946 0.00994647 0.0282171 0.0315543 0.0264666 0.0506653 0.054623 0.0443443 0.0755855 -0.00281229 0.022022 -0.0275972 -0.0354605 0.0774199 0.0393979 0.0368388 0.026174 0.00010348 0.0260672 0.0207732 0.0499991 0.0295683 0.0201157 0.079011 0.0428322 0.0621444 -0.0486842 -0.0401579 -0.0096084 0.0114657 0.0464714 0.0306124 -0.0386436 0.0202529 -0.0130167 -0.0232205 0.0529622 -0.00414409 0.0369211 -0.0116621 0.0584855
internal_weight=0 5689 2902.2 1718.19 4864.49 4666.88 1318.93 3347.95 912.32 824.514 2857.88 805.869 671.814 2643.24 2166.13 647.112 410.85 492.183 1948.42 120.666 398.751 757.376 478.815 1842.73 1654.52 319.617 357.732 490.074 706.534 615.926 323.933 947.99 214.636 290.184 607.869 278.95 564.294 359.732 140.244 853.114 698.58 154.534 497.309 354.193 599.81 219.487 53.4356 500.581 275.968 125.074 78.679 248.566 149.017 197.608 105.14 217.711 159.198 143.116 477.113 184.935 63.5576 154.943
internal_count=40794 28983 11811 8142 24799 23804 7582 16222 4313 4184 13421 3829 3618 12634 10431 3964 1712 2711 9599 668 2244 3439 2394 9193 8436 1581 2037 2801 3703 3800 1528 4733 787 1044 3767 1543 2872 1749 597 4289 3413 876 2492 1707 3731 1152 318 2656 966 507 361 1396 800 995 553 832 813 785 2203 963 349 874
is_linear=0
shrinkage=0.05


Tree=10
num_leaves=63
num_cat=0
split_feature=47 3 45 14 11 54 14 16 49 54 11 8 55 19 12 45 17 20 8 6 8 8 15 15 12 54 45 17 45 8 12 4 8 19 16 17 46 8 45 16 18 53 8 18 7 45 16 11 45 10 0 16 8 55 57 17 54 6 5 8 18 19
split_gain=1587.61 950.644 553.14 389.624 269.742 238.083 189.501 293.467 181.948 141.268 116.019 142.775 102.573 97.0142 93.1672 91.4054 85.1071 82.0919 78.6534 73.3498 83.8317 69.9024 63.5279 57.0429 55.0406 58.2077 54.0746 66.443 53.9543 73.846 53.8478 52.6304 48.1038 47.1371 52.1838 45.6626 45.6233 45.4506 44.5004 48.5752 43.6256 47.3551 43.9435 42.7433 42.0166 75.4587 41.6273 40.6583 39.592 38.1117 37.6211 37.4 36.5737 50.996 35.0362 32.6267 31.8285 34.8292 31.578 31.4395 31.1823 31.2498
threshold=5.5000000000000009 23.296507025121382 0.082592479928765325 2.7557400000000007 14.250000000000002 1.1851890210637008 61.004300000000008 260.01600000000002 1.7500000000000002 1.5753548008027559e-12 8.3500000000000032 11.435350000000001 17.903134757045439 1221.6550000000002 0.0053100000000000014 0.014982640666037187 0.39950000000000008 5.8000000000000007 6.7013000000000007 0.4591919535876785 11.920050000000002 13.478900000000001 2.6050008000000004 4.9449400000000008 0.011814600000000001 0.45961636093234109 0.012074667075810319 0.22224400000000002 0.034510737291149236 11.691800000000002 2.0030000000000006e-06 3311.8423406424031 12.538150000000002 203.37500000000003 265.69000000000005 0.040488900000000008 9266.3136258178838 12.480750000000002 5.3540647177341349e-08 41.600200000000008 0.10004020000000001 0.15204798033072234 12.104100000000001 0.49431600000000003 13.873500000000002 0.031367304199588851 435.50000000000006 18.050000000000004 0.047207993009725883 1978.5000000000002 21.294735516856257 1.0000000180025095e-35 11.529150000000001 11.071279885273556 0.73029474099899283 0.15202110000000005 1.0100413930256609 0.76273099627875041 4.4334368450725474 13.282250000000001 0.057009500000000012 1964.7800000000002
decision_type=2 2 2 2 2 2 2 2 2 2 2 2 2 2 2 2 2 2 2 2 2 2 2 2 2 2 2 2 2 2 2 2 2 2 2 2 2 2 2 2 2 2 2 2 2 2 2 2 2 2 2 2 2 2 2 2 2 2 2 2 2 2
left_child=1 2 3 8 31 6 7 10 9 17 11 -5 19 24 16 -14 22 -1 -4 -8 26 48 28 30 25 -9 27 35 47 33 -10 -3 46 -30 -35 -21 -23 38 39 -11 -27 42 44 -18 -42 -46 -17 52 -22 -13 -41 -32 53 -7 -37 -24 -34 -58 -31 -59 -12 -62
right_child=-2 4 18 5 -6 14 12 13 23 37 60 49 15 -15 -16 32 43 -19 -20 20 21 36 55 -25 -26 40 -28 -29 29 58 51 -33 56 34 -36 54 -38 -39 -40 50 41 -43 -44 -45 45 -47 -48 -49 -50 -51 -52 -53 -54 -55 -56 -57 57 59 -60 -61 61 -63
leaf_value=0.060352751920817474 -0.058900539253263377 0.064508522617186204 -0.05239217339437853 -0.0051214850671910048 -0.057653287818759003 0.051305015071123276 -0.021970689771655384 -0.052471985914200804 -0.0043296182906176353 0.043785030984455242 -0.011006337394300621 0.062582069908986265 0.023356247493545257 -0.028923933477205691 0.0059063406445676392 -0.041531132493373965 -0.023285290365687245 -0.023202569440134775 -0.008038193862421104 -0.019130195279218123 0.057586215357187491 -0.036850700360394111 -0.039097380854808746 0.069666563176577503 -0.030258084000620862 -0.011092937090360617 -0.005520531387203511 0.00050338507542589445 -0.010800928083055144 0.064321297511491765 -0.018275833632673023 -0.0019891888768144815 0.068459300196560324 0.091957314080274216 0.0073077109033195704 0.06278859030163457 0.047014132554546235 0.089834779636128237 -0.018203476848559965 -0.010434205006397895 0.0018758533175749388 0.065782456561544175 0.063294187300184268 0.05182629246338033 0.05118192329459114 -0.017127984875511846 0.037374148640166853 0.076241752084969 0.0068443092059017044 -0.016572877386109991 0.08104166121948482 -0.051909409305173529 0.068377377188692953 0.0044217105856366856 0.022565307918869348 0.029524426196377646 -0.061443082339072308 -0.011146035033243285 -0.0052521790385250573 0.081507863799310465 0.080252006988194818 0.0047354332122709914
leaf_weight=163.56122723221779 1014.1748848855495 38.406859502196312 320.63205028325319 144.48509012162685 651.36530070006847 297.06584820151329 133.67195172607899 25.789269708096981 133.26316893100739 74.927222073078156 10.388743221759794 231.99256081879139 123.59852786362171 136.12224458903074 168.49029597640038 259.0303930491209 64.500987559556961 35.837160885334015 145.22329028695822 31.166290298104286 230.57045917212963 45.070910692214966 27.68292248249054 14.265112608671187 56.481890499591827 77.124735966324806 376.3122535571456 233.31840907037258 98.145691514015198 166.14292525500059 121.02375350147486 132.09097335487604 16.863885745406151 30.703627742826939 44.730638474225998 126.09100229293108 25.331276312470436 12.761647596955298 312.33337953686714 165.50441499054432 212.2445180490613 75.736672550439835 60.0024543851614 26.814706981182098 155.45897334069014 54.636447608470917 17.868016064167023 235.71065314114094 46.134725272655487 16.273702725768089 12.058745786547659 260.70572356879711 207.74813817441463 72.073865488171577 94.87176325917244 46.279226839542389 21.065520837903023 30.217590928077698 18.084637984633446 13.13559417426586 315.44329962879419 14.321395225822924
leaf_count=903 3207 230 1730 629 3562 1666 506 122 597 397 51 1324 619 681 861 905 244 130 683 129 1269 148 113 81 266 313 1632 1151 476 967 452 676 99 197 242 729 130 78 1444 717 1026 442 345 154 887 284 92 1476 219 74 71 803 1212 312 474 246 61 117 80 81 1993 75
internal_value=0 0.00774866 0.0139856 0.0179207 -0.0429981 0.0243714 0.0170635 0.0297014 -0.00635126 0.00905011 0.0529091 0.0343955 0.00607299 0.00977509 0.0409425 -0.0137183 0.0453622 0.0453357 -0.0385655 0.0131752 0.0170616 0.0378081 0.0487812 -0.0289614 0.0171172 0.0211654 0.00870507 0.0197326 0.0516212 0.035443 -0.0316934 0.0129903 -0.0265118 0.0120419 0.0417622 0.0375271 -0.00667546 -0.00347666 -0.00558494 0.0100243 0.0241551 0.0290263 0.0232549 -0.00122889 0.0175665 0.0334176 -0.0364394 0.0587448 0.0491261 0.0573935 -0.00422186 -0.0412462 0.0515957 0.0421511 0.0455185 0.00384031 0.00730793 -0.00870062 0.0574916 0.0169272 0.0742854 0.0769724
internal_weight=0 7508.95 6687.09 6221.24 821.863 4914.99 3410.82 1586.5 1306.24 776.984 732.905 392.751 1824.32 853.597 1504.17 481.78 1335.68 199.398 465.855 1342.54 1208.87 347.107 1244.37 529.258 717.475 660.993 861.76 485.447 1170.41 357.808 514.993 170.498 358.181 173.58 75.4343 252.129 70.4022 577.585 564.824 252.49 635.204 558.079 482.342 91.3157 422.34 210.095 276.898 812.599 276.705 248.266 177.563 381.729 576.888 369.14 220.963 73.9621 81.2826 64.4187 184.228 43.3532 340.153 329.765
internal_count=40880 37673 33205 30792 4468 25119 16873 8512 5673 3740 4146 2027 8361 4366 8246 1974 7385 1033 2413 6387 5881 1766 6987 1933 3685 3419 4115 2483 6628 1962 1852 906 1355 915 439 1332 278 2707 2629 1185 3297 2984 2542 398 2197 1171 997 4666 1488 1398 788 1255 3190 1978 1203 359 358 259 1047 198 2119 2068
is_linear=0
shrinkage=0.05


Tree=11
num_leaves=63
num_cat=0
split_feature=13 19 47 51 57 11 8 16 15 18 49 13 54 51 16 55 53 52 3 11 54 14 44 15 57 15 10 15 47 8 13 19 4 12 10 54 47 8 46 55 9 13 0 52 55 13 4 11 43 12 13 8 8 6 43 57 14 42 54 15 43 54
split_gain=1546.32 578.889 471.087 316.776 249.515 236.54 388.651 288.558 164.922 141.538 139.051 138.138 115.116 110.656 104.48 87.1204 79.5772 78.9596 76.6347 112.382 64.772 63.1407 62.5782 60.583 55.9482 55.6083 54.9992 58.4906 55.7779 54.7731 50.701 50.2228 47.7728 50.0103 49.0606 47.2824 46.7657 40.9812 40.1257 39.6862 36.357 54.6534 35.5522 34.4434 50.0335 33.8665 33.8147 33.4176 30.7014 30.4056 44.6138 30.0157 29.9242 40.3917 48.0918 42.6383 39.4323 36.0437 29.7844 33.6195 28.7713 28.2092
threshold=0.054425500000000009 945.95500000000004 5.5000000000000009 11919.500000000002 0.19468444956372802 10.350000000000003 11.405050000000001 258.41500000000002 0.12231000000000002 0.036650000000000009 2.2500000000000004 0.92633360000000009 1.000692193777938e-12 1842.4525536500003 134.39040000000003 7.6948513336325002 0.044184063730287458 8.6974134085945369 22.494424291953241 65.450000000000017 1.2636815533435777 21.031700000000004 7.1539125302256972 6.8531800000000009 0.76438094543051038 8.8447237000000012 203.28414790000002 0.43014800000000009 1.5000000000000002 12.449150000000001 0.14490000000000003 0.15500000000000005 3841.0067303196329 0.00048760000000000009 1812.5000000000002 0.77557924650227361 1.5000000000000002 12.575800000000003 1276.2744715869719 8.2260577434505855 51.429950000000005 0.21814450000000005 1.7614015945123953 143.34568634726887 4.5470051060487044 0.095500000000000015 3919.2743396733181 12.65 3.0014601859295338 0.0008024000000000001 0.43205150000000009 13.643050000000002 8.9442100000000018 0.79102600197815565 0.71508960828853729 0.78034807918760218 208.39702000000003 2.5865973578481265 1.4466572846271778e-14 3.3917282000000006 0.9021241364021465 1.0960325981664083
decision_type=2 2 2 2 2 2 2 2 2 2 2 2 2 2 2 2 2 2 2 2 2 2 2 2 2 2 2 2 2 2 2 2 2 2 2 2 2 2 2 2 2 2 2 2 2 2 2 2 2 2 2 2 2 2 2 2 2 2 2 2 2 2
left_child=2 4 3 10 39 6 15 14 51 22 12 13 31 17 -7 32 24 21 19 26 30 -9 -10 48 -3 -12 27 -14 -29 -5 -11 36 -6 34 43 -21 -1 -32 -36 -2 -23 -42 -26 -34 -45 -17 60 -43 -16 -24 -51 -8 -47 -54 -55 57 -57 -56 -38 -60 -39 -15
right_child=1 16 -4 29 5 7 8 11 9 20 25 -13 18 61 23 45 -18 -19 -20 35 -22 40 49 -25 42 -27 -28 28 -30 -31 37 -33 33 -35 38 -37 58 46 -40 -41 41 47 -44 44 -46 52 -48 -49 -50 50 -52 -53 53 54 55 56 -58 -59 59 -61 -62 -63
leaf_value=0.065984503853891999 -0.0033359918997128432 -0.050243377410305934 -0.058420173228442521 -0.054832926609817381 -0.030977173733129859 -0.014910830232049914 0.061529072965925857 -0.01133873316344801 0.09459194986471664 -0.0032078551902864332 -0.037882693216816782 -0.018943084094117386 -0.0070789976310275393 -0.038384563111685852 0.073983559557782852 -0.043029666147289564 0.030814880692061938 0.081643460328267664 -0.0556589123130296 -0.011894325576960825 0.073908946269693146 0.063437355853203134 -0.022737501517133912 -0.037198402774425474 -0.029796167635938616 0.062263953547086304 -0.035152559880006227 0.080067241930129651 0.004585507534369382 0.036283003710034401 0.024652164994720463 -0.069449929517963832 0.039217347381081062 0.0010221596326078764 -0.020835850816084536 0.081620844192797956 -0.028805002434472232 0.070626327535258951 0.081695279356356051 -0.052291705317844467 0.063938343648895474 0.053854071337985567 0.019774426140860561 0.058529403200733389 -0.034544015620544946 -0.031230554557538717 0.057047409681488762 -0.0094832218480162753 -0.023050670718453618 0.10560905445560471 -0.0063055380103506399 -0.033047785965966081 -0.030139240556083819 0.091706350461003783 -0.017393294993292143 0.014130713976687257 0.10427886692742239 0.023581040484685178 0.016381202905939474 0.074517798666216786 -0.015606041756830386 0.02126274264932301
leaf_weight=95.153658255934715 61.704036109149456 343.15730392187834 979.51859777420759 442.49401577562094 66.921862050890923 38.374835357069969 426.24004557728767 71.661942362785339 13.923642411828039 109.25329248607159 292.91623567789793 181.53362233936787 434.04283586144447 61.261641122400761 571.49070552736521 80.197592601180077 45.046974435448647 96.266855880618095 66.778054058551788 17.84845944494009 86.924592062830925 111.64780303835869 202.97491939365864 12.841546431183813 126.87323620915413 14.549919486045836 131.65602288395166 41.039749033749104 60.636212766170502 17.132330723106861 492.44769090414047 11.29341349005699 309.90670473873615 456.08842898905277 80.010412007570267 55.696338832378387 24.729384914040565 13.77200438082218 10.834384322166441 125.79077836126089 63.838024124503136 27.579956531524658 50.595168121159077 22.442190304398537 40.492471873760223 124.70657147467136 221.96669593453407 85.036296121776104 8.2696525454521161 11.880936995148657 35.552473857998848 8.557603642344473 122.87533205747604 14.454703181982039 291.77190308272839 121.19258818775415 13.479729637503622 65.770231664180756 99.037869021296501 33.205004334449768 32.499297291040421 29.303632065653801
leaf_count=557 324 1831 3198 2356 253 201 2516 374 83 440 1025 908 2074 300 3635 271 273 607 370 93 521 659 732 67 693 86 509 252 252 87 2395 29 1628 2261 378 348 110 79 66 675 385 159 285 124 129 456 1248 426 40 76 150 33 461 90 1214 588 84 317 446 200 136 161
internal_value=0 0.0150132 -0.0304134 -0.0154896 0.0204127 0.0226068 0.0156935 0.0402937 0.0332235 0.0238082 -0.00350472 0.0188469 0.00500317 0.0313976 0.0650427 -0.000246776 -0.0329397 0.0414231 -0.00435776 0.000265939 0.032755 0.0306608 -0.00857831 0.0702202 -0.0384561 -0.0331436 -0.00619839 0.000917271 0.0350524 -0.0514366 0.0286429 0.0337057 0.00981016 0.0127778 0.0243408 0.0589258 0.0383263 0.0332174 -0.00860772 -0.0361805 0.0411077 0.0269791 -0.0156639 0.0323689 -0.00135449 -0.0121386 0.048942 0.00602821 0.0725995 -0.014315 0.0217264 0.0596676 -0.00885407 -0.00442151 0.00181545 -0.000824347 0.0231539 -0.00985603 0.0215605 0.0309788 0.0100598 -0.0190849
internal_weight=0 5589.41 2817.73 1838.21 5023.74 4836.24 3477.14 1359.11 1655.99 1221.2 1378.58 728.13 1071.12 546.596 630.977 1821.15 565.673 456.031 807.698 740.92 956.864 359.764 264.332 592.602 520.626 307.466 667.375 535.719 101.676 459.626 869.939 263.419 986.696 919.775 463.686 73.5448 252.126 760.686 90.8448 187.495 288.102 176.454 177.468 372.841 62.9347 834.449 268.238 112.616 579.76 250.408 47.4334 434.798 754.251 629.544 506.669 492.214 134.672 357.542 156.972 132.243 46.2713 90.5653
internal_count=40724 28732 11992 8794 25650 24651 16729 7922 8409 5860 6351 3979 5240 3071 3943 8320 3082 2610 3898 3528 4819 2003 1041 3742 2809 1111 3087 2578 504 2443 4298 1342 4839 4586 2325 441 1313 3858 444 999 1629 970 978 1881 253 3481 1463 585 3675 958 226 2549 3210 2754 2293 2203 672 1531 756 646 215 461
is_linear=0
shrinkage=0.05


Tree=12
num_leaves=63
num_cat=0
split_feature=13 45 47 51 3 57 48 54 45 11 8 47 19 8 8 6 12 16 45 20 8 3 11 17 6 15 11 16 45 16 19 15 16 52 52 57 14 7 54 11 5 45 15 45 12 51 43 57 0 44 8 6 12 45 14 12 46 46 16 3 45 10
split_gain=1469.9 679.041 445.531 304.23 225.506 176.565 141.648 156.441 124.758 149.517 159.895 154.173 114.56 100.924 98.9821 94.3764 82.5554 82.1439 73.6353 71.9889 71.7066 64.218 69.8247 61.538 64.563 57.3352 54.4757 52.6196 50.3252 55.023 48.1691 47.4423 60.111 48.0813 46.0653 45.6683 42.3905 41.498 40.6432 40.5293 40.0067 47.4697 39.9888 41.8471 39.3766 37.2139 35.3031 34.3569 34.0299 33.9101 36.656 33.802 33.7556 32.5543 35.4904 31.7677 33.1634 40.2677 31.64 30.8346 30.3047 34.6497
threshold=0.057653400000000007 0.076089977625118113 5.5000000000000009 8536.2819178500013 22.494424291953241 0.7807417189921757 1.7500000000000002 1.5753548008027559e-12 0.041668958694600598 13.850000000000003 11.583600000000002 1.5000000000000002 5.3950000000000014 11.151150000000003 6.7013000000000007 0.47038888911467547 0.027010000000000003 255.81200000000004 6.9712991762234312e-08 5.8000000000000007 12.449150000000001 22.494424291953241 65.450000000000017 0.33750000000000008 5.1322948639627297 9.1818403000000028 35.350000000000001 274.61000000000007 5.3540647177341349e-08 53.500000000000007 4.0400000000000009 0.12231000000000002 53.500000000000007 893.14569484051708 60.917249199221082 0.77133567537110792 17.811580000000003 13.649000000000003 0.93377425322307284 18.050000000000004 4.4300012286818315 0.03014993043507665 1.5202180000000001 0.010461951344876401 2.0030000000000006e-06 2400.7549750750004 1.4029869701532098 0.79982126290121214 3.317611383754723 7.7674754578057517 8.1323000000000025 0.59274213692333322 0.023400000000000004 0.032576832318721528 27.242100000000004 3.3410000000000007e-05 2431.2683904319533 125.28488274263631 211.70000000000002 0.44526741900566624 0.014480068271721745 357.44868170000007
decision_type=2 2 2 2 2 2 2 2 2 2 2 2 2 2 2 2 2 2 2 2 2 2 2 2 2 2 2 2 2 2 2 2 2 2 2 2 2 2 2 2 2 2 2 2 2 2 2 2 2 2 2 2 2 2 2 2 2 2 2 2 2 2
left_child=2 4 3 6 5 8 7 19 9 10 12 17 34 -10 -3 -12 23 -11 25 -1 -5 22 28 24 39 44 -6 -14 29 -9 -25 -17 -33 -34 42 37 46 -19 -24 40 45 -42 49 -44 48 47 -15 -7 -8 50 -2 -52 -29 -41 -55 56 57 -16 -31 -20 61 -39
right_child=1 14 -4 20 26 16 18 21 13 11 15 -13 27 36 55 31 -18 35 59 -21 -22 -23 38 30 -26 -27 -28 52 -30 58 -32 32 33 -35 -36 -37 -38 60 -40 53 41 -43 43 -45 -46 -47 -48 -49 -50 -51 51 -53 -54 54 -56 -57 -58 -59 -60 -61 -62 -63
leaf_value=0.054768313709109485 -0.018204518090217999 -0.052057847546981895 -0.057445007190297853 -0.053121666963431707 -0.0064498214842412822 0.055660668544874316 0.047748789658374771 0.045745258098105618 -0.02591448109778657 0.058839023163890364 -0.020746346064063188 0.076047319100961963 0.063933265677545925 0.021768613960786297 0.086066468581545152 0.065398276341620029 -0.015339015336528698 -0.036690131361066129 -0.0057740711051875726 -0.019643576822002611 0.038493650651660299 -0.054741137134977337 -0.0074366986149558452 -0.017350532618879443 -0.038605523116996783 0.050841721052145232 -0.054030111204188769 0.022748486372273433 -0.023928177011512331 -0.037260388653512631 0.041222853204761108 -0.042496212079411851 0.037909432574863011 -0.059039147841043416 -0.030226983376778777 0.06286984210666588 0.0042057833558464775 -0.017485029843899616 0.077886602357945936 0.071164510782174978 0.037712434788984332 -0.0040767566090673304 0.04448598871888737 0.0017045670019128897 -0.040851673364480125 0.059130865164548477 0.091298082207371054 0.017424920019501657 -0.021478735275145766 -0.024476521335897321 -0.041838231760576459 0.023530631607745038 -0.043857894904502148 0.058667461979104718 -0.032274179711175875 -0.033382546730208455 0.072726063020709164 -0.01447163746707949 0.0085027235668647186 0.069875134935427644 -0.011619062497684322 0.04460534601651453
leaf_weight=208.59189586341381 135.4796067327261 376.66370259225368 950.36565005034208 470.65742067992687 150.50950034707785 101.9305200278759 23.217988193035126 73.54337365925312 281.92165836691856 120.01480914652348 74.981141835451126 221.47399896383286 79.584746614098549 48.098581612110138 11.338077731430529 131.05635717511177 70.173259571194649 54.253259405493736 26.821832880377769 38.502215325832367 22.373394086956978 57.023563802242279 20.660874508321285 77.977464690804482 23.349083751440048 21.255197629332542 100.21075531840324 252.41135954856873 206.84958348423243 54.846277125179768 63.833469681441784 25.827591612935066 530.70334449410439 13.104706004261969 154.43266191333532 35.145518481731415 187.60097825527191 30.212642833590508 43.014549255371094 212.61069805920124 293.14201256632805 88.463807322084904 84.943207427859306 174.76229412853718 358.96607838571072 352.34806905686855 29.425075113773346 138.68866610527039 75.402174778282642 200.2062124311924 22.418023973703384 167.81067669391632 20.57227398455143 28.734402999281883 17.120040282607079 70.183636777102947 17.521566122770309 81.907563582062721 121.31012570112944 27.059488713741302 77.126297861337662 87.671028256416321
leaf_count=1168 643 2155 3218 2537 801 594 131 396 1329 737 283 1437 480 234 72 793 350 256 137 146 115 325 108 317 107 122 558 1341 1056 194 357 81 2710 38 537 209 839 146 270 1364 1549 417 462 771 1213 2063 183 696 287 742 71 811 95 177 81 334 103 353 578 164 392 499
internal_value=0 0.0148572 -0.0296193 -0.0153257 0.020738 0.0231978 -0.00310459 0.0098813 0.0166816 0.0211019 0.0146223 0.0425138 0.00385306 -0.00508796 -0.0374568 0.0325687 0.0375814 0.0241499 -0.0231991 0.0431734 -0.0489642 -0.00436957 0.00115183 0.0402374 0.0437615 -0.0294349 -0.0254673 0.0281586 -0.0056892 0.00941985 0.00901515 0.038274 0.0320335 0.0355732 -0.00526278 0.00951175 0.017058 0.00198839 0.0502016 0.0453213 0.0406529 0.0280249 -0.000355458 0.0156973 -0.0331638 0.0487798 0.0481594 0.0336223 -0.00518061 -0.00828259 0.00167149 0.0158271 0.017729 0.0629237 0.0247138 -0.00706348 0.00961265 -0.00224684 -0.00574562 0.0322174 0.0127491 0.0286921
internal_weight=0 5517.94 2800.46 1850.1 4960.33 4709.61 1357.07 824.342 3241.24 2694.19 2068.29 625.898 1292.62 547.046 557.615 775.673 1468.37 404.424 532.723 247.094 493.031 577.248 520.225 1398.2 1256.39 478.841 250.72 352.568 456.549 249.7 141.811 700.692 569.636 543.808 940.053 284.409 265.125 249.263 63.6754 1233.04 974.573 381.606 785.62 259.706 457.586 592.967 77.5237 240.619 98.6202 525.915 325.708 190.229 272.984 258.465 45.8544 180.951 110.767 93.2456 176.156 53.8813 195.01 117.884
internal_count=40732 28567 12165 8947 25550 24191 6295 4241 16119 13534 9858 3676 5953 2585 3017 3905 8072 2239 2054 1314 2652 2927 2602 7722 7048 1753 1359 1916 2224 1168 674 3622 2829 2748 4037 1502 1256 1293 378 6941 5319 1966 3500 1233 1631 3353 417 1290 418 2267 1525 882 1436 1622 258 862 528 425 772 301 1037 645
is_linear=0
shrinkage=0.05


Tree=13
num_leaves=63
num_cat=0
split_feature=13 45 47 51 3 17 11 16 8 45 49 54 8 13 8 20 3 11 43 4 45 45 19 8 18 8 18 3 57 13 45 3 45 11 46 55 17 17 16 7 53 13 12 16 43 3 4 8 26 54 16 12 46 9 46 55 46 51 15 15 16 52
split_gain=1316.93 617.31 426.351 253.922 218.191 176.873 165.325 256.902 231.309 129.943 127.235 140.091 110.194 89.8435 77.1177 76.1785 69.652 74.1038 62.923 61.7383 60.5817 59.2335 63.5773 65.168 57.1788 54.0224 50.8279 50.4182 47.6956 47.1728 46.3171 45.9603 42.9427 42.2703 41.8699 41.5194 38.7651 35.5733 35.1566 38.1626 48.7566 34.6189 51.7297 34.6117 33.8378 39.9014 34.5938 36.1871 33.4439 32.4246 52.2148 31.9343 31.8842 30.5113 29.7299 29.2863 29.137 28.6038 28.4579 28.4447 28.4352 28.1152
threshold=0.054425500000000009 0.077974512439070429 5.5000000000000009 11919.500000000002 23.296507025121382 0.33050000000000007 11.550000000000002 263.41000000000003 12.121050000000002 0.033056682797587202 1.7500000000000002 1.5753548008027559e-12 13.560750000000002 0.21405570000000004 6.7013000000000007 5.8000000000000007 21.808806185449068 65.450000000000017 2.9216281442849099 3919.2743396733181 1.2699556384226057e-08 0.043476988552036702 41.655000000000008 9.4418750000000014 0.05214450000000001 12.449150000000001 0.018446900000000006 9.165743119022272 0.78835770643771474 0.27217160000000007 4.3359551694511567e-08 11.84819464885927 0.090694946203709367 35.350000000000001 2633.6688564654637 12.492581048092338 0.080500000000000016 0.16223560000000001 1222.8000000000002 13.612500000000002 0.16249738320618326 0.30586180000000007 0.00020090000000000003 349.20000000000005 0.86022814408642423 4.1186676321574156 6739.2358632634614 10.912700000000003 1.0000000180025095e-35 1.0800122105388097 1.0000000180025095e-35 3.3410000000000007e-05 133.0526122942133 787.03927445000011 118.61578476700164 8.4355482623960967 1885.1936474110171 122.75000000000001 11.075000000000001 2.42449 339.90000000000003 272.05933406152423
decision_type=2 2 2 2 2 2 2 2 2 2 2 2 2 2 2 2 2 2 2 2 2 2 2 2 2 2 2 2 2 2 2 2 2 2 2 2 2 2 2 2 2 2 2 2 2 2 2 2 2 2 2 2 2 2 2 2 2 2 2 2 2 2
left_child=2 4 3 10 5 6 8 24 13 18 11 15 19 44 -3 -1 17 30 27 48 58 22 23 55 -8 -5 -14 41 54 34 37 -26 60 -6 -21 -28 -24 -13 39 -7 43 53 -43 -41 45 -2 -46 -48 -10 50 57 52 -16 -9 -25 -15 -54 -22 -12 -31 -19 -56
right_child=1 14 -4 25 33 38 7 9 12 -11 20 16 26 21 51 -17 -18 32 -20 29 49 -23 36 28 31 -27 35 -29 -30 59 -32 -33 -34 -35 -36 -37 -38 -39 -40 40 -42 42 -44 -45 46 -47 47 -49 -50 -51 -52 -53 56 -55 61 -57 -58 -59 -60 -61 -62 -63
leaf_value=0.051411137378871513 -0.02583149468407251 -0.051146323751196647 -0.05676528321604149 -0.052497546660891098 -0.010163377132914465 -0.010907062576284959 -0.062754315557403989 0.06119745493346377 -0.015803076401608079 -0.023829473785137157 -0.036478614197778723 0.022906790265092562 -0.035570855447810988 0.0035089326724110485 0.085750564288471637 -0.02283140350003551 -0.054963918171822751 0.084025635065088256 -0.051551017134520288 -0.029645669316083197 0.047147317950076296 -0.01218678791866269 -0.026454660370897384 0.072930205519703126 0.069315859785202022 0.032293101105154612 0.06148811223633166 -0.023439674190917519 0.043872699079819874 0.05707497975150249 -0.023176709357545174 -0.0047105386364777483 -0.045925374291625042 -0.053124414509404055 0.034854138721832795 -0.020782574530756596 0.05278741252634496 -0.016524476128027116 0.075897366062110797 0.028940889321026078 0.07575934904878194 -0.018037199334539161 0.042613211342512169 -0.01646820305107663 -0.033808323329636736 0.091917864477643496 -0.023497184394925787 0.094546322615220502 0.047788847097782097 0.062151537602187071 -0.038470156601348227 -0.038121861131304863 -0.018880815675085483 -0.030176971228728356 0.01541224403022109 -0.027775783296107904 0.04691349702064368 -0.030571024673784555 0.034791457446872169 0.027325568580171506 -0.0036775021986230104 -0.023002165408008035
leaf_weight=207.5029890537262 14.893018878996374 360.21906061470509 917.52041051536798 408.00185010582209 136.43215941637754 496.63110738992691 8.6860926151275617 175.12110018730164 65.474683821201324 144.13813386112452 376.22838791459799 154.26014195382595 69.553556680679321 323.69786158204079 11.54067414999008 41.454004891216755 63.778056219220161 45.496088914573193 21.688214614987373 29.090440884232521 45.464091911911964 213.19634670764208 17.169461816549301 20.645976558327675 551.08884803950787 19.691970616579056 36.055263310670853 32.731534369289875 173.03333854675293 586.17783504724503 223.71078778803349 21.79695051908493 10.039019577205179 98.662446528673172 186.26391145586967 26.686224773526192 152.66304658353329 90.904929719865322 14.219903588294981 79.256038062274456 28.362011596560478 49.238868668675423 122.93113914132118 89.185534089803696 195.5596779435873 13.918647199869154 15.161830097436907 11.354652404785154 30.217281565070152 20.664235845208168 60.68899342417717 61.598781652748585 67.67425636947155 9.6387580782175046 512.90914241969585 97.290522024035454 22.395747274160385 16.007481187582016 14.548060506582258 93.113222911953926 11.597975060343741 52.507419899106026
leaf_count=1163 55 2127 3219 2329 732 2261 37 1071 250 751 1318 783 236 1581 72 155 376 293 98 104 245 993 80 116 3586 98 201 163 913 3444 1127 111 48 568 935 98 884 363 84 435 175 233 693 442 672 86 62 69 180 119 226 296 288 46 2378 361 123 80 79 483 59 185
internal_value=0 0.0134423 -0.029 -0.0149256 0.0188338 0.021146 0.0251542 0.0413416 0.0188864 0.0170237 -0.00450876 0.00751903 0.0367242 0.00784711 -0.038228 0.039049 -0.00556828 0.000309153 0.0313388 0.0424496 -0.0236401 0.0123051 0.0161732 0.0120567 0.0645689 -0.0485936 -0.00613566 0.0359523 0.0208069 0.0465325 -0.00672551 0.0664993 0.0494412 -0.0281929 0.0261414 0.0264954 0.0447763 0.00828604 -0.00192726 -0.00352316 0.01511 0.0413988 0.0252678 0.00489793 -0.0199276 0.0310521 -0.0265416 0.0270504 0.00427776 0.00422716 -0.00557111 -0.00971588 0.0075045 0.0564305 0.0139968 -0.00372097 -0.00252118 0.0269091 -0.0338253 0.0529971 0.0662098 0.0118449
internal_weight=0 5539.87 2727.56 1810.04 5016.44 4781.35 4073.69 1137.06 2936.63 555.488 1382.35 848.744 1122.63 1814 523.429 248.957 599.787 536.009 411.35 990.337 533.601 1563.11 1349.92 1180.08 581.572 427.694 132.295 389.661 759.096 894.645 468.876 572.886 67.1331 235.095 215.354 62.7415 169.833 245.165 707.655 693.435 196.804 356.93 172.17 168.442 250.888 28.8117 222.076 26.5165 95.692 142.825 122.161 163.209 101.611 184.76 586.063 420.988 90.07 61.4716 390.776 679.291 57.0941 565.417
internal_count=40838 28758 12080 8861 25852 24552 21155 6789 14366 3055 6434 4367 5931 8435 2906 1318 3049 2673 2304 5396 2067 7491 6498 5534 3734 2427 535 2206 3592 4966 2273 3697 400 1300 1039 299 964 1146 3397 3313 1052 2043 926 877 944 141 803 131 430 670 551 779 483 1117 2679 1942 411 325 1397 3927 352 2563
is_linear=0
shrinkage=0.05


Tree=14
num_leaves=63
num_cat=0
split_feature=13 45 47 51 57 17 19 8 47 45 20 54 47 54 55 8 3 51 57 55 3 46 8 16 54 0 16 45 16 8 46 48 7 43 5 1 3 8 19 45 6 43 46 55 18 18 8 14 54 46 8 6 19 19 16 47 52 45 8 13 9 8
