tree
version=v4
num_class=1
num_tree_per_iteration=1
label_index=0
max_feature_idx=58
objective=binary sigmoid:1
feature_names=period_days duration_hours depth_ppm planet_radius_re stellar_teff_k stellar_logg_cgs stellar_radius_rsun mag_kepler mag_tess insolation_earth eqt_k snr_like period_errw duration_errw depth_errw prad_errw teff_errw logg_errw srad_errw insol_errw eqt_errw period_days__missing duration_hours__missing depth_ppm__missing planet_radius_re__missing stellar_teff_k__missing stellar_logg_cgs__missing stellar_radius_rsun__missing mag_kepler__missing mag_tess__missing insolation_earth__missing eqt_k__missing snr_like__missing period_errw__missing duration_errw__missing depth_errw__missing prad_errw__missing teff_errw__missing logg_errw__missing srad_errw__missing insol_errw__missing eqt_errw__missing log_period log_duration_h log_depth_ppm duty_cycle depth_per_hour star_multiplicity depth_ppm__rank_in_star snr_like__rank_in_star period_days__rank_in_star star_depth_mean star_depth_std star_depth_cv depth_over_radii_model snr_proxy eqt_over_teff log_depth_over_radii_model log_snr_proxy
feature_infos=[0:129995.7784] [-0.99618820784496886:3326.0405275581029] [-110.73332516149736:921738.39693251683] [-4.4666599871613037:200347.16062778389] [0:50000] [-0.20380149602646874:6.559984117158173] [-0.52708640383210414:180.58007275119542] [0:20.003] [0:17.007000000000001] [0:10947554.550000001] [0:14667] [0:9054.7000000000007] [0:3700] [0:335.23030419999998] [0:85960] [0:91710] [0:14000] [0:4.0216799999999999] [0:129.78100000000001] [0:8979555.0399999991] [0:506] [0:1] [0:1] [0:1] [0:1] [0:1] [0:1] [0:1] [0:1] [0:1] [0:1] [0:1] [0:1] none [0:1] [0:1] none none none none none none [9.9999950000033335e-07:11.775264947592191] [9.9999950000033335e-07:8.1095136332223472] [9.9999999949999999e-10:13.733943605886896] [8.8652482269503548e-12:1] [5.0014003921097912e-13:1925404.7033953764] [1:44] [1:22.5] [1:22.5] [1:44] [0:921670] [0:243436.35866587391] [0:1.8530412955171633] [4.9437043196935081e-26:24604.000773959684] [0:592200] [0:4.2885964912280699] [9.9999999949999999e-10:10.110704984755461] [9.9999999949999999e-10:13.291601383266912]
tree_sizes=6737 6756 6783 6810 6775 6800 6829 6797 6797 6793 6800 6821 6825 6810 6819 6801 6814 6799 6853 6798 6817 6833 6827 6784 6813 6829 6823 6849 6827 6807 6808 6850 6843 6841 6829 6830 6846 6811 6842 6837 6848 6822 6819 6867 6866 6831 6838 6867 6847 6851 6836 6846 6887 6849 6845 6855 6837 6861 6877 6855 6810 6883 6869 6874 6878 6853 6869 6860 6840 6877 6861 6837 6858 6877 6836 6877 6875 6895 6851 6868 6865 6859 6868 6871 6836 6869 6844 6859 6902 6872 6868 6873 6829 6892 6879 6848 6874 6836 6868 6838 6841 6876 6848 6866 6856 6881 6871 6840 6821 6876 6878 6892 6817 6881 6858 6854 6838 6874 6862 6887 6887 6881 6893 6860 6889 6839 6869 6848 6921 6825 6881 6859 6826 6852 6876 6792 6887 6837

Tree=0
num_leaves=63
num_cat=0
split_feature=47 7 7 15 13 15 6 47 18 8 55 26 16 47 8 53 8 55 8 15 15 42 14 8 0 47 10 47 51 15 44 10 0 54 55 15 45 55 47 54 4 55 15 13 46 56 0 8 45 55 15 15 51 42 48 55 8 55 15 13 15 4
split_gain=15766.2 4401.39 1990.7 1399.08 1011.06 1077.15 479.544 231.983 217.714 325.104 204.655 199.511 276.39 211.622 145.84 114.535 127.298 112.878 112.173 92.6818 85.6749 82.0851 80.8669 80.662 65.6963 96.0897 83.875 61.5536 59.3956 53.0828 49.5773 117.911 46.4153 46.4009 45.9838 44.0867 43.2573 42.3731 40.6049 66.9703 38.9418 38.6074 37.1885 40.1478 43.5482 36.3329 34.5814 34.3491 34.09 33.8353 30.9021 30.6774 29.8831 37.4654 36.026 29.4248 28.9651 28.3398 29.2874 27.9736 27.5608 27.4445
threshold=3.5000000000000004 1.0000000180025095e-35 1.0000000180025095e-35 0.081000000000000016 0.30593470000000006 2.1598749000000006 1.1780698931205256 2.5000000000000004 0.039076700000000006 10.055800000000001 1245.4639377539959 1.0000000180025095e-35 224.10000000000002 1.5000000000000002 12.081150000000003 0.1264925586947668 13.789750000000002 4.758916960339425 12.117950000000002 8.8589900000000021 6.8884600000000011 1.4489418048303926 19.846380000000003 9.2028000000000016 6.5202072991160671 1.5000000000000002 310.50000000000006 6.5000000000000009 1052.6254584000003 1.3633321000000003 8.8012888398793603 1886.0756254000003 4.8058109675094238 1.1754391771378594 7.103958457358619 1.3633321000000003 0.060811879325353417 54.002565822481081 1.5000000000000002 0.70626968415408053 5971.5385042848911 10.259620683448686 0.6700830000000001 0.85300000000000009 792.43798576643223 0.20904978831182228 2.5812335000000002 13.789750000000002 1.390913177563868e-08 12.376571099337204 0.49026900000000001 0.55001800000000012 6536.5419909500006 1.7966685028311697 1.7500000000000002 436.93383783784174 11.158300000000002 19.498275862068969 1.4507070000000002 0.40063100000000007 1.1207829000000002 6428.0447133352272
decision_type=2 2 2 2 2 2 2 2 2 2 2 2 2 2 2 2 2 2 2 2 2 2 2 2 2 2 2 2 2 2 2 2 2 2 2 2 2 2 2 2 2 2 2 2 2 2 2 2 2 2 2 2 2 2 2 2 2 2 2 2 2 2
left_child=1 3 19 7 5 11 8 47 36 17 15 12 55 -13 24 16 21 -10 28 27 33 -8 -16 34 30 26 -26 46 -11 -12 31 38 41 52 -23 -28 -6 -19 39 -14 42 -24 51 44 -44 -43 -2 -1 -9 -46 -41 -30 54 -54 -7 -5 -32 -47 -59 -31 -15 -25
right_child=2 -3 -4 4 6 20 10 48 9 18 29 13 14 60 22 -17 -18 37 -20 -21 -22 23 32 61 25 -27 35 -29 40 59 56 -33 -34 -35 -36 -37 -38 -39 -40 50 -42 45 43 -45 49 57 -48 -49 -50 -51 -52 -53 53 -55 -56 -57 -58 58 -60 -61 -62 -63
leaf_value=-0.75396900114482857 -0.5957906429051617 -0.76195797627668471 -0.76195797901514228 -0.56620323590904531 -0.61265457166958803 -0.74544639579355931 -0.75674572850330302 -0.6132363817355766 -0.69953049308161075 -0.72022607247910375 -0.59951063132532534 -0.75217037213433457 -0.7263565413799723 -0.61139989643722414 -0.72759151844650127 -0.61240116881632689 -0.54768181889916179 -0.59701262984692982 -0.74025288735715911 -0.6471730561858573 -0.75493276077581095 -0.71701277792126894 -0.70935234293183047 -0.72049373195697208 -0.75356282275064812 -0.5840394744711902 -0.61283974637976046 -0.53828426742407876 -0.67395226351384552 -0.64133695677760616 -0.56049473188008603 -0.74928689749831512 -0.72234859210120184 -0.60036508279288825 -0.62870635754831139 -0.70695170741526436 -0.68956113750125914 -0.6759854178561816 -0.57054788257613187 -0.55126693659939863 -0.74395145825827025 -0.58451448899022629 -0.58691831412977669 -0.69142777624618335 -0.71915218562150773 -0.61155794431812183 -0.55421830182082976 -0.65852251016438901 -0.71153578899378056 -0.63017908335320583 -0.62603902411694123 -0.76195797782313257 -0.66081164893851196 -0.74530174345837052 -0.65260532243883118 -0.62270019696912116 -0.60373218317632404 -0.73865179771833678 -0.64031656143123872 -0.74603898872532071 -0.69416822692143154 -0.7478283782101075
leaf_weight=680.66469071805477 55.33488067984581 3440.7619939744473 113.6162800937891 317.68743479251862 170.18649376928806 59.878785327076912 265.56119714677334 35.234126970171928 42.761172950267792 90.027888134121895 38.951934918761253 50.507416903972626 13.885584369301794 72.892121315002441 40.276796281337738 20.493549570441246 9.2282176017761213 129.47185276448727 154.87416867911816 22.394954741001129 126.66144749522209 26.397306531667709 15.035552680492399 267.05820867419243 23.55390402674675 46.678818225860596 40.444621309638023 1183.3006768226624 31.456387057900429 13.114709213376047 89.808397397398949 15.605513572692869 17.472763806581497 11.013159453868864 33.388868317008018 17.974196597933769 20.484875857830048 19.550179421901703 54.235811591148376 18.770489826798439 16.472259163856506 37.331584021449089 35.020061373710632 37.848643779754639 16.168032839894295 28.924537658691406 521.14233300089836 9.5585540980100614 11.764981150627134 31.511212453246117 52.373808577656746 14.451619088649748 49.851902320981026 17.807629615068436 12.657862797379492 24.849076762795448 68.110002353787422 12.72658331692219 18.694250106811523 12.421561434864996 11.667763710021971 139.9464315623045
leaf_count=4034 182 17606 777 901 625 370 1434 131 220 507 131 346 80 282 242 76 23 445 946 95 756 137 87 1500 156 153 154 2709 156 54 239 83 105 37 126 88 87 88 156 46 93 122 111 188 89 112 1365 40 65 125 208 88 217 104 58 94 247 79 84 73 66 804
internal_value=-0.686799 -0.721142 -0.559034 -0.683607 -0.66846 -0.636724 -0.694972 -0.745328 -0.667638 -0.682015 -0.721767 -0.614313 -0.606264 -0.67119 -0.626395 -0.729005 -0.732227 -0.627921 -0.706264 -0.546098 -0.724598 -0.734552 -0.665677 -0.721927 -0.611227 -0.641303 -0.673911 -0.544811 -0.686979 -0.636241 -0.598856 -0.618957 -0.646521 -0.699188 -0.667696 -0.641796 -0.620917 -0.607373 -0.604353 -0.625915 -0.670617 -0.634767 -0.663359 -0.648775 -0.629254 -0.623286 -0.558209 -0.752647 -0.637843 -0.66035 -0.606311 -0.701656 -0.706951 -0.683049 -0.729245 -0.570302 -0.579143 -0.647271 -0.680146 -0.692267 -0.62282 -0.729893
internal_weight=0 7182.21 1895.79 3741.45 3004.22 1367.38 1636.85 737.222 810.285 619.613 826.562 1089.51 954.44 135.067 611.903 762.074 741.58 191.783 427.83 1782.17 277.871 732.352 170.462 466.791 441.441 128.652 81.9727 1759.78 272.956 64.4882 312.79 154.871 130.185 151.209 59.7862 58.4188 190.671 149.022 139.266 85.0299 182.928 112.713 166.456 120.548 82.6993 97.677 576.477 690.223 46.9991 47.6792 71.1443 45.908 140.196 67.6595 72.5366 342.537 157.918 60.3454 31.4208 25.5363 84.5599 407.005
internal_count=40802 35674 5128 18068 13798 5672 8126 4270 3768 3056 4358 4130 3436 694 2441 4100 4024 753 2303 4351 1542 4001 831 2567 1610 551 398 4256 1357 258 1059 573 589 786 263 242 712 533 490 334 850 484 757 513 325 397 1547 4074 196 214 254 244 749 321 428 995 486 275 163 127 348 2304
is_linear=0
shrinkage=1


Tree=1
num_leaves=63
num_cat=0
split_feature=47 7 7 15 13 15 18 47 55 5 16 47 8 52 8 18 15 15 8 6 15 0 14 47 17 4 55 55 8 51 0 56 1 47 14 3 47 16 0 0 9 17 45 14 4 55 55 9 3 13 0 43 0 8 51 3 15 53 8 13 8 4
split_gain=13554.4 4296.57 1654.77 1360.49 869.273 947.831 457.897 250.464 195.015 180.264 215.949 134.485 133.155 131.696 124.114 213.459 107.927 91.6774 81.0395 104.005 80.4023 75.6311 71.38 68.0375 95.0844 67.6769 64.8138 63.0003 61.182 89.4652 57.5832 57.1167 55.1987 70.9263 50.8664 50.3475 48.7659 45.333 42.2432 39.1664 38.9407 37.9481 33.6757 38.393 36.6511 31.8669 41.5555 30.4678 42.1605 30.4296 30.1691 30.143 28.8093 27.4124 26.9934 90.2794 25.3827 25.3586 24.6172 24.5343 23.7435 36.8141
threshold=3.5000000000000004 1.0000000180025095e-35 1.0000000180025095e-35 0.081000000000000016 0.33129550000000002 2.0032900000000002 0.11993970000000002 2.5000000000000004 1245.4639377539959 3.9090810413187991 226.00300000000001 2.5000000000000004 12.081150000000003 206.70590643287798 9.5364500000000003 0.039076700000000006 6.8884600000000011 9.1850000000000023 9.6350500000000014 1.7080219476298308 1.3633321000000003 7.4483754585966944 19.846380000000003 1.5000000000000002 0.17233640000000003 5708.0097219810932 4.758916960339425 9.0323740745286205 11.9092 1052.6254584000003 4.8058109675094238 0.30847739663868606 3.1011011174191965 1.5000000000000002 30.224655000000002 15.403112961762231 6.5000000000000009 304.01000000000005 3.193618121281824 2.0255800099076295 3415.7213880500008 0.17999810000000002 0.031841764285809419 690.58800000000008 6517.0365535393512 5.9004373177842586 16.272296544035676 677.8275000000001 14.81820218993097 0.85300000000000009 1.8555367363075306 1.2768813320385497 1.3999331723604189 12.283650000000002 6131.1276718500003 3.4896143210444284 0.70013900000000018 0.041765529108716053 12.533500000000002 0.19801180000000004 11.406150000000002 5794.0762664434415
decision_type=2 2 2 2 2 2 2 2 2 2 2 2 2 2 2 2 2 2 2 2 2 2 2 2 2 2 2 2 2 2 2 2 2 2 2 2 2 2 2 2 2 2 2 2 2 2 2 2 2 2 2 2 2 2 2 2 2 2 2 2 2 2
left_child=1 3 17 7 5 9 14 -1 13 11 59 32 21 18 26 31 34 36 19 27 -10 39 58 24 -23 28 -6 -8 29 45 35 -16 33 -5 -7 41 52 40 -9 54 47 50 43 44 53 -17 51 48 -36 57 -24 -47 -2 -20 55 -12 -35 -31 -14 -11 -41 -62
right_child=2 -3 -4 4 6 16 8 38 20 10 12 -13 22 -15 15 25 -18 -19 42 -21 -22 23 30 -25 -26 -27 -28 -29 -30 49 -32 -33 -34 56 37 -37 -38 -39 -40 60 -42 -43 -44 -45 -46 46 -48 -49 -50 -51 -52 -53 -54 -55 -56 -57 -58 -59 -60 -61 61 -63
leaf_value=-0.064932241578728372 0.072335017465324059 -0.07333758133750494 -0.073337580414632314 -0.056184397765531871 -0.0092638916308687789 -0.039008886489156055 -0.011948450574555743 -0.024473615529424762 0.093841251093187958 0.11289705652915634 0.083103630226776803 0.093002365010990198 0.0046154347762344472 0.083692481874377805 0.060121556892496979 -0.057345319336854564 -0.065783325761957986 0.023439164356484809 -0.011869935058781684 -0.053773239420036083 -0.029162785715108774 0.0665458677527547 0.015049346286878854 0.087110691127567544 -0.051966540661913446 -0.042199625655592245 0.080808535512449264 0.084879601425014384 -0.032743356370333924 0.049446773546213199 -0.037061640774865005 -0.050537448985622936 0.052215488954765604 0.052214863391747468 0.056386571614982055 -0.039128261964809952 0.13464113945398679 -0.032718606428704729 0.078128346923283798 0.10325872551139592 -0.049170821247503993 -0.0055289252786030751 -0.061923427541676582 -0.071277555317613747 -0.065489305891919522 0.091154278597113766 -0.074731643949525903 0.080981107763907809 -0.06563669479483078 0.013854258996433003 0.090074539556448646 -0.010131113783313769 0.11994500990114716 -0.051027010092615621 0.095544402140174386 -0.054310385416905096 -0.034277485561356832 0.11618593060911031 -0.074198539318976436 0.076582042604436129 0.10079883586232377 0.025980980757073821
leaf_weight=676.59977948665619 33.639943838119507 3328.0654293000698 108.3348766118288 60.50075376033783 24.185203388333321 72.114360302686691 32.843228906393051 13.77118034660816 41.60292412340641 298.86768247187138 32.637686997652054 49.440751969814301 18.797749564051628 21.578070625662804 193.50682912766933 34.721825420856476 127.74214249849319 20.842734470963478 175.08024473488331 58.070112988352776 19.518022730946541 33.17206346988678 16.360714629292488 41.951037928462029 34.555100277066231 113.14407557249069 114.64937014877796 34.387730672955513 79.186216607689857 49.560673996806145 21.215436577796936 12.4085775911808 33.779118716716766 30.562470212578773 20.223586380481724 13.392579659819601 1224.4048296809196 35.070909768342972 36.946666598320007 190.77486501634121 11.58102026581764 16.707088753581047 275.68789930641651 73.060708463191986 60.551171317696571 14.268279120326044 11.046661674976347 36.583840981125832 10.890927538275717 39.945699423551559 74.03235998749733 15.140322610735891 572.96018603444099 60.017526641488075 25.668539866805077 18.859537288546562 11.741172447800635 19.967762112617493 20.949490994215012 55.081100031733513 38.299534678459167 28.808958396315575
leaf_count=4092 118 17494 765 405 131 433 161 77 127 801 103 163 99 74 724 222 774 92 903 299 111 127 78 140 217 621 388 110 474 191 129 65 128 127 82 83 2688 182 128 556 55 90 1581 459 353 49 62 126 67 188 250 84 1449 383 76 99 71 56 140 191 117 130
internal_value=0 -0.0319039 0.116599 0.00455859 0.0191925 0.0466977 -0.00667429 -0.0568989 -0.0314885 0.067465 0.0760293 0.0223415 0.0583842 -0.0381353 0.0226324 0.0125133 -0.0303788 0.127711 -0.0415507 -0.00475835 0.0545618 0.0731119 0.0222882 0.0370734 0.00607961 -0.00984902 0.0651178 0.0375778 0.00402422 0.0197917 0.0388966 0.0534532 -0.00323647 -0.0214567 -0.00612409 0.0522708 0.128898 0.0146145 0.0502693 0.0849091 0.0355533 0.0637 -0.0487049 -0.0388212 -0.0308006 -0.0222068 0.00795178 0.0500469 0.0136751 0.0486326 0.0764953 0.0390099 0.117305 -0.0218662 0.0536576 0.0327793 0.0282093 0.0686135 -0.0369249 0.107246 0.0942605 0.0686803
internal_weight=0 7109.87 1960.18 3781.81 3054.49 1480.36 1574.13 727.318 852.398 1166.16 980.132 186.024 626.183 791.277 721.731 582.897 314.207 1851.85 769.699 125.301 61.1209 444.727 181.455 109.678 67.7272 376.982 138.835 67.231 263.837 184.651 141.708 205.915 136.584 102.804 186.465 120.493 1831 114.35 50.7178 335.049 79.2794 107.1 644.398 368.71 295.649 75.1771 40.4553 67.6984 31.1145 109.474 90.3931 29.4086 606.6 235.098 77.1658 51.4972 42.3036 69.5284 39.7472 353.949 257.883 67.1085
internal_count=40758 35646 5112 18152 13855 6039 7816 4297 4561 4320 3426 894 2434 4323 3255 2736 1719 4347 4249 570 238 1565 869 484 344 1947 519 271 1326 852 630 789 731 603 945 501 4255 512 205 1081 330 418 3679 2098 1639 417 195 275 149 435 328 133 1567 1286 278 202 198 247 239 992 803 247
is_linear=0
shrinkage=0.05


Tree=2
num_leaves=63
num_cat=0
split_feature=47 7 7 47 5 13 56 3 3 58 54 8 56 8 4 10 8 4 17 13 56 54 14 57 8 17 6 16 16 13 0 13 47 3 2 4 42 43 8 52 47 0 16 56 8 46 8 54 16 47 55 3 0 46 3 42 13 43 3 3 13 6
split_gain=12096.8 3991.78 1434.27 966.935 612.727 679.952 565.443 283.438 267.178 199.726 188.273 179.381 148.87 131.758 175.036 126.699 106.953 108.377 98.4814 95.4352 94.0273 91.0424 89.3287 112.394 88.9062 87.2336 84.6772 74.3555 73.3389 83.9176 72.1792 70.1951 64.3546 58.9588 54.2968 50.5351 47.788 46.891 46.2037 44.8018 44.545 44.032 40.6227 39.318 40.8827 59.695 43.2712 39.1583 37.9605 36.8296 36.3235 35.6318 35.1034 34.1844 33.4541 32.681 56.4983 31.4792 35.256 31.0048 30.8609 29.178
threshold=3.5000000000000004 1.0000000180025095e-35 1.0000000180025095e-35 1.5000000000000002 3.6452656557304688 0.24819710000000003 0.034523549170020429 3.322984821403181 5.0600075185310258 7.2804566630883416 1.2056013010284097 12.081150000000003 0.39595005071928685 13.590950000000001 4607.1836761903469 1292.1688558500002 12.117950000000002 6428.0447133352272 0.21946200000000002 0.5183789000000002 0.034523549170020429 1.0018945110900384 19.846380000000003 0.64627817714440783 12.031450000000001 0.15999100000000002 0.63761142306193175 185.13000000000002 1.0000000180025095e-35 0.85300000000000009 1.8555367363075306 0.093935600000000022 5.5000000000000009 12.255556156697972 6770.2723769547592 6265.8555072265108 1.7833846560000592 1.7881696689023292 9.5744500000000006 370.79010427139809 2.5000000000000004 3.6490891886908075 84.430000000000021 0.064707153973244794 10.006050000000002 664.00161438472992 11.247700000000002 0.70626968415408053 236.02300000000002 2.5000000000000004 11.929551486199577 1.8653267584111111 8.3691358365532906 217.39971534626105 19.070257788792031 1.6882244061103788 0.79460050000000015 0.91513005775154432 1.9773782335191674 6.5827701216943479 0.082900000000000015 0.86091681143144905
decision_type=2 2 2 2 2 2 2 2 2 2 2 2 2 2 2 2 2 2 2 2 2 2 2 2 2 2 2 2 2 2 2 2 2 2 2 2 2 2 2 2 2 2 2 2 2 2 2 2 2 2 2 2 2 2 2 2 2 2 2 2 2 2
left_child=1 3 32 4 37 6 27 15 10 13 28 12 18 16 -15 19 17 21 31 -7 -10 -9 -13 -24 -11 -23 -18 -6 30 -30 -5 52 33 41 55 36 -25 -1 -31 -40 61 51 -28 -21 53 48 -47 -33 -46 50 -12 -2 -8 -45 60 -27 -57 58 -17 -39 -20 -32
right_child=2 -3 -4 8 5 7 11 9 20 24 49 22 -14 14 -16 57 26 -19 54 43 -22 25 23 35 -26 34 42 -29 29 38 40 47 -34 -35 -36 -37 -38 59 39 -41 -42 -43 -44 44 45 46 -48 -49 -50 -51 -52 -53 -54 -55 -56 56 -58 -59 -60 -61 -62 -63
leaf_value=-0.065572437955889462 0.090354185800974832 -0.07168731525518128 -0.071687312178706275 -0.05605551164146249 0.014647693328074871 0.079426336914477202 0.11481503907101204 -0.044586970206721865 -0.056938804352006711 0.072112709434731859 -0.049075426990380644 -0.03350192905491086 -0.063269390340282589 -0.046114215027692473 0.099099057948319663 0.056220997529196182 0.034493177979234395 -0.055167646096260126 0.087454889799844546 -0.075280059840158106 0.034030999360191355 0.070390439978432875 -0.049365733146455329 0.069667553248295641 -0.045656109337603695 -0.043316502073586928 0.021796119090037869 -0.067349793759984428 0.10132616535208326 0.098284644399124155 0.00047016484829222262 -0.016009772425409009 0.12283901698763054 0.020550852536590197 0.052364257913083648 -0.030093935057688599 -0.02031480149092418 -0.072362966876353949 -0.074704760335817952 0.050720309313812745 0.090550663173942725 0.11249361010708003 -0.060455257486669571 0.021582074487893718 0.039146627415205082 0.1052956696447182 0.010344640160696372 0.07132013694799598 -0.043427994150885989 0.042405849820622898 0.057089328444027955 0.0098879913787130649 0.053613958064617696 0.082633725519819956 -0.057338111652714678 0.036185858660217819 -0.033393354522576489 -0.065832427358628862 -0.06434352170796076 0.014337189027959066 0.0096640954506624147 0.078818895817510753
leaf_weight=428.28905013203621 53.210124149918556 3241.1277907043695 105.39411233365536 14.456142231822012 35.4274051040411 82.938180670142174 179.04155753552914 118.40800832211971 59.168408319354057 67.02072548866272 39.46592178940773 59.156536251306534 19.693332776427269 41.343269601464272 41.665143087506294 14.088245809078218 25.87623542547226 179.49801264703274 19.595968171954155 10.989119157195089 54.633514434099197 46.423308908939362 32.534347280859947 143.85835291445255 21.061578020453453 68.177244991064072 15.454125121235846 125.89329329133034 334.23904353380203 15.106480509042738 33.641092509031296 13.765249609947203 1466.3107436299324 21.577205941081047 34.684471473097801 17.054359391331673 16.441540092229843 15.11998528242111 13.773653224110605 14.738080844283102 63.512138664722443 354.69074557721615 524.06335090100765 56.110159680247307 18.126557856798172 18.888317734003067 32.896334886550903 190.19275246560574 59.947183787822723 30.524190276861191 10.123606890439985 18.555543839931488 26.957683563232422 38.771758645772934 11.334391638636587 56.483646392822266 60.345412045717239 45.205357298254967 10.645512655377386 32.425757005810738 36.49153745174408 18.373120561242104
leaf_count=2639 159 17541 763 91 147 281 443 606 366 220 252 353 106 246 122 52 108 973 58 74 225 165 198 511 133 381 78 709 937 44 181 72 3170 85 134 97 93 90 93 59 197 861 3472 258 79 52 147 640 360 131 39 79 98 126 58 247 355 243 54 160 167 66
internal_value=0 -0.0309379 0.107885 0.0038722 -0.00815206 0.00133913 0.035737 -0.0175477 0.0568588 -0.0287438 0.0704319 0.0536521 0.0714518 -0.0340252 0.026774 0.0199212 -0.0384937 -0.0230885 0.0770094 0.0332962 -0.0132664 -0.0081137 0.0207663 0.0360617 0.0439527 0.00811516 -0.0538616 -0.0493424 0.0816697 0.092814 0.0492734 0.0862192 0.117772 0.101187 -0.00504436 0.0517327 0.0604383 -0.0603428 0.027587 -0.00987093 0.0624536 0.105267 -0.0580992 0.0170659 0.0215813 0.00335262 0.0449778 0.0654262 -0.0242565 -0.000804517 -0.0274021 0.0695491 0.106806 0.0465297 0.0210099 -0.0158072 0.000246287 -0.0410199 0.00432953 -0.0132343 0.0368428 0.0281455
internal_weight=0 7035.27 2019.74 3794.14 3092.38 2616.55 927.438 1689.11 701.755 1300.5 587.953 766.118 497.072 1212.42 83.0084 388.607 1129.41 564.02 477.379 318.668 113.802 384.522 269.045 209.889 88.0823 266.114 565.394 161.321 507.84 377.857 129.982 409.957 1914.34 448.034 219.691 177.354 160.3 475.835 43.6182 28.5117 115.526 426.456 539.517 235.729 224.74 129.858 51.7847 203.958 78.0737 80.1137 49.5895 71.7657 205.999 94.8819 67.4219 185.006 116.829 69.9391 24.7338 47.5457 56.0875 52.0142
internal_count=40944 35827 5117 18286 15605 12716 3750 8966 2681 7240 2090 2894 1642 6887 368 1726 6519 2861 1536 1377 591 1888 1252 899 353 1282 3658 856 1668 1133 535 1253 4354 1184 1117 701 604 2889 196 152 444 1099 3550 1096 1022 638 199 712 439 422 291 238 541 384 283 983 602 349 106 250 225 247
is_linear=0
shrinkage=0.05


Tree=3
num_leaves=63
num_cat=0
split_feature=47 7 7 15 13 15 18 47 5 16 18 14 47 55 58 55 47 54 13 58 12 58 52 14 47 15 57 3 54 3 56 17 54 42 51 51 15 15 17 45 12 14 14 18 5 47 15 9 0 56 12 17 9 12 0 16 0 54 57 12 4 46
split_gain=10537.2 3875.06 1259.4 1143.98 738.559 802.736 408.517 216.724 164.256 179.453 158.214 154.074 146.646 136.166 93.7943 135.16 74.4015 172.934 75.6987 73.973 73.619 65.7999 62.7087 59.2982 57.3961 67.772 56.6973 53.611 49.7741 47.705 52.2447 45.8522 45.8181 42.222 40.9788 55.7188 40.8051 39.1691 38.3469 38.1092 35.6518 35.4625 68.9783 33.9272 33.4376 32.7159 38.7135 32.6747 32.2994 31.2762 29.9813 29.074 29.7356 28.6041 40.5861 27.3557 27.0852 26.2868 31.5894 37.213 28.531 26.7023
threshold=3.5000000000000004 1.0000000180025095e-35 1.0000000180025095e-35 0.081000000000000016 0.30593470000000006 2.4248501000000005 0.12901000000000004 2.5000000000000004 3.6139852525473928 226.00300000000001 0.039076700000000006 720.51700000000017 1.5000000000000002 1245.4639377539959 4.3687838244413468 11.787892070754488 1.5000000000000002 0.93125859790406174 0.10068400000000001 6.0155318167732839 0.00027900000000000006 1.7539612836190142 141.73955428884349 5.2121800000000009 5.5000000000000009 3.8986018000000002 0.79552825297113716 3.920025157000349 1.1754391771378594 15.606444230316162 0.25844709619170908 0.23963200000000004 1.1560024815404677 1.5685879623115357 6888.7100197000009 15550.589689650002 0.58001300000000022 1.3633321000000003 0.19910800000000003 0.072221577272942372 8.301000000000002e-05 19.846380000000003 1.4876480000000003 0.089896000000000018 4.4600040220182064 2.5000000000000004 0.76257860000000011 677.8275000000001 3.193618121281824 0.10506578006578009 2.1230000000000002e-05 0.18110800000000002 457.65522415000004 2.0010000000000003e-05 2.7559459421795043 99.067000000000021 5.4575437150183346 1.2483294934836806 0.72526325908672795 1.5344000000000004e-05 6428.0447133352272 1051.8843031513409
decision_type=2 2 2 2 2 2 2 2 2 2 2 2 2 2 2 2 2 2 2 2 2 2 2 2 2 2 2 2 2 2 2 2 2 2 2 2 2 2 2 2 2 2 2 2 2 2 2 2 2 2 2 2 2 2 2 2 2 2 2 2 2 2
left_child=1 3 24 7 5 8 10 -1 12 -10 20 14 55 22 15 21 17 38 -19 -16 39 43 33 -21 25 53 27 49 34 41 -31 -28 -22 -8 -7 44 40 -15 -11 -6 -35 42 -20 -12 47 46 -14 -36 -9 -23 -39 52 -44 54 -2 -5 -29 58 -38 -60 61 -61
right_child=2 -3 -4 4 6 28 13 48 9 16 11 -13 45 37 19 -17 -18 18 29 23 32 26 -24 -25 -26 -27 31 56 -30 30 -32 -33 -34 36 35 -37 57 50 -40 -41 -42 -43 51 -45 -46 -47 -48 -49 -50 -51 -52 -53 -54 -55 -56 -57 -58 -59 59 60 -62 -63
leaf_value=-0.061022999688145368 0.0081282827265787665 -0.070187027725313017 -0.070187031145738793 -0.071079240325962662 0.075794686626544205 -0.060440779867918751 -0.060584350376141287 -0.023669416770957352 0.09444562238689673 0.0091063861001632156 0.026503343750632236 -0.052539831061660602 0.052335096177586304 0.074162454502890732 -0.046807448733783952 0.076651082665837325 0.087506016255658708 0.084860818609530042 0.094725356249637335 0.0563539878645887 -0.037123606681265485 -0.012961767198033498 0.071149100982432059 -0.023609276581388006 0.11412566091336418 0.0019625113193164931 -0.029578092987905331 -0.05315368712270762 0.074711972712500102 -0.039032085857888935 0.053681647291122042 0.070258536945426386 0.044907491000627596 0.081376745797056088 -0.072928800674872216 -0.064364460366420878 -0.054592238145767261 0.040598823421415908 -0.058215179888634297 -0.0061689716397881015 -0.029451854515385831 0.064981709127870643 -0.057187768904848939 -0.045018757953020218 0.089163592156866436 0.079208566398221686 -0.047488822177466458 0.030034523010012755 0.06586688533447356 0.0634318825637991 -0.073776571193510873 0.064987452544485499 0.018417200794729655 0.10507397048371564 0.089590703784284728 0.0021091852404551705 0.02397103127707588 -0.071940718157756461 0.076031898752274618 0.0086282937831887972 -0.061046675671696832 -0.046456516687254458
leaf_weight=643.71926492452621 18.640988036990166 3155.934035629034 102.88936212658882 42.039241597056389 153.94712823629379 147.95874173939228 257.30552347004414 13.427579164505003 384.81289553642273 46.598684877157211 22.238092139363289 104.51744738221169 29.958023503422737 32.428030893206596 97.710923299193382 100.06478853523731 119.72794663906097 152.65722686052322 26.323617160320282 45.411934673786163 31.787182196974754 15.095884025096892 11.756116807460783 47.367921531200409 1475.4555205404758 19.254989862442017 65.276531174778938 19.039421856403351 9.0560004711151105 33.928801849484444 27.518879368901253 13.960121318697928 36.647453859448433 13.790391564369203 11.909425839781759 34.393841817975044 95.190600395202637 12.702185660600664 38.735887452960014 15.620626598596571 15.314778193831442 169.75517269968987 25.065078586339951 65.17819818854332 12.59342013299465 49.152927219867706 14.372013553977011 21.827132403850555 40.311365097761154 119.11995390057564 10.437870264053343 13.251617863774298 27.02968655526638 327.9481256455183 85.050860777497292 18.336174950003624 28.310911267995834 50.215736761689186 9.8977393358945829 64.71079258620739 38.181109458208084 33.332221299409866
leaf_count=4077 82 17538 765 319 508 954 1484 74 1028 217 100 644 118 104 556 341 342 452 70 164 160 83 39 271 3124 89 374 114 29 196 107 50 139 46 79 200 561 54 249 68 82 608 157 395 41 158 92 94 136 439 67 49 124 783 223 93 128 353 34 337 234 200
internal_value=0 -0.0292831 0.100251 0.00485858 0.0179386 0.0437934 -0.00522106 -0.0529699 0.0601814 0.0671554 0.0150983 0.0037376 0.0118891 -0.036122 0.0129458 0.0254353 0.0517253 0.0440872 0.0558485 -0.0164458 0.0505781 0.0107179 -0.0431727 0.0155295 0.109355 0.0937422 0.0233012 0.0387019 -0.0402543 0.0421312 0.00248906 -0.0119886 0.00680489 -0.0454982 -0.044807 -0.0161519 -0.0333917 0.0387015 -0.0214529 0.0682442 0.0230601 0.0514491 0.0263892 -0.026824 0.0196396 0.0511182 0.0199717 -0.00631281 0.0434947 0.0548395 -0.0109929 -0.00113879 -0.0179597 0.0978364 0.074946 -0.0488517 -0.00704058 -0.0390277 -0.0321786 -0.0175774 -0.0243788 -0.0100992
internal_weight=0 6936.95 2029.24 3781.02 3083.56 1457 1626.56 697.458 1219.26 1065.41 981.295 743.292 153.858 645.263 638.775 448.284 680.593 560.865 475.53 190.491 238.002 348.219 589.695 92.7799 1926.35 450.895 260.803 181.566 237.739 322.873 61.4477 79.2367 68.4346 577.939 228.683 80.7238 320.633 55.5681 85.3346 169.568 29.1052 261.425 91.67 87.4163 46.33 93.483 44.33 33.7366 53.7389 134.216 23.1401 65.3464 52.0948 431.64 103.692 60.3754 47.3503 291.528 241.312 146.122 136.224 98.043
internal_count=40796 35730 5066 18192 13905 5776 8129 4287 4379 3599 4534 3659 780 3595 3015 2024 2571 2229 1763 991 875 1683 3370 435 4301 1177 1188 764 1397 1311 303 424 299 3331 1368 414 1847 225 466 576 128 1008 400 495 214 368 210 173 210 522 121 330 281 1088 305 412 242 1719 1366 805 771 537
is_linear=0
shrinkage=0.05


Tree=4
num_leaves=63
num_cat=0
split_feature=47 7 7 47 5 13 56 10 3 3 8 56 54 55 8 8 4 4 4 3 17 16 13 13 14 8 8 42 16 17 8 43 55 47 13 55 3 8 47 3 8 55 4 55 42 2 52 42 3 45 43 3 42 12 17 45 17 6 53 5 16 12
split_gain=9749.23 3452.4 1103.26 722.256 532.686 516.886 466.918 249.112 207.554 186.842 144.999 115.305 112.783 102.9 94.5963 102.591 97.217 94.3684 91.5426 87.1883 79.6104 79.0009 91.4736 78.5195 73.9868 71.7048 68.5302 67.8986 61.0934 59.0158 57.8293 61.3699 55.9402 53.2679 52.7878 50.4465 47.9289 46.366 45.0779 44.6907 42.0283 41.6904 41.5735 37.1851 36.1315 35.6026 34.4187 34.0961 32.3179 31.7607 31.3245 31.3128 30.5408 37.0139 36.2779 30.4941 30.424 30.1906 29.7271 29.0466 28.4682 28.27
threshold=3.5000000000000004 1.0000000180025095e-35 1.0000000180025095e-35 1.5000000000000002 3.6452656557304688 0.24819710000000003 0.034523549170020429 1292.1688558500002 12.964221693955368 3.2797286524149212 12.081150000000003 0.39595005071928685 1.2409761896596552 1491.1062628903471 11.932100000000002 13.590950000000001 4409.7690756356724 6009.9910544746881 3703.3499513502625 16.460613975290318 0.19002340000000004 1.0000000180025095e-35 0.76818460000000011 0.38221350000000004 19.846380000000003 13.901550000000002 8.1647350000000021 1.0529070362571915 185.13000000000002 0.15432410000000005 9.5364500000000003 0.84275177640929788 8.6356183336947208 5.5000000000000009 0.093935600000000022 10.259620683448686 12.255556156697972 11.8375 2.5000000000000004 4.8100246294615401 9.7674300000000027 1068.3007129203995 5723.9099531532829 6.8886810152867222 1.1100986477872896 25903.965049983923 1662.9383726554634 1.5339729706936891 3.7668853853301982 0.032321007249034008 1.7881696689023292 2.0247967288798043 1.4184067020117934 9.0540000000000011e-05 0.019932000000000002 0.014490032881029636 0.17999810000000002 1.0200140100713373 0.68014594721832689 4.5269731882000945 240.01300000000003 6.6240000000000004e-06
decision_type=2 2 2 2 2 2 2 2 2 2 2 2 2 2 2 2 2 2 2 2 2 2 2 2 2 2 2 2 2 2 2 2 2 2 2 2 2 2 2 2 2 2 2 2 2 2 2 2 2 2 2 2 2 2 2 2 2 2 2 2 2 2
left_child=1 3 33 4 50 6 28 9 12 23 11 20 21 25 17 18 45 29 -16 24 34 27 39 -7 -12 26 -9 -5 44 -11 43 -32 -31 36 -8 -26 47 -15 48 -23 -24 -19 -22 60 -6 -17 -41 51 57 -44 -1 -2 -33 55 -55 -54 -37 -29 -42 -14 -25 -58
right_child=2 -3 -4 8 5 7 10 13 -10 14 19 -13 59 37 15 16 -18 41 -20 -21 42 22 40 30 35 -27 -28 38 -30 32 31 52 -34 -35 -36 56 -38 -39 -40 46 58 -43 49 -45 -46 -47 -48 -49 -50 -51 -52 -53 53 54 -56 -57 61 -59 -60 -61 -62 -63
leaf_value=-0.062406360686975804 0.078500232348394039 -0.06881873672640966 -0.068818741238877587 -0.064094265020214439 -0.057924416166551466 0.09574018473266295 0.095250483738422764 0.07147601291039786 -0.060312204830395601 0.08211966315474295 -0.027300267434829086 -0.056059450831097174 -0.027556075178212059 0.068542349570495334 0.075491396106920225 0.020654313312400682 0.090008252118894891 -0.042587756924310431 -0.049369528061046858 -0.042710282122012798 0.059098578053543328 0.089382084090968705 0.072895831068634967 0.078533277096450915 -0.032606603377092029 0.067150066693364319 -0.050323975546000869 0.0078100558485354899 -0.063874826633156884 -0.026745274872728382 0.063500566519460636 -0.065523987911927192 0.034735521562968601 0.1072342964941778 0.058627887297880599 0.065980312492514723 0.015926805020701686 -0.044610122755610472 0.07266034839963309 0.0081077209299007299 -0.03959105957224026 0.044993394557561663 -0.055614048215138039 0.08051371668141083 0.047843340903463365 -0.072778429592837618 0.08912772456550494 0.097787031471950281 -0.072240184121610457 0.028806418906385928 -0.018932275202433169 0.0019752652943393987 0.064592364025896479 0.06077913744663737 -0.039507200090201151 -0.0098894695460737987 0.062486208166957193 0.10211737292340239 0.057285163535983466 0.037562672037625283 -0.012933204060204824 -0.038484521458145231
leaf_weight=403.2298262566328 57.598019689321518 3054.9021487236023 98.421189814805984 16.825862795114517 12.452174589037893 41.53216977417469 201.54979774355888 11.784315392374991 41.054730534553528 38.425754234194756 43.448144167661667 19.600153475999832 45.478295758366585 30.245220884680748 15.430297404527662 19.725256875157356 30.809025079011917 98.52896648645401 301.67357338964939 49.57511080801487 45.606088131666183 326.83656367659569 21.717716261744499 12.558015599846838 18.286931201815605 13.864843338727949 577.24438351392746 39.616441547870636 122.82806810736656 56.911998361349106 36.502987325191498 20.534391418099403 105.74097129702568 1513.3621196299791 192.251594170928 123.34488008916378 22.091852813959122 12.921131923794745 62.692812219262123 32.766841620206833 29.330329656600952 15.76163165271282 19.998179405927658 54.667819902300835 22.968278959393501 21.104766011238098 21.849154129624367 361.12404407560825 9.5638396441936475 25.156031310558319 46.179897531867027 17.407768353819847 30.233066916465759 10.656988382339476 58.626434490084648 25.193789795041084 12.883267000317575 10.799814850091932 10.847412899136541 27.467547133564949 26.371370077133179 15.007603481411932
leaf_count=2617 168 17522 755 112 61 115 506 38 264 120 257 109 264 92 50 95 89 572 2057 304 155 883 71 43 104 45 3437 207 719 316 128 109 432 3156 653 424 85 82 201 150 173 61 109 168 86 144 62 850 69 90 254 73 112 41 348 137 45 30 40 125 144 86
internal_value=0 -0.0293884 0.0945563 0.00283409 -0.00768581 0.00102725 0.0310025 -0.0156044 0.0487486 -0.00022926 0.0471418 0.062833 0.0555761 -0.0399023 -0.0145783 -0.0310851 0.0229554 0.00576908 -0.0432938 0.0170104 0.0676421 0.0629117 0.0732374 0.0316547 0.0309121 -0.0452417 -0.0478872 0.0300949 -0.0471918 0.0263894 0.0219883 0.00554446 0.0132235 0.102712 0.0773715 0.0458318 0.0877762 0.034672 0.0430139 0.082386 0.016856 -0.0305096 0.0254267 0.053919 0.0106603 -0.0276404 0.0405198 0.0914156 0.0120267 -0.00858225 -0.0579391 0.0607399 -0.0090211 0.000282481 -0.0240814 0.0307373 0.0553163 0.0280119 -0.0134359 -0.0030358 0.0165725 0.00815557
internal_weight=0 6793.16 2070 3738.26 3041.42 2592.01 924.956 1667.05 696.847 1020.99 766.708 504.162 655.793 646.06 704.112 388.743 71.639 315.369 317.104 262.546 484.562 582.847 443.348 316.877 212.971 602.894 589.029 139.499 158.249 201.079 275.345 181.748 162.653 1971.58 393.801 169.523 458.222 43.1664 122.673 381.453 61.8955 114.291 90.7603 93.5972 35.4205 40.83 54.616 436.13 59.9801 45.1542 449.41 75.0058 145.245 124.71 69.2834 55.4269 151.236 50.4163 40.1777 72.9458 38.9294 27.8909
internal_count=40814 35727 5087 18205 15554 12683 3708 8975 2651 5281 2842 1622 2387 3694 3936 2435 328 1501 2107 1220 1513 1998 1379 1345 916 3520 3475 619 866 868 1230 875 748 4332 1159 659 1176 174 507 1095 284 633 354 355 147 239 212 1091 306 199 2871 241 747 638 389 249 555 237 213 389 187 131
is_linear=0
shrinkage=0.05


Tree=5
num_leaves=63
num_cat=0
split_feature=49 7 7 15 13 15 6 47 8 18 47 10 13 42 4 8 8 46 15 17 8 12 15 12 55 8 12 47 15 57 43 8 55 42 17 16 8 4 16 54 13 8 5 43 51 16 42 54 2 43 13 12 12 46 8 42 42 18 1 3 18 16
split_gain=8638.37 3337.97 1018.01 1006 599.395 654.689 302.777 136.551 132.732 163.335 110.481 236.482 166.822 108.134 90.3289 81.8127 79.6616 77.8146 73.1039 72.6913 64.6983 56.8053 56.1808 55.5554 52.8179 52.3528 50.2211 49.1124 58.5126 49.0918 47.4361 46.8424 45.4129 39.9963 39.5911 38.6284 35.1729 34.9325 84.9039 34.6119 37.2978 34.5019 35.5787 33.4052 33.193 36.551 32.3345 31.9837 31.4023 33.4023 31.1832 29.8332 28.0274 27.8129 28.5579 27.5096 26.9347 27.2566 26.8162 26.7705 26.48 26.4193
threshold=2.2500000000000004 1.0000000180025095e-35 1.0000000180025095e-35 0.081000000000000016 0.33129550000000002 2.6005697000000008 1.1780698931205256 2.5000000000000004 9.5364500000000003 0.039076700000000006 1.5000000000000002 160.00000000000003 0.12445990000000001 1.4489418048303926 6533.4872046718083 12.117950000000002 12.117950000000002 240.8987571146674 1.1207829000000002 0.15999100000000002 12.519600000000002 0.00014528000000000005 6.8884600000000011 8.301000000000002e-05 4.758916960339425 13.697300000000002 0.00046590000000000005 6.5000000000000009 6.066905600000001 0.69656539817108643 1.0695781784032374 13.901550000000002 7.168107907966081 1.4756461487412109 0.17361310000000005 241.25800000000001 10.823150000000002 3499.9573726155172 234.06600000000003 1.0018945110900384 0.44245390000000007 12.593550000000002 3.7197689585701568 1.9869148335917797 6710.5295283000005 260.72600000000006 1.7966685028311697 1.1764164982548497 12461.021552807777 0.97295601092677997 0.18421380000000001 1.3498e-05 4.2820000000000007e-05 212.44270781471158 8.6348600000000015 1.4283181300741241 1.602627170756924 0.018998400000000002 1.2285584317694902 3.7668853853301982 0.19709300000000005 261.22000000000008
decision_type=2 2 2 2 2 2 2 2 2 2 2 2 2 2 2 2 2 2 2 2 2 2 2 2 2 2 2 2 2 2 2 2 2 2 2 2 2 2 2 2 2 2 2 2 2 2 2 2 2 2 2 2 2 2 2 2 2 2 2 2 2 2
left_child=1 3 27 7 5 10 8 31 24 26 11 37 35 44 16 17 21 -11 -12 41 29 30 47 32 -6 -18 61 28 -2 59 -15 -1 -19 -20 52 -13 -34 -5 -39 -23 -41 42 -14 -25 -8 -46 58 -7 49 -31 -22 -16 -32 54 -26 -9 57 -43 -37 -21 -42 -10
right_child=2 -3 -4 4 6 22 13 55 9 15 18 12 19 14 51 -17 25 23 33 20 50 39 -24 43 53 -27 -28 -29 -30 48 34 -33 36 -35 -36 46 -38 38 -40 40 60 56 -44 -45 45 -47 -48 -49 -50 -51 -52 -53 -54 -55 -56 -57 -58 -59 -60 -61 -62 -63
leaf_value=-0.060169328598262267 0.088163457572761117 -0.06756721711759707 -0.067567215681481524 -0.068491949115589576 -0.0091433823505820584 -0.022492646998415081 -0.064659928364801209 -0.031259017844198732 0.086293478595963424 -0.05273575866205113 0.082071208805375481 0.093865450373767409 -0.038950152556402606 -0.052683689479780672 0.028058995133037223 -0.042751237878636876 -0.048731555774210664 0.0012764051444866631 -0.057893455617826266 0.046070576969961231 0.016535656621646092 -0.071394922079006259 -0.063661146127525617 -0.020477128477414661 0.08004962015470915 0.090877542414390181 -0.0037444530447347194 0.10225605785127163 0.001052024799091529 -0.016961821720186593 0.086062460001257127 0.05373200893248712 0.084490278523885881 0.043971260258985026 0.0032872736102436679 -0.0057879513351781174 0.02316810469345151 0.064147889937618885 -0.060916412866399719 0.083936674546585627 0.0038683927645348686 0.069861747176258801 0.086184014443421206 0.073236824437872147 0.040959175464911707 -0.059621930944327987 0.017309933506479528 0.073045410693739835 -0.012107932853191233 0.051882657643703728 -0.067136901090909099 -0.058987288174735732 0.031004597508111322 0.092409668932470601 0.0030385061486032606 0.05271722172484497 -0.020569382269415806 -0.012699973539581945 0.075607148663179524 -0.048923465954621541 -0.063231163647816585 0.042003342262332072
leaf_weight=605.61984322220087 630.93140161037445 2935.0389296412468 98.944083869457245 39.595937341451645 23.779421329498291 102.04210088402033 203.97830200195312 13.592070907354353 57.873007833957672 51.863859340548515 341.46467833220959 164.10340458154678 6.0897478908300391 15.468248575925825 10.724014811217783 135.18449907004833 101.64810296148062 65.494497299194336 13.077598109841345 9.9086039513349515 17.329093262553215 22.829769879579544 119.10971400141716 106.73467394709587 25.151577144861221 7.1901007294654837 38.950705707073212 1333.9403659999371 19.884518250823021 19.895523339509964 46.700100347399712 9.1631071567535383 49.515160530805588 36.620526775717735 49.181433692574501 10.820663020014761 44.308633260428905 23.862092807888985 31.465393625199795 10.983699634671209 52.596423387527466 40.303258806467056 84.505341827869415 10.43927815556526 16.909782454371452 19.389514498412609 34.742612421512604 9.5829084962606412 29.107442662119865 153.97037130594254 31.153103701770306 119.8544475287199 45.767373293638229 70.865874946117401 23.089120849967003 34.522652193903923 18.514066785573959 13.294036060571669 156.06770570576191 29.489119425415993 20.408698245882988 80.51175245642662
leaf_count=4025 1523 17417 776 316 127 582 1204 78 167 335 941 395 36 93 50 883 713 335 74 37 83 128 795 549 72 19 168 2727 88 95 149 34 141 140 252 51 198 77 227 35 256 133 234 34 77 126 148 29 148 553 212 746 207 188 107 119 105 71 453 166 125 293
internal_value=0 -0.0276863 0.0889591 0.00372527 0.01581 0.0378637 -0.00636955 -0.0521232 0.0153146 0.00559891 0.0515872 0.0420724 0.0507283 -0.029224 -0.0160507 -0.0100137 -0.00351466 0.00346433 0.0738249 0.0304681 0.0154968 0.011328 -0.0397767 0.0140062 0.0588917 -0.0395087 0.0464091 0.0967623 0.0855019 0.0260439 0.0304542 -0.0584717 0.0332272 0.0171665 0.0395329 0.0758535 0.0555307 -0.0326375 -0.00697765 -0.0168042 -0.00196534 0.0572308 0.0777726 -0.012128 -0.0568203 -0.0127669 0.061194 -0.0142908 0.0359579 0.0440048 -0.0372296 -0.0518384 0.0588112 0.0724748 0.0431903 0.0289945 0.0314236 0.0493835 0.0703297 -0.0250323 -0.0148894 0.0605256
internal_weight=0 6661.44 2083.7 3726.4 3063.51 1536.12 1527.39 662.898 783.762 640.876 1305.38 914.218 819.294 743.63 503.352 463.541 372.774 328.356 391.163 453.56 290.853 263.936 230.735 276.492 142.886 108.838 177.335 1984.76 650.816 242.371 157.117 614.783 159.318 49.6981 141.649 365.734 93.8238 94.9234 55.3275 106.819 83.9888 162.706 90.5951 117.174 240.278 36.2993 201.631 111.625 202.973 173.866 48.4822 130.578 92.4675 119.107 48.2407 48.1147 72.1114 53.5973 166.888 39.3977 73.0051 138.385
internal_count=40665 35551 5114 18134 13878 6101 7777 4256 3597 3103 4695 3540 2920 4180 2773 2475 1977 1592 1155 1873 1294 1245 1406 1257 494 732 628 4338 1611 999 701 4059 674 214 608 1047 339 620 304 544 416 579 270 583 1407 203 652 611 796 648 295 796 356 367 179 197 309 204 504 203 381 460
is_linear=0
shrinkage=0.05


Tree=6
num_leaves=63
num_cat=0
split_feature=49 7 7 15 13 15 10 49 18 8 5 16 56 49 14 8 8 53 58 4 14 12 49 15 56 49 6 3 12 8 55 12 54 17 15 8 16 48 56 55 12 51 8 12 48 12 14 12 51 8 56 14 14 13 4 6 50 54 45 6 52 8
split_gain=7878.88 3111.29 902.654 874.101 562.914 577.136 314.981 184.383 133.605 204.896 103.392 138.911 102.212 81.979 81.6122 76.27 66.7884 63.2182 63.4774 55.4487 53.3736 51.7997 50.6411 54.7351 48.3719 104.928 47.3709 46.287 45.7053 77.8071 55.0902 40.237 40.0221 40.9434 39.3538 36.7848 33.3557 43.6937 32.8078 32.8076 32.2372 41.8873 41.5552 31.7931 30.5078 28.9618 28.8828 28.5746 33.7117 27.8049 27.7552 27.6076 26.2634 26.1995 38.4185 25.2957 25.2794 42.1644 25.1196 24.5048 23.5078 22.9878
threshold=2.2500000000000004 1.0000000180025095e-35 1.0000000180025095e-35 0.081000000000000016 0.30593470000000006 2.6005697000000008 1292.1688558500002 1.7500000000000002 0.039076700000000006 10.006050000000002 3.8349263118938266 226.00300000000001 0.095332241430693007 1.7500000000000002 690.58800000000008 11.585850000000002 13.901550000000002 0.1264925586947668 7.2804566630883416 5941.580238177924 19.846380000000003 0.00031060000000000007 3.7500000000000004 5.1803200000000009 0.10719042839703732 1.2500000000000002 1.8844793687576122 15.403112961762231 8.301000000000002e-05 12.117950000000002 7.3337883776332342 2.0010000000000003e-05 1.2042223043649993 0.16008270000000005 6.8884600000000011 13.901550000000002 99.067000000000021 1.2500000000000002 0.15255829077894315 11.001935745321591 7.6040000000000012e-06 8791.7397768500032 9.2711300000000012 0.0063910000000000008 1.7500000000000002 1.4170000000000002e-06 121.41100200000001 0.0023010000000000005 953.45720828333344 9.5744500000000006 0.25844709619170908 5.4170100000000012 493.20779000000005 0.16560760000000002 5496.4060248766136 1.0200140100713373 1.2500000000000002 1.1531903416080744 0.01605635804869664 1.0810056902623557 269.9026583789053 12.440000000000001
decision_type=2 2 2 2 2 2 2 2 2 2 2 2 2 2 2 2 2 2 2 2 2 2 2 2 2 2 2 2 2 2 2 2 2 2 2 2 2 2 2 2 2 2 2 2 2 2 2 2 2 2 2 2 2 2 2 2 2 2 2 2 2 2
left_child=1 3 22 7 5 10 8 35 21 12 13 -12 -10 36 19 24 17 18 40 28 51 -6 23 45 25 -13 47 39 29 30 38 -20 33 -30 44 56 37 -5 -11 -22 41 42 -8 -23 52 59 -31 48 49 -14 -29 61 -7 -26 -55 -39 -1 -58 -41 -2 -35 -17
right_child=2 -3 -4 4 6 34 16 -9 9 14 11 15 26 -15 -16 20 -18 -19 31 -21 27 43 -24 -25 53 -27 -28 50 32 46 -32 -33 -34 60 -36 -37 -38 55 -40 58 -42 -43 -44 -45 -46 -47 -48 -49 -50 -51 -52 -53 -54 54 -56 -57 57 -59 -60 -61 -62 -63
leaf_value=-0.060486638781688452 0.072038215531115987 -0.066419458956774591 -0.066419459101237588 -0.065294170886980307 0.059141915980248309 -0.047688648961161297 0.065092647091493275 0.040589919643954198 -0.048945972038081466 0.040152184817640379 0.079404292054025716 -0.032345805761256716 0.055059579278560658 0.06495950445487729 -0.056589854659819444 0.03118786133478775 0.064152290203548554 0.063699024391769651 0.072548893447774807 -0.03629731705231122 -0.01455173578285188 -0.020795498499062651 0.097114228554497986 0.00087499134614847846 0.078586311813149443 0.066220862877024625 -0.035316835370303903 -0.053204809004712965 0.020670834974250762 -0.069426255049921601 0.056607637293789696 -0.041686157147273667 -0.068641957799788808 -0.045225285885632453 -0.059287638652947242 0.042923468192674348 0.025817026926068444 -0.01909762311041531 -0.043233356518671162 -0.0095266522292473746 -0.053394560849598476 0.071568038917427926 -0.052577436655400468 0.073843127815811357 0.052676530827200474 0.08811496260772797 0.014153686491139553 -0.0082230283578600925 0.085723904656421851 -0.0053591492935991282 0.037620232355678858 -0.055544790422621365 0.0064354217844977612 0.085274244924772785 0.021230397960282591 0.063587542902568114 0.071127526777288702 -0.068233145912250159 0.060469920180596375 0.015974618479708665 0.044054236753548665 -0.05367773526749775
leaf_weight=577.60254970937967 102.42319965362549 2861.6609626859426 94.766650393605232 38.256105810403824 159.53416541218758 58.56828535348177 8.9274465069174749 52.614159181714058 30.422472417354584 20.406697899103165 393.34951230883598 43.650534063577652 100.61847627907991 57.582343772053719 101.23967520147562 30.741897970438004 15.670491829514502 14.130516320466993 18.504043772816662 123.00843988358974 20.023258447647095 38.693184927105904 1334.4565481990576 21.081785529851913 179.82531777769327 70.78473336994648 15.72813832759857 21.439378671348095 72.749563969671726 28.458048686385155 103.34754142165184 13.21257548779249 30.272675044834614 57.372602008283138 110.23140216618776 9.0778849422931653 48.50135587900877 27.36217825114727 27.955760687589645 14.193065106868742 407.43707669526339 11.344040408730505 47.022171415388584 11.515400990843771 13.765520244836805 506.58037208020687 16.232526801526546 16.745113536715508 77.093485586345196 23.487286135554314 13.842413946986197 27.341482132673264 36.308406077325344 38.638483993709087 59.44028240442276 13.973513290286062 9.8303197622299212 12.118484951555727 132.23798270523548 24.071514338254929 8.4603269100189191 10.776694625616072
leaf_count=3961 272 17552 771 312 524 381 29 201 186 92 1017 273 357 180 703 131 48 50 58 754 109 179 2726 93 483 207 80 134 357 212 369 72 218 350 745 34 206 150 175 75 2496 43 272 38 56 1170 92 72 216 125 56 180 173 102 232 48 45 87 438 85 31 73
internal_value=0 -0.0272203 0.0843432 0.00292073 0.0141842 0.0366232 -0.00630838 -0.0492098 0.00944792 0.000662517 0.0498165 0.055865 0.0372619 0.0154074 -0.0157338 0.041898 -0.037552 -0.0406135 -0.0435239 -0.00726248 0.0214768 0.0452023 0.0915278 0.0801317 0.0559825 0.0286233 0.0484855 0.0344505 0.00251568 0.0189156 0.0359964 0.0249606 -0.0165595 -0.00518236 -0.0382395 -0.0569727 -0.00686806 -0.0267856 -0.00804855 0.045477 -0.0480994 -0.016039 -0.0338017 0.000909987 -0.0168835 0.082771 -0.0390683 0.0545332 0.0597562 0.0436252 -0.0175706 -0.0165317 -0.0269759 0.0672484 0.0464607 0.00885406 -0.0584853 -0.00581699 0.0536854 0.0613695 -0.0337518 0.00915988
internal_weight=0 6583.33 2083.38 3721.67 3060.42 1460.83 1599.59 661.243 1063.34 853.599 1241.96 1056.29 264.095 185.675 589.504 662.936 536.248 520.578 506.447 488.264 270.596 209.743 1988.61 654.157 392.339 114.435 233.672 201.736 365.256 196.401 151.71 31.7166 168.855 138.582 218.874 608.629 128.093 79.5918 48.3625 166.454 474.731 67.2937 55.9496 50.2086 108.642 633.075 44.6906 217.944 201.199 124.106 35.2818 68.8601 94.8767 277.904 98.0788 41.3357 599.551 21.9488 146.431 126.495 65.8329 41.5186
internal_count=40956 35839 5117 18287 13959 5761 8198 4328 5130 4389 4406 3510 1036 896 3353 2493 3068 3020 2970 2650 1196 741 4346 1620 1297 480 850 812 1896 940 636 130 956 738 1355 4127 716 510 267 622 2840 344 301 217 610 1527 304 770 698 482 190 384 554 817 334 198 4093 132 513 357 381 204
is_linear=0
shrinkage=0.05


Tree=7
num_leaves=63
num_cat=0
split_feature=7 47 15 15 57 12 47 14 0 8 47 15 20 55 55 17 54 6 8 4 15 6 54 4 15 55 10 16 8 54 12 0 46 4 54 9 55 15 12 2 12 8 1 16 16 8 52 42 46 12 4 43 8 10 8 42 8 6 14 16 8 0
split_gain=7312.17 4060.14 812.965 378.344 231.366 175.555 159.398 151.784 135.855 117.191 111.452 140.789 105.58 137.769 100.7 83.5608 81.4657 63.3469 61.2258 57.6972 54.7866 50.6531 50.5046 50.4402 50.3806 76.1871 49.5633 49.4182 45.8173 45.5919 41.2008 50.3509 38.0795 44.3504 35.4854 34.7871 37.2608 35.3145 36.9914 34.3879 33.0467 32.1086 33.442 30.9537 29.7962 41.9451 64.2358 39.6578 29.4403 31.1478 27.6579 27.1933 29.6334 27.0996 26.5022 37.2026 26.1242 26.018 25.084 24.9204 24.3559 25.2941
threshold=1.0000000180025095e-35 2.5000000000000004 0.10060950000000002 4.1518840000000008 0.79071113278094052 1.2206000000000001e-05 1.5000000000000002 46.865400000000001 1.4509022779147427 9.5744500000000006 5.5000000000000009 9.1850000000000023 9.9000000000000021 1359.7767585875129 11.787892070754488 0.15333890000000003 0.75496055481845381 1.1647332076703663 11.585850000000002 4478.0609303615884 1.3633321000000003 1.4348878067225475 1.1660255490427989 5297.3913327819355 0.73156200000000016 4.405362721445873 1520.2498510500002 1.0000000180025095e-35 10.638700000000002 1.0018945110900384 2.0040000000000002e-06 2.7559459421795043 8976.9184698948175 6276.1446695390323 1.233537559396966 435.47872950000004 268.76273556509744 0.40000490000000005 0.00030010000000000003 6939.6507989340771 0.0012271000000000003 12.498550000000002 2.3335514220305753 246.02500000000003 1.0000000180025095e-35 9.1079005000000013 294.0962176123744 0.94415154896775377 482.56163984280278 1.8412000000000003e-05 6040.0065416071457 0.95030559177677898 12.150050000000002 536.50000000000011 11.275700000000002 1.6667069958410801 9.0591950000000008 2.033091016207496 193.30617000000004 246.02500000000003 12.117950000000002 10.994990000000003
decision_type=2 2 2 2 2 2 2 2 2 2 2 2 2 2 2 2 2 2 2 2 2 2 2 2 2 2 2 2 2 2 2 2 2 2 2 2 2 2 2 2 2 2 2 2 2 2 2 2 2 2 2 2 2 2 2 2 2 2 2 2 2 2
left_child=1 2 -1 4 5 8 7 12 17 21 11 30 13 35 15 32 -10 41 57 -20 -15 -6 -5 34 -8 -26 -22 -21 -27 60 31 -3 33 -9 -11 36 37 38 -7 -19 54 42 -4 -24 47 -46 -47 -32 -38 -50 56 -29 -53 -51 -31 -56 -17 -18 -54 -42 61 -16
right_child=-2 10 3 22 9 6 24 14 16 23 -12 -13 -14 20 29 50 18 39 19 27 26 -23 43 -25 25 28 -28 51 -30 40 44 -33 -34 -35 -36 -37 48 -39 -40 -41 59 -43 -44 -45 45 46 -48 -49 49 53 -52 52 58 -55 55 -57 -58 -59 -60 -61 -62 -63
leaf_value=-0.055738301045077966 -0.065364319699331333 -0.013133547859229065 0.060117425180064188 -0.049433723273975987 0.053358716089686654 0.073809790026802408 0.063598103274832549 0.046560975147486021 -0.041466243840799881 0.035390016445655731 0.091710266152977449 -0.059932524863246697 0.071402771877697988 0.056167157240024426 0.050372371455241066 0.042077513821151567 0.084469058677060296 -0.062361711263440783 0.094806564481413239 0.10189948222498046 -0.061259317338742993 -0.040699274270595769 0.060062639666950191 -0.052158649099672827 -0.029686071959824575 0.094119414305255791 0.037593029162401349 -0.04859904721933319 0.0045770083033301445 0.072749449347349213 -0.022450824496524482 0.062382741671915258 -0.034285830376978001 -0.049639880415314551 -0.036382761207075669 -0.057819405678253992 0.077788668003965972 -0.056769311743830334 -0.034445137293744613 0.038390536484987851 0.056547743327167124 -0.033570098766581145 -0.022296163285997726 -0.026985770670047295 0.090954258533859175 -0.042433217491438337 0.07404355901242024 0.066803550839556844 0.077834760336114292 0.053314435514777582 -0.041352622075331413 0.054984383815339648 -0.04811219439883721 -0.031927816565607309 0.058387338819136769 0.0046759462270881185 -0.012557232306561078 0.025563391823719275 0.02416147138375184 -0.048426530990078882 -0.050654924604315615 -0.037148731531730657
leaf_weight=586.08826961368322 2850.1157635897398 27.587770655751228 57.92095760256052 281.09865169227123 59.763648331165314 11.684372767806051 175.96260774880648 141.94258400052786 19.057503819465637 32.822823204100132 1534.5733355879784 20.792140476405621 32.868437185883522 65.903582103550434 24.94978841394186 25.727314978837967 230.54568925499916 40.507377043366432 36.974678635597229 17.284868597984314 25.947194948792458 18.821696527302265 17.53048150986433 190.19830217212439 44.572199866175652 34.436330273747444 24.799557484686375 16.343517974019051 24.414509162306786 108.88424831628799 13.530254468321798 110.42636200785637 20.3627854809165 13.085086919367312 36.231342934072018 124.13537005335093 10.333089187741278 103.91718552261591 24.308191202580929 10.707818411290644 9.264157563447954 17.039277084171772 15.631302796304224 24.464262619614601 374.1480410695076 15.140699058771132 54.246614545583725 155.22352424263954 8.8577762991189939 10.718231074512003 71.685724981129169 38.002149194478989 19.39031882584095 71.666922606527805 94.301414519548416 48.985646530985832 146.30693838745356 20.40475944429636 31.522277846932411 14.506604246795176 17.099624924361706 12.337524443864821
leaf_count=4099 18290 127 187 1763 207 38 533 522 101 140 3191 127 95 215 88 98 588 268 101 35 163 111 69 1271 254 83 95 112 109 314 66 317 124 78 212 758 40 744 158 36 34 98 77 140 837 83 151 435 32 43 447 132 125 434 327 231 799 78 135 87 105 59
internal_value=0 0.0328147 -0.00222859 0.00906782 0.0157665 0.0219031 0.0131408 0.00558951 0.0455822 -0.0226564 0.0839178 0.0684098 -0.0153042 -0.0212136 0.0199512 0.00367976 0.0595915 0.00314865 0.0642834 0.0400627 0.0260985 0.0308312 -0.0417929 -0.0388698 0.0473202 0.0196252 -0.0129509 0.023545 0.0569724 0.0405958 0.0719664 0.0472877 0.0299976 0.0384412 -0.00226773 -0.0363084 -0.0252507 -0.0419855 0.000697981 -0.0412969 0.0488425 0.0282756 0.0426029 0.00935212 0.0775291 0.0843326 0.0486277 0.0596474 -0.00220024 -0.0112588 -0.0152596 0.0106781 0.0215739 -0.0208379 0.054155 0.040025 -0.00438674 0.0796794 -0.00336432 -0.007515 -0.00124522 0.0214136
internal_weight=0 5667.99 3362.32 2776.23 2453.14 2115.3 1543.97 1264.58 571.332 337.838 2305.67 771.095 515.14 482.271 749.439 419.11 429.526 141.807 410.468 159.518 116.65 78.5853 323.093 259.252 279.386 103.423 50.7468 122.543 58.8508 330.329 750.303 138.014 175.39 155.028 69.0542 365.621 241.486 139.91 35.9926 51.2152 275.942 90.5915 73.5523 41.9947 612.289 443.535 69.3873 168.754 101.576 91.2429 243.72 105.258 88.9147 82.3852 252.171 143.287 172.034 250.95 50.9126 23.7708 54.3869 37.2873
internal_count=40816 22526 17192 13093 11121 9180 7107 6128 2073 1941 5334 2143 2815 2720 3313 2068 1407 666 1306 640 473 318 1972 1623 979 446 258 539 192 1245 2016 444 724 600 352 2247 1489 940 196 304 993 362 264 209 1572 1071 234 501 549 509 1344 504 392 477 872 558 897 666 260 121 252 147
is_linear=0
shrinkage=0.05


Tree=8
num_leaves=63
num_cat=0
split_feature=7 47 15 15 13 10 5 48 15 16 8 18 8 12 8 15 58 42 0 3 8 15 55 14 12 0 54 13 8 47 17 43 3 15 55 46 8 4 4 8 15 46 12 0 14 0 55 0 8 12 13 43 0 2 48 12 15 9 15 55 0 3
split_gain=6691.97 3604.98 784.153 364.364 431.927 199.677 153.474 112.899 135.186 106.833 96.3774 121.478 73.0767 67.8842 59.4932 71.5202 57.3975 55.9796 55.1502 52.7102 62.601 62.0829 46.645 45.7432 44.5691 47.5784 43.8443 42.4335 41.1673 38.1746 37.621 36.5812 63.6831 35.8466 32.6742 32.5736 35.8255 32.4646 32.1743 31.1284 28.4296 27.9029 27.2058 26.99 37.1418 26.9446 26.9416 31.6394 26.6182 25.2009 25.028 24.2177 24.1718 24.0921 50.5952 23.7795 36.0592 26.126 23.6584 23.4691 23.1742 62.1598
threshold=1.0000000180025095e-35 2.5000000000000004 0.10060950000000002 4.1518840000000008 0.33129550000000002 1292.1688558500002 3.5148458513240808 3.2500000000000004 9.1850000000000023 224.10000000000002 10.006050000000002 0.033149400000000002 12.117950000000002 9.0540000000000011e-05 12.081150000000003 2.2576400000000003 2.0325231334773091 1.7833846560000592 17.307073264190063 13.783788954374227 11.228100000000001 0.28024300000000008 1245.4639377539959 19.846380000000003 2.0040000000000002e-06 2.7559459421795043 1.1572581083805435 0.95358250000000011 13.516300000000003 1.5000000000000002 0.014005900000000002 0.93274800656792289 3.4896143210444284 1.1344514000000003 1359.7767585875129 79.25275419991307 9.5102400000000014 6232.4740652145347 6047.3838525477631 13.901550000000002 0.76257860000000011 3033.0166555669584 0.00086612574000000011 1.6494891229766633 636.47318000000007 9.1331385907081977 5.2938223138373468 52.295849410679246 10.735350000000002 1.8412000000000003e-05 0.9081623000000002 1.0132359352946403 0.82144327092838842 612.06907988318233 1.2500000000000002 5.1770000000000006e-06 1.5810265000000003 729.96100000000013 0.71000900000000022 12.799875439676713 5.3922656791707455 13.235982623875184
decision_type=2 2 2 2 2 2 2 2 2 2 2 2 2 2 2 2 2 2 2 2 2 2 2 2 2 2 2 2 2 2 2 2 2 2 2 2 2 2 2 2 2 2 2 2 2 2 2 2 2 2 2 2 2 2 2 2 2 2 2 2 2 2
left_child=1 2 39 4 6 10 29 8 24 55 16 42 13 38 15 18 35 23 31 21 -21 -7 46 -16 25 52 -20 41 -22 51 -29 32 53 -26 -23 -6 -37 43 45 -1 -31 -5 50 44 -25 49 48 -48 -15 59 -12 -4 -3 54 -11 -8 -57 -58 -51 -13 -33 -62
right_child=-2 7 3 27 5 19 9 -9 -10 14 11 12 -14 22 17 -17 -18 -19 26 20 28 34 -24 37 33 -27 -28 30 -30 40 -32 60 -34 -35 -36 36 -38 -39 -40 -41 -42 -43 -44 -45 -46 -47 47 -49 -50 58 -52 -53 -54 -55 -56 56 57 -59 -60 -61 61 -63
leaf_value=-0.056843030337716455 -0.06439215497746538 0.045473556711374319 -0.065907873296705929 -0.064719717119462825 -0.057832287485255651 0.038803464023796717 0.088334302028342221 0.08761427446451707 -0.062935809644953558 -0.015611037966296443 0.062606934669057854 0.0056746984896914043 -0.039891751892325258 -0.05290695990183391 -0.024115430801543838 -0.032294930675392311 0.053504747244944584 -0.057595735291636613 -0.038513475899620619 0.052096848219576775 -0.0467156441144784 -0.053826498116571322 0.080338486298236755 0.058190182462750456 0.078726255086679423 0.057020929668041946 0.079860574365170495 0.074921771742073276 0.07797025144932182 0.039520687443873145 -0.023971910201401936 0.06812866623486627 -0.025761478272264233 0.044194535893609527 0.022946401042594326 0.041176956541161124 -0.051798291455582957 -0.026220317222809954 -0.026695073968019168 0.039315353245423609 -0.041734098118501192 -0.028266335164527808 -0.00355307875496299 0.052079984346522723 -0.077816243294145215 0.071466046032942029 -0.050573568855627686 0.037715539317289194 0.041140213108005357 -0.037616140042902618 0.00051814976031074175 0.0056452266944227282 -0.049662692190400065 0.095922298409728712 0.06970847373632684 0.066474502522350709 -0.037407251516590995 0.052275914837546691 0.022412050619460919 0.075638447343611859 0.064684583968607628 -0.03247048348656574
leaf_weight=560.95923768728971 2742.3981011509895 10.442286521196367 43.190006665885448 154.70206993818283 18.193735986948013 21.176650077104568 93.38419346511364 1521.2215179800987 20.483379565179348 28.1762770190835 90.591113671660423 20.194684013724327 164.81797366589308 11.416277170181273 44.974775180220604 30.714871250092983 157.58308398723602 26.276784770190716 31.166368499398232 34.853486217558384 54.649643629789352 271.95075539499521 10.164324879646299 9.8781433105468768 487.1554561406374 105.21132726967335 10.443635269999502 11.110479295253752 7.5324426293373099 33.264462172985077 71.535623587667942 242.96189718693495 37.689373567700386 88.862837359309196 14.603114545345305 43.440316990017891 13.606093235313891 19.85527803003788 29.10051503777504 8.5445354431867582 15.915555439889429 79.455817170441151 28.190500557422638 110.62323605269194 10.206294298171995 31.996066227555275 103.40050680190325 11.251565583050249 22.065172806382179 25.64223113656044 19.773517891764641 16.283940300345421 18.514418736100197 22.712209150195122 45.332119405269623 196.50185270607471 15.471189789474009 17.092086479067802 45.609421201050282 29.490254148840904 58.391865968704224 22.927791118621826
leaf_count=4063 18236 39 372 1070 126 82 210 3197 130 164 283 100 1165 78 277 171 533 179 180 137 392 1727 27 37 1186 302 29 34 21 124 400 671 197 298 57 165 84 116 181 32 107 481 126 386 66 104 642 53 101 156 79 88 97 51 121 539 83 51 201 89 180 107
internal_value=0 0.0309304 -0.00194701 0.00899727 0.0154852 -0.00463064 0.0372645 0.0798553 0.0637014 0.0429895 0.00878246 -0.00118868 -0.0125644 0.00066995 0.0326693 0.0417609 0.0363504 0.0109245 0.046312 -0.0336769 -0.0015451 -0.0438089 -0.0232765 0.0201325 0.0673539 0.0414005 -0.00880294 -0.0414787 -0.0316118 -0.0193663 -0.0106772 0.0513172 0.029332 0.073399 -0.0499141 0.000422411 0.0190015 0.0333498 0.021494 -0.0554003 0.0132251 -0.0523501 0.0402852 0.0423988 -0.0109241 0.0306636 -0.0303862 -0.0419092 0.00907265 0.0198685 0.0514828 -0.0463167 -0.0153549 0.050912 0.0370049 0.0670684 0.0583988 0.0096664 0.000808948 0.0472013 0.0603958 0.0372921
internal_weight=0 5602.93 3351.04 2781.53 2464.73 1281.29 1183.43 2251.89 730.67 1074.78 876.527 643.704 505.149 340.331 752.331 530.516 232.823 221.815 499.802 404.766 97.0356 307.731 158.298 195.538 710.186 134.168 41.61 316.804 62.1821 108.654 82.6461 458.192 133.91 576.018 286.554 75.2401 57.0464 150.563 182.033 569.504 49.18 234.158 138.555 130.708 20.0844 152.933 148.134 114.652 33.4814 120.937 110.365 59.4739 28.9567 96.2206 73.5084 322.449 229.065 32.5633 71.2517 49.6849 324.282 81.3197
internal_count=40780 22544 17295 13200 11215 6709 4506 5249 2052 3815 4293 3385 2897 1732 2932 1871 908 1061 1700 2416 550 1866 901 882 1922 438 209 1985 413 691 434 1491 533 1484 1784 375 249 605 831 4095 231 1551 488 489 103 650 874 695 179 546 362 460 136 336 285 883 673 134 357 189 958 287
is_linear=0
shrinkage=0.05


Tree=9
num_leaves=63
num_cat=0
split_feature=7 47 15 13 15 10 5 47 15 18 8 16 12 58 8 8 4 0 4 8 58 8 20 3 52 0 51 2 47 3 54 52 44 43 8 12 15 10 18 15 54 16 9 58 54 57 3 8 5 45 15 9 0 43 13 8 12 58 18 54 15 4
split_gain=6274.09 3261.59 700.558 322.227 376.08 227.723 139.646 109.373 118.127 106.37 162.96 95.8572 81.4155 54.5411 50.5414 46.8887 46.5907 45.9401 43.658 42.5063 42.3648 40.1443 38.9382 37.3415 35.838 34.8623 34.1446 39.9297 34.0987 32.9311 31.2839 28.5836 27.4788 28.1699 27.3344 26.8131 26.6367 26.4507 26.2828 46.8015 25.3973 24.7056 25.5678 39.4098 24.0385 25.3565 31.7374 72.984 38.5152 27.6925 23.8771 30.5649 23.7989 23.6029 22.6441 22.3718 22.1924 25.8612 24.084 21.7769 20.6497 23.6529
threshold=1.0000000180025095e-35 2.5000000000000004 0.10060950000000002 0.30593470000000006 2.6005697000000008 1292.1688558500002 3.5148458513240808 5.5000000000000009 9.1850000000000023 0.033149400000000002 11.932100000000002 241.25800000000001 0.00010830000000000002 7.2804566630883416 13.901550000000002 12.231050000000002 6296.0277972204431 13.122595688491431 5176.0045657345372 9.1079005000000013 3.8729064097669936 10.006050000000002 8.7000000000000011 9.6786860530675032 85.863246387086249 1.3999331723604189 6888.7100197000009 12186.267186682158 1.5000000000000002 1.7712325730672696 1.0018945110900384 206.70590643287798 6.9745411407351368 1.2567123015454051 8.1647350000000021 5.1770000000000006e-06 0.76257860000000011 1030.9747259000003 0.17783170000000001 1.7758050000000003 1.1506257208867139 231.39500000000001 24.420000000000005 2.5964686901478378 1.185430248589151 0.70073319401094025 14.210440744714047 10.674000000000001 4.5370037744007981 0.021982263478494999 1.5810265000000003 979.72700000000009 4.0664683280719425 1.1861041015860991 1.0842421000000002 13.901550000000002 1.1813000000000002e-05 7.0214593952301323 0.10004020000000001 1.1839079743223577 1.4804870000000003 3703.3499513502625
decision_type=2 2 2 2 2 2 2 2 2 2 2 2 2 2 2 2 2 2 2 2 2 2 2 2 2 2 2 2 2 2 2 2 2 2 2 2 2 2 2 2 2 2 2 2 2 2 2 2 2 2 2 2 2 2 2 2 2 2 2 2 2 2
left_child=1 2 55 4 6 9 28 8 22 -5 12 35 16 14 24 17 21 38 -17 54 -20 52 23 25 34 29 -6 -28 -4 -3 37 32 -21 -34 -7 -8 -30 -23 -13 -40 -19 -35 43 -43 45 -36 48 -48 49 -47 -37 -52 53 -11 -14 -1 -32 58 -58 -56 61 -12
right_child=-2 7 3 5 26 13 11 -9 -10 10 60 15 19 -15 -16 18 -18 40 20 31 -22 30 -24 -25 -26 -27 27 -29 36 -31 56 -33 33 41 44 50 -38 -39 39 -41 -42 42 -44 -45 -46 46 47 -49 -50 -51 51 -53 -54 -55 59 -57 57 -59 -60 -61 -62 -63
leaf_value=-0.054953443576195596 -0.063494619201506272 0.043171771985774231 -0.050006646709827476 0.041775177648048036 -0.055806457724899818 0.039035742560688973 0.085784711156103602 0.08434718277830365 -0.061293675608698688 0.052363205152941732 0.048795529925439111 0.052266402390563398 0.055307584992273257 0.029685126750368468 0.057568467817545932 0.038236046770411633 -0.01911741259929773 -0.023305598623720086 0.011032046759093609 -0.051269684749463598 -0.05981007906015956 -0.060195948411696856 0.087942814487114537 -0.0075238381361954479 0.064758722552849271 0.064909829358795634 0.029109434735890866 -0.0436355975234409 0.033958011445985821 -0.052306239560142936 0.067666052456005987 0.044735136602058627 -0.058683330904491272 0.058358201464132842 -0.054118590440147087 0.061668413822998203 -0.050428503694977325 0.034874855178424931 -0.032044418158824015 0.06008948617888045 0.063214508596735913 -0.028497801583526213 -0.030409125554071742 0.090913220741382528 -0.062922937197545686 0.028301576568295534 0.097250617991719301 -0.038196954732794462 0.038787422847029719 -0.053919764350716937 -0.032309840981154282 0.066912711902854444 0.069027075692208978 -0.041981938936803034 -0.059954305009143165 0.026632848513098883 0.035888744157251441 0.075731094773129656 -0.015364438926684744 0.035773986081964811 -0.053187065750854329 -0.029857021356754346
leaf_weight=533.45252735167742 2655.63720472157 41.650674134492874 46.422383055090904 178.23865415155888 110.44774653017521 9.8747996315360052 107.07018285989761 1478.6180897206068 19.217825643718243 17.648805215954784 10.512677207589148 328.36799051612616 34.227585643529892 31.130072601139545 13.269615381956099 76.913516074419022 44.240423604846001 38.60053651034832 63.807626664638519 64.305005386471748 31.533189013600349 19.756972126662735 140.84405116736889 20.52280829846859 7.8140442818403235 536.76269814372063 33.032853350043297 43.977903552353382 33.681909948587418 11.531403258442877 30.885015659034252 16.024655967950821 24.466682069003582 15.895067572593687 131.74488940089941 224.6667745411396 12.945527754724024 11.618621148169039 27.014201022684574 28.143127754330635 10.870571568608282 14.35108530521393 52.421123065054417 13.325452685356138 132.29795242846012 11.290009208023546 15.902729898691176 26.549160696566105 14.943164765834807 110.19351233541965 16.300555899739269 14.816013917326925 97.579013347625732 10.61743415892124 10.965896993875505 8.5369148254394513 43.850995719432831 17.304921090602875 48.02103067189455 12.964803993701933 106.96154222637415 105.33673378825188
leaf_count=3985 18296 140 375 613 825 37 241 3139 123 65 48 1053 118 120 41 304 247 214 294 433 221 127 301 88 26 1448 151 268 128 62 101 61 148 59 817 627 88 48 136 86 34 85 295 40 948 58 49 186 64 700 79 37 289 62 64 34 187 50 254 48 780 725
internal_value=0 0.0299637 -0.0017046 0.00851767 0.0273002 -0.00704929 0.0388337 0.0763877 0.0611139 0.00675471 -0.000827147 0.044457 0.0127235 -0.0344249 -0.0386365 0.0322749 0.0287549 0.0410526 0.0102105 -0.00842029 -0.0123984 0.0358791 0.0642449 0.0587775 -0.041408 0.0610839 -0.0379878 -0.0124325 -0.019672 0.0224694 0.020137 -0.0193228 -0.0248786 -0.0107901 -0.0432402 0.0647769 0.0105291 -0.0249905 0.0469019 0.0149654 -0.00429404 0.0014169 -0.00988287 0.0289952 -0.0450745 -0.0374726 -0.0252128 0.0125425 -0.0369611 -0.0462786 0.0559831 0.0149345 0.0573244 0.0169251 0.0292202 -0.0536684 0.0302461 0.0196604 0.00909897 -0.00809212 -0.0373457 -0.0227197
internal_weight=0 5546.28 3297.13 2755.14 1248.61 1506.53 1061.15 2249.15 770.529 1001.52 823.282 968.104 600.471 505.01 473.88 605.251 341.523 432.996 172.254 258.947 95.3408 297.283 751.312 610.468 460.61 589.945 187.459 77.0108 93.0498 53.1821 171.438 200.789 184.764 120.459 452.796 362.854 46.6274 31.3756 383.525 55.1573 49.4711 95.9927 80.0977 27.6765 442.921 310.623 178.879 42.4519 136.427 121.484 255.783 31.1166 125.845 28.2662 58.1583 541.989 140.062 109.177 91.872 23.9307 222.811 115.849
internal_count=40770 22474 17173 13154 5161 7993 3917 5301 2162 4947 4334 3326 2781 3046 2926 2342 1430 1523 819 1351 515 1183 2039 1738 2885 1650 1244 419 591 202 767 1121 1060 627 2859 984 216 175 1275 222 248 479 420 125 2822 1874 1057 235 822 758 743 116 416 127 230 4019 592 491 441 112 1553 773
is_linear=0
shrinkage=0.05


Tree=10
num_leaves=63
num_cat=0
split_feature=7 47 15 15 13 10 5 16 47 15 8 8 18 56 56 54 47 14 0 55 44 8 4 0 8 12 43 17 42 54 54 18 0 15 8 14 8 47 4 9 16 51 55 12 17 45 46 12 43 4 8 10 18 0 15 13 18 0 12 1 8 44
split_gain=5817.37 3103.34 647.082 290.621 348.173 189.961 122.004 115.874 94.6925 105.152 85.947 78.1583 75.3567 68.41 66.9098 65.6813 60.121 57.0962 62.703 46.5117 46.5043 44.7482 43.2625 53.3651 39.8915 51.3546 40.4842 36.2722 43.7354 39.0953 34.3275 34.2824 33.9997 48.722 33.6813 32.6312 32.131 31.5443 30.0057 28.9607 28.3571 33.25 28.0975 27.4204 38.0336 27.2676 27.1798 27.1723 51.2536 26.6159 25.7192 25.1617 23.9923 23.972 23.4195 23.2317 38.5275 23.1458 22.8303 32.6672 24.0453 21.4121
threshold=1.0000000180025095e-35 2.5000000000000004 0.10060950000000002 4.1518840000000008 0.37312110000000004 1292.1688558500002 3.042002704641952 224.10000000000002 5.5000000000000009 9.1850000000000023 10.006050000000002 11.565900000000001 0.039076700000000006 0.095332241430693007 0.10267433548993841 1.1660255490427989 1.5000000000000002 19.846380000000003 6.4140040000000011 9.464566522889994 5.6378207031309282 13.901550000000002 4984.9887049747022 1.6494891229766633 12.099650000000002 9.5210000000000018e-05 0.828180567475995 0.018698700000000002 0.72018143514203714 0.80787791023638678 1.2056013010284097 0.11901760000000002 5.4575437150183346 1.2322190000000004 10.806250000000002 5.4170100000000012 13.901550000000002 1.5000000000000002 5794.0762664434415 426.39550000000003 208.08300000000003 8479.0854220500023 26.001979012052583 0.00012786000000000001 0.017267000000000001 0.066778957834023364 1622.8571839023455 2.7620000000000003e-05 1.6033091659009753 6232.4740652145347 11.299650000000002 310.50000000000006 0.031699000000000005 8.1577209998395332 0.28024300000000008 1.0447364000000003 0.039076700000000006 1.9777913035779597 1.5344000000000004e-05 2.7837597909830323 10.446900000000001 8.755364617553175
decision_type=2 2 2 2 2 2 2 2 2 2 2 2 2 2 2 2 2 2 2 2 2 2 2 2 2 2 2 2 2 2 2 2 2 2 2 2 2 2 2 2 2 2 2 2 2 2 2 2 2 2 2 2 2 2 2 2 2 2 2 2 2 2
left_child=1 2 36 4 6 10 37 -8 9 27 13 14 43 -6 16 55 51 35 19 52 -15 47 -16 45 25 26 -14 28 -3 -29 49 -17 61 -34 -35 57 -1 39 -31 -4 -28 58 -22 46 -45 -24 50 48 54 -21 -12 -9 -19 -39 -7 -5 -57 -13 -42 60 -60 -25
right_child=-2 8 3 15 5 21 7 11 -10 -11 12 17 24 20 22 31 -18 18 -20 30 42 -23 23 32 -26 -27 40 29 -30 38 -32 -33 33 34 -36 -37 -38 53 -40 -41 41 -43 -44 44 -46 -47 -48 -49 -50 -51 -52 -53 -54 -55 -56 56 -58 -59 59 -61 -62 -63
leaf_value=-0.054362714504783805 -0.062664420287782838 -0.01988186529189024 -0.06269555969781096 -0.054798591251419997 -0.048578993184765835 0.026656021264059911 0.060198812729500631 -0.059669045732370002 0.081382217832562775 -0.055081687359500357 0.058442847088321107 0.061563839187018105 -0.072066480739518352 -0.035606106477448878 0.082720359874298641 0.055433654105404961 0.041314922724955322 0.029692579620280546 -0.048917943857054585 0.049811167277436869 0.056306139132527799 0.075828119700980162 -0.073104350788762082 0.033092515683187156 -0.034996803738373591 -0.025396851161117756 0.089604518109036135 0.080506797363975244 0.054269672685301064 0.059878691430409997 -0.040003231433874839 -0.040623364888005525 0.050181735710930292 -0.078581465648066187 0.033923903555101269 -0.059064577402929919 0.039946250700374331 -0.034560181212991849 -0.00083277164609938921 0.028713977180461508 0.04624133256718109 0.078976291619744524 -0.0026475501732554649 0.026730635499623803 -0.067744588472605033 0.016917715991168793 0.074992039577216354 -0.051950438534262677 0.037059755374882923 -0.0031783719318202001 -0.017367489857539178 0.019344382465479523 -0.07304080072756583 0.0375689054745015 -0.04573699267904234 0.077747146672918113 -0.036139336828571282 -0.017998792855491857 0.015075338164272166 0.026031603073789451 -0.060774885506946742 0.071600721667362519
leaf_weight=525.36501884460449 2555.5227487683296 21.505286365747452 46.065531641244888 211.19026055932045 23.269349031150341 12.500973850488661 347.65540077537298 34.706867039203644 1470.661055803299 19.438039787113667 21.466284155845642 11.992000132799147 12.01141134649515 17.715210065245628 75.626855246722698 26.080070555210114 49.806991130113602 8.8746893927454966 29.332461498677731 162.4504931345582 165.80256474763155 8.5560437440872175 13.448947660624979 50.738084740936756 145.10630387812853 137.93726360052824 14.572972074151037 331.68786214292049 263.97836352884769 107.55089350044727 13.650923460721968 14.426935791969298 49.930680133402348 16.297801896929744 11.240737706422804 41.191558420658112 9.1894482225179654 18.883364632725716 25.101722881197929 10.672422260046003 27.264626778662205 18.194513417780399 23.016566604375839 38.018275156617165 14.800068706274031 22.459031127393246 41.763059675693512 198.82043456286192 28.160128153860569 27.744664013385773 23.364975109696388 14.197461210191248 15.802985459566115 29.537883147597313 105.07591278851032 8.7158405780792219 50.188977852463722 38.449059188365936 15.851838633418081 41.68782227486372 30.653297796845436 125.1135940104723
leaf_count=4048 18251 104 407 1479 152 52 971 264 3167 128 67 40 81 99 183 105 162 38 190 550 539 23 86 180 1066 820 45 748 761 307 81 93 164 92 43 289 33 113 105 53 106 55 100 138 80 81 114 1340 128 142 110 58 111 120 685 24 307 215 74 186 203 320
internal_value=0 0.0285896 -0.00241692 0.00739358 0.0132114 -0.00650604 0.0313672 0.0360394 0.073947 0.0597326 0.0068007 0.025709 -0.00341183 0.0326957 0.0391694 -0.0381499 0.00264901 0.00785497 0.0199024 0.0287359 0.0418526 -0.0371242 0.04905 0.0402459 -0.0134956 -0.00303205 0.0162204 0.062709 0.0486839 0.0713318 0.0365844 0.0212221 0.048332 0.0207338 -0.0326588 -0.0260467 -0.0527415 -0.0202033 0.0483903 -0.0455014 0.0233747 0.0161532 0.0491198 0.0286508 0.000258018 -0.0167991 0.045969 -0.039929 -0.0235288 0.0420813 0.0189323 -0.0367306 -0.0360954 0.00943994 -0.03804 -0.0470541 -0.0192881 0.000916652 0.00625316 -0.00610908 -0.0349204 0.06049
internal_weight=0 5516.56 3276.64 2742.08 2431.48 1165.61 1265.87 1160.71 2239.92 769.262 812.496 813.056 582.693 229.804 463.567 310.602 98.7113 349.489 257.856 228.524 206.534 353.113 364.856 289.229 443.28 298.174 160.236 749.824 285.484 464.34 203.846 40.507 253.321 77.4692 27.5385 91.6326 534.554 105.159 132.653 56.738 148.225 133.652 188.819 139.413 52.8183 35.908 86.5943 344.557 145.737 190.195 44.8313 48.9043 24.6777 48.4212 117.577 270.095 58.9048 50.4411 115.458 88.193 46.5051 175.852
internal_count=40876 22625 17305 13224 11216 6263 4953 4260 5320 2153 4035 3289 3145 890 1633 2008 484 1656 1112 922 738 2228 1149 966 2636 1570 750 2025 865 1160 773 198 799 299 135 544 4081 693 412 460 669 624 639 509 218 167 291 2205 865 692 177 322 149 233 737 1810 331 255 569 463 277 500
is_linear=0
shrinkage=0.05


Tree=11
num_leaves=63
num_cat=0
split_feature=7 47 15 15 13 10 4 47 8 8 18 3 14 0 56 56 18 15 55 55 8 12 12 51 8 14 8 0 0 0 14 16 15 56 48 16 8 13 9 4 43 6 47 9 16 17 45 13 4 55 50 6 6 0 12 17 20 10 55 17 43 15
split_gain=5429.01 2737.52 592.582 257.966 304.515 169.401 110.786 101.453 86.2683 82.7791 72.9832 72.8102 65.6822 71.2225 64.1246 52.6281 51.2688 47.5375 45.1771 43.434 39.145 43.7809 38.8306 37.3021 43.8277 37.2228 36.2974 35.8225 33.8996 33.7191 33.397 33.0712 34.0185 32.5403 39.9213 59.1833 32.1748 31.2405 55.5966 33.1984 53.7645 30.3002 29.4714 27.8756 27.3378 26.776 26.708 26.1743 25.6737 25.6517 24.1597 25.6099 23.3478 23.2191 22.8005 34.9311 21.9253 21.8643 21.6212 21.5826 21.2325 20.949
threshold=1.0000000180025095e-35 2.5000000000000004 0.10060950000000002 4.1518840000000008 0.37617220000000007 1263.0465635000003 1.0000000180025095e-35 4.5000000000000009 11.637850000000002 10.006050000000002 0.039076700000000006 14.057569045990354 19.846380000000003 5.3159560410330977 0.095332241430693007 0.39595005071928685 0.11901760000000002 2.0032900000000002 2.2867524916943527 10.142079300149204 12.099650000000002 9.0540000000000011e-05 0.00055980000000000016 9470.8500000000022 11.686350000000003 14.603470000000002 13.901550000000002 1.8555367363075306 9.1331385907081977 11.57888902307953 5.7239600000000008 281.46000000000004 9.6528824000000011 0.0562721136535256 1.2500000000000002 234.06600000000003 14.088500000000002 0.093935600000000022 2417.0087062000007 4938.6749893710794 0.85336974161490653 0.94509700645729122 1.5000000000000002 23.440300000000004 242.25200000000004 0.026104500000000003 0.01157630563471492 0.49014730000000006 6428.0447133352272 6.6178307020460965 1.2500000000000002 0.66001482457873328 1.7201110038220475 3.1159828556812945 0.00026720000000000004 0.011883000000000001 8.7000000000000011 819.37206630000003 11.787892070754488 0.26250000000000007 1.552613559540053 0.90043400000000018
decision_type=2 2 2 2 2 2 2 2 2 2 2 2 2 2 2 2 2 2 2 2 2 2 2 2 2 2 2 2 2 2 2 2 2 2 2 2 2 2 2 2 2 2 2 2 2 2 2 2 2 2 2 2 2 2 2 2 2 2 2 2 2 2
left_child=1 2 26 4 6 9 42 11 15 14 54 27 30 19 -6 17 18 33 -5 -14 21 28 31 47 -25 -16 50 41 46 59 53 32 -20 34 35 -8 -26 -35 39 -39 -41 45 -4 60 57 -3 -12 -7 -21 -27 -1 -52 -50 -10 -11 -56 -29 -45 -42 -19 -23 -44
right_child=-2 7 3 16 5 23 8 -9 12 10 20 -13 13 -15 25 -17 -18 29 22 48 -22 43 -24 24 36 49 -28 56 -30 -31 -32 -33 -34 37 -36 -37 -38 38 -40 40 58 -43 61 44 -46 -47 -48 -49 52 -51 51 -53 -54 -55 55 -57 -58 -59 -60 -61 -62 -63
leaf_value=-0.054622628119116147 -0.061895168437489247 -0.0061754498794195853 -0.062908934398073921 -0.060216758906114068 -0.04942962030308054 -0.0099685363732708691 0.053610098112578143 0.077107236318977895 0.035200363047129216 0.041360771451914073 -0.0716920674631326 -0.040822058917452289 -0.013659116856293778 -0.030153718174920963 -0.027088120087991538 -0.041096529967799916 -0.053419303724553918 0.042472692849306611 0.069571986770699035 0.049370086776609083 -0.034324830638208112 -0.044777636385278201 -0.05504578933301893 0.097814058905670104 -0.066123252768908597 0.020711482573209244 0.046742432949839624 0.055034158964748607 0.062516361148302557 -0.072604888865160935 -0.054721657404263525 -0.031896893638423678 -0.021857569946734184 0.070045960664469331 0.051181719694013708 -0.05160182515044992 0.057138721449476251 0.080807738257952746 -0.045059641402438039 -0.028273462839387392 -0.0016109538438400497 -0.064590763450843441 0.020930829226395539 0.055983090273968653 -0.050981820773213837 0.073234879475536294 0.012103906772686045 -0.045501908336787016 -0.05877036314277128 0.06045414749753824 0.071875114167677848 -0.046363132008543008 0.049499757785466364 -0.025630045951953589 0.028764649988535892 -0.07027404826844777 0.082833231646536054 -0.038433837741158078 0.054574017220716614 -0.034832997919303464 0.035502810107775201 -0.060138888518758364
leaf_weight=487.83898352086544 2459.1240471303463 20.775997214019299 33.990155182778835 34.480491705238819 21.34823289513588 64.354982882738113 23.95822773873806 1640.2792113125324 30.513041839003563 100.71362838149071 10.495506666600702 20.244727291166782 37.074354104697704 46.429919756948948 18.024590186774731 17.600389383733273 174.94390331208706 34.409391790628433 37.894965879619122 221.57612819224596 141.71766208857298 11.459853753447531 19.716475181281567 11.115463867783545 15.095250725746157 58.909266829490662 9.3882674723863584 387.06845462322235 32.118901789188385 11.742625109851359 39.567994631826878 19.133774235844612 13.907605089247225 220.28738598525524 75.349325120449066 30.233372956514359 8.1538845598697645 69.316411435604095 16.062341369688511 24.748265273869038 18.785774029791355 9.450225964188574 30.709707170724869 12.520015724003317 75.76230726391077 21.705484047532082 101.16568937152624 266.18716280907393 10.977360889315607 130.64476942270994 7.8746365085244205 10.944803580641745 9.1128944531083089 32.285618655383587 27.853747814893723 13.085842013359068 86.842967852950096 12.016809828579424 193.45474979281425 12.240332074463366 29.277955256402493 10.760950393974779
leaf_count=3887 18267 94 331 262 146 370 72 3662 129 339 70 117 201 275 90 91 1236 131 145 737 1057 77 123 28 118 251 33 1103 110 75 284 123 82 551 223 227 25 170 76 130 83 55 128 54 513 55 487 1782 70 384 42 86 38 180 102 66 187 70 579 69 128 84
internal_value=0 0.0276894 -0.00156067 0.00778014 0.0132167 -0.00521357 0.0303335 0.0708926 0.0341028 0.00770312 -0.00252445 0.0522259 0.016186 0.0271818 0.0330876 0.044341 -0.0359403 0.0463992 -0.0115036 0.0367322 -0.0128514 -0.00216675 0.00702487 -0.0334292 0.0161505 0.041574 -0.0506731 0.0558082 0.0172486 0.00312575 -0.0187428 0.0242772 0.0450256 0.0501583 0.0276423 -0.0050874 -0.0228931 0.0555333 0.0456161 0.0503711 0.0414687 0.016385 -0.0283943 -0.0219598 -0.0361264 0.0343985 0.00422757 -0.0385837 0.0444628 0.048103 -0.0524781 0.00311141 -0.00965928 0.00392665 0.0285712 -0.00289187 0.0601283 0.00974279 0.049601 0.0221886 0.0129193 -0.000105423
internal_weight=0 5415.7 3229.33 2713.29 2413.21 1162.02 1251.19 2186.37 1175.73 797.115 568.188 546.088 427.537 325.171 228.927 748.189 300.077 730.588 125.133 278.741 426.535 284.817 90.6528 364.907 34.3646 207.579 516.047 525.843 143.78 58.3923 102.367 70.9363 51.8026 672.196 129.541 54.1916 23.2491 542.655 322.368 306.305 236.989 51.9317 75.4608 141.037 100.299 42.4815 111.661 330.542 241.666 189.554 506.658 18.8194 20.0903 62.7987 141.653 40.9396 473.911 24.5368 212.241 46.6497 40.7378 41.4707
internal_count=40760 22493 17220 13172 11201 6267 4934 5273 4391 3944 3073 1611 1914 1321 871 2477 1971 2386 735 1046 2566 1509 473 2323 171 725 4048 1494 667 275 593 350 227 2111 522 299 143 1589 1038 962 792 204 543 842 637 149 557 2152 845 635 4015 128 108 309 507 168 1290 124 662 200 205 212
is_linear=0
shrinkage=0.05


Tree=12
num_leaves=63
num_cat=0
split_feature=28 48 15 15 13 10 47 14 20 54 14 8 4 16 8 58 47 18 13 54 15 6 55 0 14 14 8 4 16 3 8 2 5 16 8 44 18 43 55 51 46 8 51 12 6 0 46 51 12 55 56 5 12 16 13 12 0 24 12 8 43 0
split_gain=5101.65 2552.67 562.741 260.421 277.885 160.407 120.76 104.104 79.8342 76.9837 72.9794 72.1978 65.8627 51.5045 50.2817 48.2746 80.3269 45.5985 39.4987 39.3473 38.1537 37.7973 85.6882 44.715 50.6873 37.7201 35.9307 47.8249 42.0868 32.5677 45.4716 44.3941 32.2752 31.313 34.9445 38.2676 32.7529 32.8254 35.4691 31.1338 30.6241 28.9456 28.8733 28.0445 26.3426 26.194 24.9268 24.307 23.0304 22.9294 22.0777 21.7079 25.274 35.1224 21.1891 26.1058 21.2504 21.1663 21.1216 20.9775 20.8137 25.4653
threshold=1.0000000180025095e-35 1.7500000000000002 0.081000000000000016 4.3316200000000009 0.37617220000000007 1292.1688558500002 4.5000000000000009 29.017300000000002 9.9000000000000021 1.2762575951040815e-13 438.70298000000008 9.2711300000000012 5950.045977168721 212.66400000000002 12.519600000000002 7.2027013860061802 1.5000000000000002 0.11901760000000002 0.3006524000000001 0.70626968415408053 0.74108400000000019 1.1167431199503559 18.323551073966289 5.3922656791707455 123.90000000000002 4.9983500000000012 9.6083500000000033 5678.794495515911 1.0000000180025095e-35 13.521178542416058 11.406150000000002 4851.3149665015144 1.0000000180025095e-35 210.03100000000003 11.796100000000001 6.8917275127420661 0.022773300000000003 1.6429139053901263 13.734564191323209 390.45000000000005 29080.671071601846 12.939850000000002 1080.3000000000002 0.00015517000000000002 0.77978495315385321 15.852574505011823 5780.2969364259725 1104.2000000000003 0.0017664000000000002 1634.2701350684731 0.19410624522295022 4.1097005124499786 9.8030000000000025e-06 202.47900000000001 0.85300000000000009 9.5210000000000018e-05 8.7061890974789957 1.0000000180025095e-35 2.3610000000000003e-05 9.9261505000000021 0.91513005775154432 3.1468221732009853
decision_type=2 2 2 2 2 2 2 2 2 2 2 2 2 2 2 2 2 2 2 2 2 2 2 2 2 2 2 2 2 2 2 2 2 2 2 2 2 2 2 2 2 2 2 2 2 2 2 2 2 2 2 2 2 2 2 2 2 2 2 2 2 2
left_child=-1 2 40 4 7 11 9 8 14 44 21 39 32 -12 15 16 51 19 60 46 -18 -9 -23 -24 -25 -17 28 42 45 49 31 -31 -13 43 35 59 -36 -38 -39 -6 -2 -32 58 -34 -3 -11 -5 -21 -22 -7 -14 -4 -53 -54 -37 56 -56 -30 -28 -35 -15 -62
right_child=1 6 3 17 5 29 -8 10 -10 26 13 12 50 18 -16 25 20 -19 -20 47 48 22 23 24 -26 -27 27 -29 57 30 41 -33 33 34 36 54 37 38 -40 -41 -42 -43 -44 -45 -46 -47 -48 -49 -50 -51 -52 52 53 -55 55 -57 -58 -59 -60 -61 61 -63
leaf_value=-0.061181239058662074 -0.052217452196136695 0.031645862374341915 -0.05522584824954152 -0.060851755018158364 0.00071454393351155505 -0.047279592922479782 0.074993932104608627 0.066231045651870421 0.063056593551456541 0.02080811831215143 0.060501354856972993 -0.069266938722237881 -0.039793509889490868 -0.029125320711684385 -0.049267718195372602 0.041867126605081677 0.038552069527697547 -0.054438475356550331 -0.049759269194566226 -0.033367147564160406 -0.06205687361601147 -0.031478552616939152 0.062645359293720213 0.05992602530175424 -0.041380898786748319 -0.033037547097637142 0.044606724751793003 -0.055585589047617262 0.072762996112117867 -0.037953447601094051 -0.061738325845539316 0.080410154118609106 0.061679666323002827 0.02263668450683198 0.030263959233190779 0.041869740061824319 -0.032601220011109544 -0.042023640407075805 0.081674886839507244 0.057055785691250006 0.057219946438698446 0.025964421004929392 0.057539477697959002 -0.0049444856182024816 -0.065720204103053792 0.072184527109088195 0.0065754955552715785 0.04447088693268425 0.030012334097305228 0.025747687434177349 0.010633286500211784 0.041773344190080927 0.031845402709534523 -0.050480305940738483 -0.0029221027316057857 -0.027233676317307765 0.084728563045499472 0.039881033362608592 -0.051880095373803919 -0.036094822109543755 0.045586656516393625 0.0013389617649453181
leaf_weight=2366.0033580288291 493.15750669687986 11.06725447624922 53.52228057384491 42.734077341854572 33.702360540628433 236.72272513061762 1613.3188630789518 236.48310182988644 65.904449880123138 95.588490128517151 54.644328609108925 13.041879542171953 114.22287657111883 22.691061250865459 40.127160519361496 129.58122161775827 103.20630802214146 171.7288771122694 27.76625844836235 14.356323674321173 17.65163637697697 37.354867570102215 169.61834976822138 24.365120500326157 25.031818933784962 19.31200172752142 10.425206124782564 15.263311602175234 301.30530145764351 12.569329053163527 35.867356613278389 21.425284415483475 50.020320422947407 23.813705921173096 37.697354555130005 118.86386724561453 121.40062487870455 9.7666825726628321 14.251023471355436 89.995816707611084 6.4764559417963019 12.753117792308329 64.230040028691292 23.084719136357307 18.658471554517746 33.505372643470764 20.179166808724403 33.280010521411896 11.040550984442232 11.260172873735426 26.797908119857311 16.148126646876335 17.799524039030075 47.605193741619587 14.111704155802729 30.135514356195927 13.55964571982622 58.431632146239281 12.44004065543413 42.051202744245529 63.050896316766739 67.145110182464123
leaf_count=18267 4024 38 462 311 166 1608 3660 646 179 350 155 94 781 130 287 422 341 1260 186 88 121 201 482 64 132 109 36 92 733 74 307 69 157 102 139 412 831 68 65 272 21 66 198 107 118 82 118 140 54 43 144 59 61 334 70 180 39 184 75 275 208 316
internal_value=0 0.0269333 -0.00214098 0.00706973 0.0125047 -0.0057374 0.0677825 0.0286609 0.0116174 0.049045 0.0408767 0.00668082 4.42858e-05 0.0179676 0.00418299 0.00934047 -0.00338153 -0.0383148 0.00510188 -0.0132682 0.024373 0.051814 0.0385154 0.0504534 0.00858891 0.0321517 0.0529928 0.0260553 0.0586333 -0.0349056 -0.00771653 0.0366458 0.00838082 0.0104112 0.00521922 0.0176674 -0.0112684 -0.022035 0.0313735 0.0417053 -0.0507989 -0.038734 0.0403628 0.0406414 -0.0294696 0.0341425 -0.0392247 0.0210126 -0.0266293 -0.0439636 -0.030211 -0.0304834 -0.0142451 -0.0280758 0.0297941 0.00496399 0.0400289 0.067422 -0.00788779 -0.0148602 0.0150654 0.0227671
internal_weight=0 5373.31 3139.08 2639.44 2357.16 1107.12 2234.23 1250.05 521.898 620.915 728.151 776.517 652.819 235.298 455.994 415.867 266.974 282.278 180.653 110.55 131.898 492.853 256.37 219.015 49.3969 148.893 591.189 102.359 488.831 330.598 82.6151 33.9946 511.798 498.756 425.651 242.536 183.116 145.418 24.0177 123.698 499.634 48.6205 87.0953 73.105 29.7257 129.094 62.9132 47.6363 28.6922 247.983 141.021 135.075 81.5528 65.4047 176.671 57.8069 27.6713 359.737 22.8652 65.8649 152.887 130.196
internal_count=40813 22546 16980 12935 11018 6069 5566 4949 2429 1906 2520 3902 3464 995 2250 1963 1432 1917 840 657 516 1525 879 678 196 531 1750 401 1349 2167 516 143 2539 2445 2181 1078 1103 964 133 438 4045 373 309 264 156 432 429 228 175 1651 925 916 454 395 701 289 109 917 111 377 654 524
is_linear=0
shrinkage=0.05


Tree=13
num_leaves=63
num_cat=0
split_feature=7 48 15 13 15 18 47 58 5 16 58 3 42 8 56 51 2 58 18 3 0 3 14 8 12 20 14 56 8 15 54 0 8 12 42 14 12 4 56 47 17 16 17 50 9 12 16 3 58 14 12 45 14 10 9 3 4 54 15 43 46 15
split_gain=4695.5 2404.2 526.399 241.24 251.647 165.374 113.123 104.825 88.2233 77.2961 74.1267 60.3858 53.5396 52.7317 49.0053 37.0765 42.5808 36.0243 57.0109 43.3964 35.0292 77.763 40.3966 42.9046 34.8878 34.6494 33.1218 31.8618 31.1861 29.868 28.8205 28.637 28.2064 27.34 26.4289 26.0172 28.2498 26.0907 26.0121 25.7091 25.4672 34.1905 24.0637 34.0665 26.9356 23.8221 23.6699 22.8964 22.6997 22.2754 38.7604 28.6813 27.1271 25.2558 28.3755 21.7387 21.7158 21.4963 21.351 21.0336 22.0088 20.9253
threshold=1.0000000180025095e-35 1.7500000000000002 0.081000000000000016 0.30593470000000006 2.6005697000000008 0.11901760000000002 4.5000000000000009 7.0934266270316231 3.5148458513240808 241.25800000000001 4.2399077146386999 14.057569045990354 1.4489418048303926 9.2711300000000012 0.30554136840830237 6888.7100197000009 12186.267186682158 2.5964686901478378 0.036354500000000005 5.4672209046506657 5.0454836288095146 13.521178542416058 19.846380000000003 12.533500000000002 8.0020000000000006e-06 8.7000000000000011 272.45651000000004 0.092976493570909036 13.901550000000002 1.3633321000000003 1.1461024048530903 1.7023071690319953 11.637850000000002 6.6240000000000004e-06 0.93003779270728781 302.59000000000009 1.7527000000000003e-05 6554.0164958215919 0.22774121096044855 1.5000000000000002 0.18000160000000001 210.03100000000003 0.17233640000000003 1.2500000000000002 19.412900000000004 2.1230000000000002e-05 243.99000000000004 15.606444230316162 5.1793703737769663 61.004300000000008 0.00053860000000000008 0.029719120338745922 15.000368000000002 1102.5000000000002 311.14500000000004 2.2258005717280418 6285.9916418532302 1.1222964837570564 3.6522551000000005 1.430765688430814 533.8312905427 0.76257860000000011
decision_type=2 2 2 2 2 2 2 2 2 2 2 2 2 2 2 2 2 2 2 2 2 2 2 2 2 2 2 2 2 2 2 2 2 2 2 2 2 2 2 2 2 2 2 2 2 2 2 2 2 2 2 2 2 2 2 2 2 2 2 2 2 2
left_child=1 2 28 4 8 10 11 12 39 33 14 25 -7 56 17 -6 38 18 -5 27 22 42 23 31 -15 32 -24 -20 -1 -9 57 -11 -3 -10 -28 36 -26 49 -17 46 41 -29 -22 44 -44 -31 -4 -36 -35 52 51 59 53 -38 -55 -16 -14 -12 -43 60 -51 -41
right_child=-2 6 3 5 15 7 -8 29 9 20 30 -13 13 24 55 16 -18 -19 19 -21 21 -23 26 -25 35 -27 34 40 -30 45 -32 -33 -34 48 47 -37 37 -39 -40 61 -42 58 43 -45 -46 -47 -48 -49 -50 50 -52 -53 -54 54 -56 -57 -58 -59 -60 -61 -62 -63
leaf_value=-0.052332258499217389 -0.060517663221625384 0.047874179447206011 -0.062834405590679737 0.038114459709647108 -0.053049230844992662 -0.050592895758544532 0.072799064796313026 0.056653616006650746 0.074547519540962989 -0.035480849886157739 -0.027087492724168785 -0.041080834128738378 0.04610476145403189 0.05831815591146268 0.018372237916778344 -0.024762710110133191 -0.039479256661979642 0.05499690420910857 -0.048932582682381105 -0.035285212892337749 0.045674886372632562 -0.064100679284102208 0.060064952798972719 -0.066163556928600417 0.050894730490816699 0.078320025395939671 -0.038697414341268652 0.063107977025089773 0.051064980167603073 0.028033913860198292 -0.069123798714153556 0.032478654617267781 -0.0055336700186326832 0.049925542315625127 0.044048609143870827 -0.047916571870970502 -0.0407824217245467 -0.059283369441000426 0.06947889435346781 0.030339857792867759 0.046238066774341488 -0.01189482142419696 -0.055481968090084058 0.050869319280863939 0.015868819279573617 -0.071232811962703785 0.030803552954056602 -0.0038275998633116072 -0.0046608663552160307 0.042336895297437081 -0.069869719163523913 -0.05644839964423231 -0.066684163287334258 0.10630214638763538 -0.0059290827283997706 -0.067161497810606041 -0.017759648154043167 0.039085002568420221 0.052728617500759391 0.064290241983502402 -0.052847030654463556 -0.047047658405289156
leaf_weight=477.57266303896904 2272.4807827919722 479.4631139934063 33.982443742454052 176.66056177765131 100.03172923624516 223.63369559496641 1564.3287545740604 46.565762348473072 118.04443491250277 18.823992013931274 51.550156310200691 18.649306006729603 37.915322937071323 11.53455466032028 10.793163925409315 11.217462800443171 42.315102949738503 67.567937381565571 19.369030073285103 61.446729347109795 61.823926366865635 31.940694451332092 145.26391007006168 16.497266367077827 13.203837528824804 93.057163029909134 13.961820490658281 22.641012012958527 7.4056883156299582 15.463975109159948 31.673442199826241 87.817902252078056 26.065644077956676 206.65472355484962 111.79140041768551 130.84349939972162 37.599620535969734 43.232649751007557 21.084724172949791 33.230441898107529 57.685523442924023 103.93999716639519 25.87261063605547 26.017245501279831 27.063100650906563 9.9215023145079595 8.4213720187544805 32.156187862157822 20.978840053081512 14.172375634312631 14.449573986232279 10.110245935618876 35.539859682321548 7.2943700850009909 24.711060710251331 23.828611016273499 20.511301018297672 16.107910096645355 14.573483556509016 28.955087140202522 10.626829124987124 11.850167728960512
leaf_count=4053 18228 1463 338 615 831 1558 3621 142 275 91 284 111 131 39 46 67 266 229 129 420 220 190 405 134 57 205 78 69 25 63 223 340 116 593 373 1007 246 336 80 123 216 564 193 77 116 69 39 152 83 60 103 84 281 30 180 147 112 74 67 117 76 83
internal_value=0 0.0254715 -0.00293008 0.0059871 0.0223535 -0.0081807 0.0656471 -0.0244583 0.0317452 0.0361935 0.010038 0.0475212 -0.030667 -0.0205556 0.0171162 -0.0331522 -0.00647839 0.0209237 0.0158784 0.00183172 0.025329 0.00633321 0.033025 0.0088745 -0.0273173 0.0502817 0.0428341 0.0122837 -0.0507534 0.0328681 -0.0297607 0.0204827 0.0451204 0.0550208 0.0269831 -0.0299816 -0.0201995 -0.0243405 0.036752 -0.0162906 0.0182468 0.00680758 0.0223139 0.00402107 -0.0190043 -0.0107629 -0.044238 0.0333536 0.0448948 -0.0161061 0.00408167 0.0208134 -0.0311423 -0.0129949 0.0196496 -0.0404968 0.0236845 -0.0113333 -0.00394814 0.035345 0.00154916 0.0099973
internal_weight=0 5267.51 3085.94 2600.96 1206.84 1394.12 2181.56 736.285 1032.19 944.708 657.838 617.235 664.334 440.7 558.506 174.649 74.6173 523.884 456.316 279.656 599.03 172.718 426.312 123.139 382.274 598.586 303.173 218.209 484.978 71.9512 99.3315 106.642 505.529 345.678 157.909 370.739 239.896 226.692 32.3022 87.4844 198.84 141.154 140.777 78.953 52.9357 25.3855 42.4038 143.948 227.634 183.459 78.3141 63.8645 105.145 69.6051 32.0054 34.6218 58.4266 67.6581 118.513 53.7543 24.7992 45.0806
internal_count=40743 22515 16999 12921 5147 7774 5516 4691 3903 3320 3083 1895 4417 2859 2502 1244 413 2309 2080 1465 2369 796 1573 565 2616 1784 1008 1045 4078 274 581 431 1579 951 603 2577 1570 1513 147 583 916 700 606 386 309 132 377 525 676 1177 440 337 737 456 210 193 243 358 631 253 136 206
is_linear=0
shrinkage=0.05


Tree=14
num_leaves=63
num_cat=0
split_feature=7 48 15 15 13 57 49 13 18 45 5 3 8 4 0 45 15 8 18 8 55 10 10 2 48 16 43 6 16 51 13 12 12 43 8 17 5 3 12 8 51 57 16 45 12 43 57 57 0 45 0 17 43 3 45 44 57 57 0 18 16 44
split_gain=4412.26 2186.44 464.632 241.526 252.102 116.97 114.722 103.92 110.952 91.9077 80.9735 71.9706 53.4193 51.8522 41.497 40.9753 59.2483 37.9329 51.935 37.9216 37.3412 34.3862 36.8389 37.5121 33.3287 40.7322 31.382 31.0634 30.2545 27.3405 27.1899 38.2659 26.6455 36.4975 26.3311 23.4722 23.4457 55.0359 23.0811 26.4935 30.9361 23.0174 23.7571 22.8804 22.8669 32.8391 23.3867 28.4505 22.5422 28.1872 21.9777 21.9438 26.5803 41.5953 21.7006 23.3829 25.0433 38.0464 21.6546 21.5326 21.0193 20.7115
threshold=1.0000000180025095e-35 1.7500000000000002 0.081000000000000016 1.5201530000000003 0.40063100000000007 0.54680828472102749 3.2500000000000004 0.12170000000000002 0.039076700000000006 0.032759367491008183 3.8349263118938266 16.460613975290318 9.1079005000000013 5591.1448389724274 5.3159560410330977 1.505991536637222e-08 0.066500000000000017 11.9092 0.039076700000000006 12.455150000000001 1068.3007129203995 303.06134380000009 1941.4631730500003 5938.2484211283654 1.2500000000000002 229.02500000000003 0.85336974161490653 1.0300511860846886 278.7000000000001 390.45000000000005 0.19527090000000005 0.00018955000000000003 9.2610000000000009e-05 1.2862253757606352 11.637850000000002 0.21946200000000002 4.0800014771920647 0.81334427679976662 1.2605e-05 13.789750000000002 4820.5000000000009 0.78866039541010957 260.01600000000002 0.0095003268622115469 8.301000000000002e-05 1.9356289046474162 0.78402822525279559 0.76838534480989995 8.3691358365532906 0.009920098207911952 7.3579309549137824 0.11650000000000001 0.91513005775154432 3.5532542169434866 0.011849883552842286 9.6472601139047143 0.78352680633466587 0.75666321415188864 2.1276568521652899 0.12000750000000002 274.70200000000006 8.6448113349232347
